{"sizes":[256,16,16,13],"layers":[{"0":{},"1":{},"2":{},"3":{},"4":{},"5":{},"6":{},"7":{},"8":{},"9":{},"10":{},"11":{},"12":{},"13":{},"14":{},"15":{},"16":{},"17":{},"18":{},"19":{},"20":{},"21":{},"22":{},"23":{},"24":{},"25":{},"26":{},"27":{},"28":{},"29":{},"30":{},"31":{},"32":{},"33":{},"34":{},"35":{},"36":{},"37":{},"38":{},"39":{},"40":{},"41":{},"42":{},"43":{},"44":{},"45":{},"46":{},"47":{},"48":{},"49":{},"50":{},"51":{},"52":{},"53":{},"54":{},"55":{},"56":{},"57":{},"58":{},"59":{},"60":{},"61":{},"62":{},"63":{},"64":{},"65":{},"66":{},"67":{},"68":{},"69":{},"70":{},"71":{},"72":{},"73":{},"74":{},"75":{},"76":{},"77":{},"78":{},"79":{},"80":{},"81":{},"82":{},"83":{},"84":{},"85":{},"86":{},"87":{},"88":{},"89":{},"90":{},"91":{},"92":{},"93":{},"94":{},"95":{},"96":{},"97":{},"98":{},"99":{},"100":{},"101":{},"102":{},"103":{},"104":{},"105":{},"106":{},"107":{},"108":{},"109":{},"110":{},"111":{},"112":{},"113":{},"114":{},"115":{},"116":{},"117":{},"118":{},"119":{},"120":{},"121":{},"122":{},"123":{},"124":{},"125":{},"126":{},"127":{},"128":{},"129":{},"130":{},"131":{},"132":{},"133":{},"134":{},"135":{},"136":{},"137":{},"138":{},"139":{},"140":{},"141":{},"142":{},"143":{},"144":{},"145":{},"146":{},"147":{},"148":{},"149":{},"150":{},"151":{},"152":{},"153":{},"154":{},"155":{},"156":{},"157":{},"158":{},"159":{},"160":{},"161":{},"162":{},"163":{},"164":{},"165":{},"166":{},"167":{},"168":{},"169":{},"170":{},"171":{},"172":{},"173":{},"174":{},"175":{},"176":{},"177":{},"178":{},"179":{},"180":{},"181":{},"182":{},"183":{},"184":{},"185":{},"186":{},"187":{},"188":{},"189":{},"190":{},"191":{},"192":{},"193":{},"194":{},"195":{},"196":{},"197":{},"198":{},"199":{},"200":{},"201":{},"202":{},"203":{},"204":{},"205":{},"206":{},"207":{},"208":{},"209":{},"210":{},"211":{},"212":{},"213":{},"214":{},"215":{},"216":{},"217":{},"218":{},"219":{},"220":{},"221":{},"222":{},"223":{},"224":{},"225":{},"226":{},"227":{},"228":{},"229":{},"230":{},"231":{},"232":{},"233":{},"234":{},"235":{},"236":{},"237":{},"238":{},"239":{},"240":{},"241":{},"242":{},"243":{},"244":{},"245":{},"246":{},"247":{},"248":{},"249":{},"250":{},"251":{},"252":{},"253":{},"254":{},"255":{}},{"0":{"bias":0.9121963977813721,"weights":{"0":-0.37522441148757935,"1":-0.21008579432964325,"2":-0.17523105442523956,"3":-0.21230344474315643,"4":0.08235033601522446,"5":-0.015441971831023693,"6":0.012696878984570503,"7":0.007947265170514584,"8":0.29574137926101685,"9":0.3175409436225891,"10":-0.046031802892684937,"11":0.010735266841948032,"12":0.060343869030475616,"13":0.024214796721935272,"14":0.0618908628821373,"15":0.09499569982290268,"16":-0.17114712297916412,"17":-0.2882191836833954,"18":-0.03252066671848297,"19":0.09471198171377182,"20":0.14699320495128632,"21":-0.012277807109057903,"22":0.13437102735042572,"23":0.22315125167369843,"24":0.09123197197914124,"25":0.2732791304588318,"26":0.10932785272598267,"27":-0.04372401535511017,"28":0.012875194661319256,"29":0.07551746070384979,"30":0.03488070145249367,"31":0.34077852964401245,"32":0.017546605318784714,"33":0.11699284613132477,"34":0.1186358854174614,"35":0.1689799427986145,"36":-0.02148064598441124,"37":-0.0038828577380627394,"38":-0.1735180765390396,"39":0.020078511908650398,"40":-0.048467978835105896,"41":-0.01916065812110901,"42":0.156087264418602,"43":-0.1385919153690338,"44":0.05826433748006821,"45":-0.13870204985141754,"46":0.23860907554626465,"47":0.29128003120422363,"48":0.3520061671733856,"49":0.021705735474824905,"50":0.0951307937502861,"51":0.21683423221111298,"52":0.2360316663980484,"53":0.05928871035575867,"54":-0.10736877471208572,"55":-0.1160319447517395,"56":0.14089597761631012,"57":0.02617030218243599,"58":-0.11289574205875397,"59":-0.01955893076956272,"60":-0.20858535170555115,"61":-0.16471488773822784,"62":0.22967401146888733,"63":0.029598351567983627,"64":0.44197410345077515,"65":0.06343764066696167,"66":0.10123347491025925,"67":0.028649771586060524,"68":0.08560054749250412,"69":0.01327485404908657,"70":-0.040946293622255325,"71":-0.12726105749607086,"72":-0.33110928535461426,"73":-0.11354740709066391,"74":-0.1918376386165619,"75":-0.08342287689447403,"76":0.046395041048526764,"77":-0.06689807772636414,"78":0.12697303295135498,"79":0.20996075868606567,"80":-0.03607123717665672,"81":0.1038283258676529,"82":0.03931768611073494,"83":-0.09307770431041718,"84":-0.02482197992503643,"85":0.013039512559771538,"86":-0.09231983125209808,"87":-0.3140205144882202,"88":-0.2770906388759613,"89":-0.31146448850631714,"90":-0.08704956620931625,"91":0.05299033597111702,"92":-0.007250173483043909,"93":0.22458340227603912,"94":0.16404348611831665,"95":-0.05614171177148819,"96":-0.020523404702544212,"97":-0.14736168086528778,"98":0.12640801072120667,"99":0.0535835362970829,"100":0.16269637644290924,"101":-0.029467247426509857,"102":-0.0895783007144928,"103":-0.0647612139582634,"104":0.14420902729034424,"105":-0.005692524369806051,"106":-0.09944996982812881,"107":-0.012841593474149704,"108":0.0025876518338918686,"109":-0.12586617469787598,"110":-0.19338931143283844,"111":0.03948654606938362,"112":-0.4716692864894867,"113":-0.29281389713287354,"114":-0.287619411945343,"115":-0.07796082645654678,"116":-0.06057548150420189,"117":-0.0651560053229332,"118":0.0524447038769722,"119":0.07657546550035477,"120":0.26871436834335327,"121":0.34744730591773987,"122":-0.10457855463027954,"123":0.059815239161252975,"124":-0.1344028115272522,"125":0.053488101810216904,"126":-0.22970570623874664,"127":-0.37653544545173645,"128":-0.41705790162086487,"129":-0.6803815960884094,"130":-0.2719727158546448,"131":-0.43598344922065735,"132":-0.08480022847652435,"133":0.019351106137037277,"134":0.18142282962799072,"135":0.2319408506155014,"136":0.4817570745944977,"137":0.2807810306549072,"138":0.14839646220207214,"139":0.044156163930892944,"140":-0.30088433623313904,"141":-0.3534122705459595,"142":0.08428467065095901,"143":0.1254749298095703,"144":-0.3372153043746948,"145":-0.26060086488723755,"146":-0.4679892063140869,"147":-0.0854937732219696,"148":-0.11686284840106964,"149":0.24006766080856323,"150":-0.01930129900574684,"151":-0.06967730075120926,"152":0.1455482840538025,"153":0.2079797387123108,"154":0.15042144060134888,"155":0.09335455298423767,"156":-0.20894047617912292,"157":-0.005717586260288954,"158":-0.06088782474398613,"159":-0.16121038794517517,"160":-0.5274825692176819,"161":-0.5858991742134094,"162":-0.707758367061615,"163":-0.5503581166267395,"164":0.015499870292842388,"165":0.055946994572877884,"166":-0.3149888813495636,"167":-0.03913338854908943,"168":-0.09235303848981857,"169":-0.10171737521886826,"170":-0.1096678301692009,"171":-0.21510130167007446,"172":-0.15938258171081543,"173":-0.12935808300971985,"174":-0.08412107080221176,"175":-0.2477051168680191,"176":-0.0729994997382164,"177":-0.3041784167289734,"178":-0.4719453752040863,"179":-0.28439605236053467,"180":-0.19200769066810608,"181":0.2859145998954773,"182":-0.22888922691345215,"183":-0.15449285507202148,"184":-0.04615858569741249,"185":-0.04778853803873062,"186":0.07748396694660187,"187":-0.0004918642225675285,"188":-0.20304150879383087,"189":-0.3115394115447998,"190":-0.04959559813141823,"191":0.1100463941693306,"192":-0.14303633570671082,"193":0.18858857452869415,"194":0.03743811324238777,"195":0.2278662472963333,"196":0.19758203625679016,"197":0.02646785043179989,"198":0.19415217638015747,"199":0.29132112860679626,"200":0.08293706178665161,"201":0.017738474532961845,"202":-0.04637714847922325,"203":0.20726542174816132,"204":-0.04784315824508667,"205":-0.06854881346225739,"206":-0.059888772666454315,"207":0.02559739351272583,"208":0.3182576596736908,"209":0.15629331767559052,"210":0.1353764533996582,"211":0.16264821588993073,"212":0.2556186616420746,"213":-0.021458009257912636,"214":0.07179111987352371,"215":-0.025775477290153503,"216":0.03381144255399704,"217":-0.18751594424247742,"218":0.1568213701248169,"219":0.04536329209804535,"220":-0.12570783495903015,"221":-0.197660893201828,"222":-0.17747893929481506,"223":0.04986956715583801,"224":0.21278347074985504,"225":0.431705117225647,"226":0.4961607754230499,"227":0.29725101590156555,"228":0.2833629250526428,"229":0.04525156319141388,"230":-0.25975435972213745,"231":-0.09987358003854752,"232":-0.06597290933132172,"233":-0.2702474892139435,"234":-0.19839000701904297,"235":0.050193797796964645,"236":-0.1045144647359848,"237":0.004656859207898378,"238":0.08434773981571198,"239":0.027683045715093613,"240":0.14134253561496735,"241":0.47995367646217346,"242":0.5856654644012451,"243":0.5087700486183167,"244":0.2931877374649048,"245":0.18512827157974243,"246":-0.026291556656360626,"247":-0.22238898277282715,"248":-0.28187280893325806,"249":0.056601159274578094,"250":-0.07809989899396896,"251":-0.14629460871219635,"252":-0.08025046437978745,"253":0.21833083033561707,"254":-0.22247812151908875,"255":0.05301360413432121}},"1":{"bias":-1.0905492305755615,"weights":{"0":-0.4321189522743225,"1":-0.08057291805744171,"2":-0.4094630181789398,"3":-0.20493248105049133,"4":-0.2565593421459198,"5":-0.3450120687484741,"6":-0.39729365706443787,"7":-0.22726809978485107,"8":-0.11090252548456192,"9":-0.04599364474415779,"10":0.13223174214363098,"11":0.20252496004104614,"12":0.24352754652500153,"13":0.15181374549865723,"14":-0.01565602980554104,"15":0.016600392758846283,"16":-0.22300955653190613,"17":-0.24712368845939636,"18":-0.3851085901260376,"19":-0.2812841236591339,"20":-0.2829616665840149,"21":-0.04502030462026596,"22":-0.20997396111488342,"23":-0.21379849314689636,"24":-0.20817475020885468,"25":-0.1848706603050232,"26":-0.032096121460199356,"27":0.07961069792509079,"28":-0.16472235321998596,"29":0.11611893028020859,"30":-0.1487288475036621,"31":0.12429428100585938,"32":-0.1399083137512207,"33":-0.08537444472312927,"34":-0.12965963780879974,"35":0.030665669590234756,"36":-0.23666425049304962,"37":0.058932118117809296,"38":-0.07053645700216293,"39":-0.06743618845939636,"40":0.04375053569674492,"41":-0.18644411861896515,"42":0.18915216624736786,"43":-0.2437662035226822,"44":-0.06362872570753098,"45":-0.15410010516643524,"46":0.06353707611560822,"47":0.13066570460796356,"48":-0.09298932552337646,"49":-0.07385962456464767,"50":-0.18245285749435425,"51":-0.2396600842475891,"52":0.18294690549373627,"53":-0.21002097427845,"54":0.034259386360645294,"55":0.2562676966190338,"56":0.18034659326076508,"57":0.20201662182807922,"58":0.027404023334383965,"59":-0.01395782083272934,"60":-0.23514755070209503,"61":-0.43657350540161133,"62":-0.37069061398506165,"63":0.027647582814097404,"64":0.10119068622589111,"65":-0.08733627200126648,"66":0.07787877321243286,"67":0.30755412578582764,"68":0.49438005685806274,"69":0.38145482540130615,"70":0.4852339029312134,"71":0.7386259436607361,"72":0.27783989906311035,"73":0.3813934028148651,"74":0.02726222202181816,"75":0.14956122636795044,"76":-0.24391229450702667,"77":-0.34393206238746643,"78":-0.238742858171463,"79":-0.32174286246299744,"80":-0.18448659777641296,"81":0.12520438432693481,"82":0.08712539821863174,"83":0.06472306698560715,"84":0.15045803785324097,"85":0.29617175459861755,"86":0.2552032470703125,"87":0.6118818521499634,"88":0.3723771870136261,"89":0.40229737758636475,"90":0.22742050886154175,"91":-0.1909177154302597,"92":0.04342731460928917,"93":0.02331802062690258,"94":0.026004774495959282,"95":0.1353200525045395,"96":-0.20298761129379272,"97":0.0042584664188325405,"98":-0.21773125231266022,"99":-0.129901722073555,"100":-0.0000761861665523611,"101":0.2096535861492157,"102":0.08127284795045853,"103":0.3345906734466553,"104":0.20904091000556946,"105":0.32048049569129944,"106":0.2729407250881195,"107":-0.031823743134737015,"108":-0.05417799949645996,"109":-0.27060890197753906,"110":-0.2908990681171417,"111":-0.047009922564029694,"112":-0.11311794817447662,"113":0.026729879900813103,"114":-0.01725628972053528,"115":-0.045264456421136856,"116":0.11009834706783295,"117":0.2931688129901886,"118":0.15102340281009674,"119":0.059623491019010544,"120":0.20497439801692963,"121":-0.05042792856693268,"122":0.15077443420886993,"123":-0.028047041967511177,"124":-0.08766299486160278,"125":-0.26283904910087585,"126":0.08534202724695206,"127":-0.18477143347263336,"128":0.21593810617923737,"129":0.381072074174881,"130":0.05149519443511963,"131":0.0812070369720459,"132":-0.01295619085431099,"133":-0.010835419408977032,"134":0.1292358636856079,"135":-0.03730619698762894,"136":0.13962894678115845,"137":-0.018440453335642815,"138":-0.0758330300450325,"139":-0.00801004096865654,"140":-0.2259465903043747,"141":-0.018615085631608963,"142":-0.03216255083680153,"143":-0.21506355702877045,"144":-0.042974282056093216,"145":0.2506013512611389,"146":0.30043676495552063,"147":0.17505130171775818,"148":-0.1294608861207962,"149":-0.15635372698307037,"150":0.1749640703201294,"151":0.0908953994512558,"152":0.23911342024803162,"153":0.007487432565540075,"154":-0.06715477257966995,"155":0.2759236693382263,"156":-0.028384888544678688,"157":-0.20401203632354736,"158":-0.016646014526486397,"159":-0.24474218487739563,"160":0.13629668951034546,"161":0.048127636313438416,"162":-0.08205980062484741,"163":0.18990828096866608,"164":0.07652460038661957,"165":-0.10653986781835556,"166":0.2806679308414459,"167":0.24483563005924225,"168":0.33566391468048096,"169":-0.12719488143920898,"170":-0.10284131020307541,"171":-0.01798611506819725,"172":-0.03414119780063629,"173":0.11868453770875931,"174":0.018024317920207977,"175":-0.03715083375573158,"176":0.1689392477273941,"177":-0.050277672708034515,"178":-0.11991096287965775,"179":0.11601793766021729,"180":-0.015257340855896473,"181":0.06335780769586563,"182":0.0789644792675972,"183":0.3478217124938965,"184":0.13579651713371277,"185":0.3092659115791321,"186":0.0873134434223175,"187":-0.12627646327018738,"188":-0.12688305974006653,"189":-0.12606847286224365,"190":-0.18741054832935333,"191":0.04498264938592911,"192":-0.08437759429216385,"193":-0.08180142939090729,"194":-0.1104024201631546,"195":-0.38774043321609497,"196":0.10847827047109604,"197":-0.23704072833061218,"198":-0.2321234792470932,"199":-0.23499590158462524,"200":-0.030088791623711586,"201":0.27929022908210754,"202":0.1128840446472168,"203":-0.23907741904258728,"204":-0.26643043756484985,"205":-0.016202043741941452,"206":-0.15207995474338531,"207":-0.08263352513313293,"208":0.134701669216156,"209":0.19993972778320312,"210":-0.00924932025372982,"211":-0.2011287659406662,"212":-0.11077578365802765,"213":-0.127946674823761,"214":0.02918163686990738,"215":-0.14537730813026428,"216":0.09496511518955231,"217":0.013293690979480743,"218":-0.018630603328347206,"219":-0.11772395670413971,"220":0.1723431795835495,"221":-0.1732499897480011,"222":0.29149186611175537,"223":0.3387894630432129,"224":0.0213317908346653,"225":-0.11253540217876434,"226":-0.05615871772170067,"227":-0.20819269120693207,"228":-0.166545569896698,"229":-0.12554191052913666,"230":-0.25676843523979187,"231":-0.055863939225673676,"232":0.2123158574104309,"233":-0.0415232889354229,"234":0.13027586042881012,"235":0.1413896679878235,"236":0.004976061172783375,"237":-0.008699524216353893,"238":0.0035738544538617134,"239":-0.05314892530441284,"240":0.11030042916536331,"241":0.048836514353752136,"242":0.07081921398639679,"243":-0.23585259914398193,"244":-0.2965993881225586,"245":-0.28828489780426025,"246":-0.17726758122444153,"247":-0.12209341675043106,"248":0.2370530664920807,"249":0.12514834105968475,"250":0.2519051432609558,"251":0.1853950470685959,"252":-0.0782356783747673,"253":0.16209860146045685,"254":0.2956778109073639,"255":0.4362444281578064}},"2":{"bias":1.537834882736206,"weights":{"0":0.06331726908683777,"1":-0.020375436171889305,"2":0.0614326037466526,"3":0.12770776450634003,"4":0.054764945060014725,"5":-0.048150260001420975,"6":-0.23257498443126678,"7":-0.06358236819505692,"8":-0.2373766005039215,"9":-0.014888191595673561,"10":0.016540903598070145,"11":-0.04167664051055908,"12":0.055014438927173615,"13":-0.15805426239967346,"14":0.12083994597196579,"15":-0.23261648416519165,"16":0.33839231729507446,"17":0.2725101411342621,"18":0.04987901449203491,"19":0.08506235480308533,"20":0.1053842231631279,"21":-0.19259101152420044,"22":-0.03933189436793327,"23":0.011851788498461246,"24":-0.06273502111434937,"25":-0.07411850988864899,"26":0.1431272327899933,"27":-0.15357692539691925,"28":0.16144317388534546,"29":-0.23702743649482727,"30":-0.07972241193056107,"31":-0.04070165008306503,"32":0.24458059668540955,"33":0.15834398567676544,"34":0.16323322057724,"35":0.3126293420791626,"36":0.13155224919319153,"37":0.14404910802841187,"38":0.12602515518665314,"39":0.048893533647060394,"40":0.1027456521987915,"41":-0.11569841206073761,"42":-0.14519277215003967,"43":-0.18786852061748505,"44":0.05484437942504883,"45":0.0741933137178421,"46":-0.2035709172487259,"47":-0.15674680471420288,"48":0.19506770372390747,"49":0.24238291382789612,"50":0.14660875499248505,"51":0.18260841071605682,"52":0.291675329208374,"53":0.08136744797229767,"54":0.0348065085709095,"55":0.004122081678360701,"56":-0.13891293108463287,"57":0.1894596815109253,"58":0.04216020554304123,"59":-0.022670341655611992,"60":0.22926343977451324,"61":0.2239074409008026,"62":0.15524525940418243,"63":-0.08186674863100052,"64":0.29711443185806274,"65":0.14662955701351166,"66":0.004776209592819214,"67":-0.06885125488042831,"68":-0.1382320672273636,"69":-0.23167850077152252,"70":-0.04611891508102417,"71":-0.290198415517807,"72":-0.3354295790195465,"73":-0.06942568719387054,"74":0.00810196716338396,"75":0.006390983704477549,"76":0.04451216757297516,"77":0.20254184305667877,"78":0.2532323896884918,"79":0.049815695732831955,"80":-0.021712826564908028,"81":-0.22782187163829803,"82":-0.18042109906673431,"83":-0.04835589602589607,"84":-0.03035561926662922,"85":-0.385962575674057,"86":-0.28684306144714355,"87":0.008901488035917282,"88":-0.22776468098163605,"89":-0.19413290917873383,"90":0.09490041434764862,"91":0.2228880077600479,"92":0.18408167362213135,"93":0.10775262862443924,"94":0.09783320873975754,"95":0.029552849009633064,"96":-0.17563460767269135,"97":0.021111775189638138,"98":-0.3834429979324341,"99":-0.20343764126300812,"100":-0.21690227091312408,"101":0.25175344944000244,"102":-0.06505703181028366,"103":-0.049830421805381775,"104":0.14116515219211578,"105":-0.2663637101650238,"106":-0.24005243182182312,"107":-0.12346825748682022,"108":-0.03914732486009598,"109":0.03719547390937805,"110":0.05575663596391678,"111":0.07379136234521866,"112":-0.3288117051124573,"113":-0.17221178114414215,"114":-0.13556140661239624,"115":-0.20483118295669556,"116":-0.34708166122436523,"117":0.047050852328538895,"118":0.13004335761070251,"119":-0.011423126794397831,"120":0.09729825705289841,"121":0.16495639085769653,"122":0.11926446855068207,"123":-0.11700288951396942,"124":-0.061393722891807556,"125":-0.23155397176742554,"126":-0.0369398295879364,"127":0.17032286524772644,"128":-0.16396351158618927,"129":-0.16979140043258667,"130":-0.017059611156582832,"131":0.06656735390424728,"132":0.13334478437900543,"133":0.385921835899353,"134":0.08636096119880676,"135":0.3846554160118103,"136":0.0845908373594284,"137":0.27314358949661255,"138":0.10009045898914337,"139":0.15991419553756714,"140":-0.08750045299530029,"141":-0.16926555335521698,"142":-0.03386649116873741,"143":-0.09327390044927597,"144":-0.08545058220624924,"145":-0.04123688489198685,"146":0.017125839367508888,"147":-0.20562124252319336,"148":-0.08998970687389374,"149":0.10717649012804031,"150":0.3709285259246826,"151":0.4474237561225891,"152":0.2515667676925659,"153":0.24143101274967194,"154":0.06078939884901047,"155":0.06739252060651779,"156":0.19653736054897308,"157":0.016503771767020226,"158":-0.13236939907073975,"159":-0.006376356817781925,"160":-0.36532285809516907,"161":-0.4062376618385315,"162":-0.026030834764242172,"163":-0.3381462097167969,"164":0.053889594972133636,"165":-0.09268999099731445,"166":0.04565448313951492,"167":0.32282623648643494,"168":0.25585421919822693,"169":0.4059670865535736,"170":0.18304574489593506,"171":0.3298594057559967,"172":0.049898725003004074,"173":0.03162664175033569,"174":-0.12260942906141281,"175":-0.1999969482421875,"176":-0.47113656997680664,"177":-0.5306174755096436,"178":-0.30264854431152344,"179":-0.3379558324813843,"180":-0.040050528943538666,"181":-0.1458393633365631,"182":-0.08894681185483932,"183":0.26050040125846863,"184":0.22199741005897522,"185":0.2700239419937134,"186":-0.030265623703598976,"187":0.052919674664735794,"188":0.11298862099647522,"189":-0.0665113627910614,"190":0.10976453870534897,"191":0.1124025285243988,"192":-0.37899550795555115,"193":-0.20176152884960175,"194":-0.33223074674606323,"195":-0.10890467464923859,"196":-0.01439632847905159,"197":0.07971902936697006,"198":0.020355941727757454,"199":0.09435770660638809,"200":0.3081473410129547,"201":0.09678923338651657,"202":0.0854593887925148,"203":-0.1098184809088707,"204":-0.10721386224031448,"205":0.042991288006305695,"206":0.13159123063087463,"207":-0.05080893635749817,"208":-0.12025827914476395,"209":-0.3510288596153259,"210":0.041808661073446274,"211":0.04563751816749573,"212":0.01665964163839817,"213":-0.07418223470449448,"214":0.07005878537893295,"215":0.008628064766526222,"216":-0.11524534970521927,"217":0.17773886024951935,"218":-0.07663483917713165,"219":-0.08432021737098694,"220":0.04163774475455284,"221":-0.16569624841213226,"222":0.25088560581207275,"223":0.14118845760822296,"224":-0.05059606954455376,"225":-0.14257656037807465,"226":0.12601323425769806,"227":-0.01265885028988123,"228":-0.029332932084798813,"229":-0.1609213501214981,"230":0.03216836228966713,"231":0.05259300768375397,"232":-0.10220780968666077,"233":-0.1070604920387268,"234":-0.1766524612903595,"235":0.13015694916248322,"236":0.02792946621775627,"237":-0.0910860076546669,"238":-0.13827410340309143,"239":0.0585896372795105,"240":0.06578446924686432,"241":-0.22018419206142426,"242":-0.08326364308595657,"243":-0.019682882353663445,"244":-0.27311834692955017,"245":-0.047304246574640274,"246":0.034913528710603714,"247":-0.28095394372940063,"248":-0.11748991161584854,"249":-0.16735847294330597,"250":-0.39457932114601135,"251":-0.1317765712738037,"252":0.014498251490294933,"253":-0.28434836864471436,"254":0.17825207114219666,"255":0.008909061551094055}},"3":{"bias":-0.20012713968753815,"weights":{"0":-0.12595272064208984,"1":-0.1183074489235878,"2":0.16781799495220184,"3":-0.07366693764925003,"4":0.04638954624533653,"5":0.13682405650615692,"6":-0.08376014232635498,"7":0.04778815060853958,"8":-0.0024832291528582573,"9":0.20474521815776825,"10":0.11549335718154907,"11":0.20933963358402252,"12":0.02125936932861805,"13":-0.17512322962284088,"14":-0.3622918725013733,"15":-0.09896142035722733,"16":-0.19268248975276947,"17":-0.07807255536317825,"18":0.03637494146823883,"19":-0.06486789137125015,"20":-0.21980062127113342,"21":0.09336899220943451,"22":0.0906268060207367,"23":-0.02810058929026127,"24":-0.10941891372203827,"25":-0.10606633871793747,"26":0.05442344769835472,"27":0.007527688052505255,"28":0.0759742334485054,"29":0.009375224821269512,"30":-0.07353220134973526,"31":0.10044635087251663,"32":0.0987524762749672,"33":0.2165910303592682,"34":0.04002714157104492,"35":-0.07515915483236313,"36":0.07231495529413223,"37":0.03421721234917641,"38":-0.27111369371414185,"39":-0.13674499094486237,"40":-0.20929881930351257,"41":0.08975224196910858,"42":0.09779606014490128,"43":0.02122698910534382,"44":0.03650554269552231,"45":-0.01827097125351429,"46":0.16026228666305542,"47":0.144391730427742,"48":0.17142418026924133,"49":0.11799369007349014,"50":0.2936261296272278,"51":0.138831228017807,"52":0.09518533945083618,"53":-0.09002658724784851,"54":-0.014102061279118061,"55":0.08208275586366653,"56":0.1857134848833084,"57":-0.0592607781291008,"58":-0.035520076751708984,"59":-0.08419977873563766,"60":-0.022051891312003136,"61":-0.19666388630867004,"62":0.10075058043003082,"63":-0.141849085688591,"64":0.25802338123321533,"65":0.09445322304964066,"66":0.13617247343063354,"67":0.16682860255241394,"68":-0.13466821610927582,"69":0.21216128766536713,"70":-0.29951876401901245,"71":-0.052478887140750885,"72":-0.37058553099632263,"73":-0.049361664801836014,"74":0.028401987627148628,"75":-0.12817344069480896,"76":-0.22501197457313538,"77":-0.20598594844341278,"78":-0.20445270836353302,"79":0.13569800555706024,"80":0.19800645112991333,"81":-0.13708537817001343,"82":-0.08299506455659866,"83":0.027701837942004204,"84":-0.118306465446949,"85":0.002215390792116523,"86":-0.3142252266407013,"87":-0.2264498919248581,"88":-0.1255173236131668,"89":-0.06466952711343765,"90":-0.06914845108985901,"91":-0.05367444455623627,"92":0.05132046714425087,"93":-0.17120930552482605,"94":0.16183128952980042,"95":0.21275335550308228,"96":-0.28173398971557617,"97":-0.09606996923685074,"98":-0.037848033010959625,"99":0.18712767958641052,"100":0.31824472546577454,"101":0.284131795167923,"102":0.13613338768482208,"103":0.06310614943504333,"104":0.26635318994522095,"105":0.32414552569389343,"106":0.26953503489494324,"107":-0.07513385266065598,"108":0.039351169019937515,"109":-0.045342013239860535,"110":-0.11247781664133072,"111":0.13296155631542206,"112":-0.2970314025878906,"113":-0.22401143610477448,"114":-0.07867807149887085,"115":0.03441210836172104,"116":0.010637952946126461,"117":0.06603394448757172,"118":-0.04256753996014595,"119":-0.029553713276982307,"120":0.3106154501438141,"121":0.23358812928199768,"122":0.032420575618743896,"123":0.09446758031845093,"124":-0.08190711587667465,"125":0.12574535608291626,"126":-0.1803891956806183,"127":-0.26372790336608887,"128":-0.47982320189476013,"129":-0.3932330310344696,"130":-0.21150466799736023,"131":-0.45004862546920776,"132":-0.29662245512008667,"133":-0.15232937037944794,"134":-0.040427315980196,"135":0.2308109849691391,"136":0.39259040355682373,"137":0.1403304934501648,"138":0.15232160687446594,"139":0.20991633832454681,"140":0.12012024223804474,"141":0.02892664633691311,"142":0.04464436322450638,"143":0.01863882504403591,"144":-0.3096493184566498,"145":-0.1373477429151535,"146":-0.2641102075576782,"147":-0.23500502109527588,"148":-0.22886741161346436,"149":0.021685762330889702,"150":-0.16490279138088226,"151":0.04990791156888008,"152":0.04052558168768883,"153":0.043070223182439804,"154":0.16836540400981903,"155":0.12437639385461807,"156":0.18073046207427979,"157":0.1596708744764328,"158":-0.0013019187608733773,"159":0.04218212515115738,"160":-0.31094807386398315,"161":-0.44888147711753845,"162":-0.004140038974583149,"163":-0.2927001714706421,"164":-0.2136315107345581,"165":-0.3898704946041107,"166":-0.28949397802352905,"167":-0.3037697672843933,"168":0.029008634388446808,"169":0.03381362184882164,"170":-0.10357961058616638,"171":0.06159738078713417,"172":0.16213954985141754,"173":0.2479601502418518,"174":0.10269299149513245,"175":0.06237203627824783,"176":-0.10725212842226028,"177":-0.12002363801002502,"178":-0.011859014630317688,"179":0.24148420989513397,"180":-0.17579998075962067,"181":-0.022324511781334877,"182":-0.19417762756347656,"183":-0.07758022099733353,"184":-0.006432820577174425,"185":-0.08852362632751465,"186":-0.23402515053749084,"187":-0.04450412839651108,"188":0.13527289032936096,"189":-0.02370576746761799,"190":0.1718091368675232,"191":0.0797945186495781,"192":0.16382542252540588,"193":0.3207801580429077,"194":0.10888967663049698,"195":-0.028140148147940636,"196":-0.15411032736301422,"197":0.24200953543186188,"198":0.17866802215576172,"199":0.2932978570461273,"200":0.10340610146522522,"201":0.14548778533935547,"202":0.024340884760022163,"203":0.2151009738445282,"204":0.04529479146003723,"205":0.1465255320072174,"206":0.16436763107776642,"207":0.15452183783054352,"208":0.1670643538236618,"209":0.32455921173095703,"210":0.023357592523097992,"211":0.14266802370548248,"212":-0.052445314824581146,"213":-0.041337866336107254,"214":-0.09371338039636612,"215":0.09459719806909561,"216":-0.008772098459303379,"217":0.17684020102024078,"218":0.004029945470392704,"219":0.4821029305458069,"220":0.07773388177156448,"221":0.09726902842521667,"222":0.32026004791259766,"223":0.27326682209968567,"224":0.3522495925426483,"225":0.28158363699913025,"226":0.3059729039669037,"227":0.08880525827407837,"228":-0.055158842355012894,"229":0.05019690841436386,"230":-0.003131984733045101,"231":0.005810509901493788,"232":0.23750515282154083,"233":0.2511273920536041,"234":0.4424869418144226,"235":0.23453088104724884,"236":0.20360355079174042,"237":0.25396043062210083,"238":0.3685340881347656,"239":0.2783255875110626,"240":0.2712506055831909,"241":0.43756094574928284,"242":0.23852330446243286,"243":0.24983054399490356,"244":-0.08820840716362,"245":-0.08124008774757385,"246":0.029026053845882416,"247":0.03216962143778801,"248":0.04102601483464241,"249":0.22241483628749847,"250":0.27194568514823914,"251":-0.008036834187805653,"252":0.25223150849342346,"253":0.5528167486190796,"254":0.02701626718044281,"255":0.4400555491447449}},"4":{"bias":-0.2698775827884674,"weights":{"0":-0.3551485240459442,"1":-0.4480772912502289,"2":-0.5889601111412048,"3":-0.38416391611099243,"4":-0.18177783489227295,"5":-0.13601648807525635,"6":-0.1279359757900238,"7":-0.2714214026927948,"8":0.06377190351486206,"9":-0.0009482846944592893,"10":-0.18106094002723694,"11":-0.032229628413915634,"12":0.2378004640340805,"13":0.32210424542427063,"14":0.10392370820045471,"15":-0.15895873308181763,"16":-0.26606667041778564,"17":-0.3680107891559601,"18":-0.16943329572677612,"19":-0.14982646703720093,"20":-0.24415232241153717,"21":-0.09835153073072433,"22":-0.24387255311012268,"23":-0.06575509160757065,"24":-0.19888834655284882,"25":0.1590215265750885,"26":-0.1459791660308838,"27":0.08536046743392944,"28":0.0886744037270546,"29":-0.1904561072587967,"30":-0.12095222622156143,"31":-0.058294087648391724,"32":-0.007424627896398306,"33":-0.16749389469623566,"34":-0.2616848051548004,"35":-0.2732318639755249,"36":-0.17420578002929688,"37":0.010870259255170822,"38":-0.2692994773387909,"39":0.019896049052476883,"40":0.009823939763009548,"41":-0.09485631436109543,"42":-0.03277258202433586,"43":-0.20402875542640686,"44":-0.1640457957983017,"45":-0.12001358717679977,"46":-0.15148882567882538,"47":0.16030697524547577,"48":0.05456976220011711,"49":-0.10983050614595413,"50":-0.0035644902382045984,"51":0.10599374026060104,"52":0.1299186646938324,"53":-0.012587874196469784,"54":-0.2751964032649994,"55":-0.03309448063373566,"56":-0.16254712641239166,"57":-0.26483315229415894,"58":0.07565265148878098,"59":0.016982726752758026,"60":0.017141126096248627,"61":-0.10995107889175415,"62":0.06142096966505051,"63":-0.0269375778734684,"64":0.3939857482910156,"65":0.0893065482378006,"66":0.2366267442703247,"67":0.39118894934654236,"68":0.23840630054473877,"69":0.5534119606018066,"70":0.24276813864707947,"71":0.4462895095348358,"72":0.5293921232223511,"73":0.22302676737308502,"74":-0.029822837561368942,"75":0.0489208847284317,"76":-0.3212122917175293,"77":-0.09574082493782043,"78":-0.22703035175800323,"79":-0.173475444316864,"80":-0.1895502209663391,"81":-0.1594177931547165,"82":-0.16704849898815155,"83":0.1968916803598404,"84":0.2067357301712036,"85":0.19651542603969574,"86":0.2958751916885376,"87":0.4521787464618683,"88":0.33102691173553467,"89":0.08525063842535019,"90":-0.0068843732587993145,"91":0.02170204184949398,"92":-0.0373917818069458,"93":-0.249501034617424,"94":0.06808019429445267,"95":0.1514699012041092,"96":-0.09537345170974731,"97":-0.3242070972919464,"98":-0.26810887455940247,"99":0.053459737449884415,"100":-0.004892468918114901,"101":0.3289058804512024,"102":0.3293071389198303,"103":0.5361599326133728,"104":0.5228517651557922,"105":0.09527543187141418,"106":0.34244614839553833,"107":0.04022061824798584,"108":0.07004327327013016,"109":-0.3032029867172241,"110":-0.38298407196998596,"111":-0.10020868480205536,"112":-0.07438517361879349,"113":-0.32208922505378723,"114":0.06532423198223114,"115":-0.147257998585701,"116":0.06492455303668976,"117":-0.009886665269732475,"118":0.026993662118911743,"119":0.055700451135635376,"120":0.08121578395366669,"121":0.28530195355415344,"122":-0.009756520390510559,"123":-0.0022178003564476967,"124":-0.13704873621463776,"125":-0.07952414453029633,"126":-0.13553068041801453,"127":-0.20023761689662933,"128":0.0612456239759922,"129":0.11964112520217896,"130":0.21945586800575256,"131":0.04955356940627098,"132":0.10796120017766953,"133":0.10952097177505493,"134":0.09998654574155807,"135":-0.13209979236125946,"136":0.14865507185459137,"137":-0.03131290525197983,"138":0.02271932363510132,"139":0.014092447236180305,"140":-0.13319173455238342,"141":-0.35401198267936707,"142":-0.23853693902492523,"143":0.06234119087457657,"144":0.07176680862903595,"145":0.3846515417098999,"146":0.19443680346012115,"147":0.1483260840177536,"148":-0.059321220964193344,"149":0.17545287311077118,"150":-0.024840299040079117,"151":0.05513427034020424,"152":0.24919049441814423,"153":-0.14944706857204437,"154":-0.07163267582654953,"155":-0.020955733954906464,"156":-0.16135062277317047,"157":-0.06278930604457855,"158":-0.17921094596385956,"159":0.022649379447102547,"160":0.04385307431221008,"161":0.28974348306655884,"162":0.2474483996629715,"163":0.24724362790584564,"164":0.09049572050571442,"165":-0.16751700639724731,"166":-0.022234058007597923,"167":0.080105721950531,"168":0.19817587733268738,"169":-0.05568048357963562,"170":-0.15385958552360535,"171":0.1417360156774521,"172":-0.00664394348859787,"173":-0.01860913261771202,"174":-0.09167937189340591,"175":-0.14285823702812195,"176":0.19946171343326569,"177":-0.026070700958371162,"178":0.08607184886932373,"179":0.1957390159368515,"180":0.1751416176557541,"181":0.04793170094490051,"182":-0.20398029685020447,"183":-0.05062757432460785,"184":0.08366643637418747,"185":-0.11959493160247803,"186":0.04226114973425865,"187":-0.009539460763335228,"188":-0.07174656540155411,"189":0.07730255275964737,"190":-0.21781596541404724,"191":-0.3316524922847748,"192":0.04572908207774162,"193":0.10656294971704483,"194":-0.2014079988002777,"195":0.002698781667277217,"196":0.036001842468976974,"197":0.031642355024814606,"198":-0.05639933794736862,"199":-0.2697906494140625,"200":0.10109009593725204,"201":0.08877648413181305,"202":-0.016059087589383125,"203":-0.21404026448726654,"204":0.050711922347545624,"205":-0.2881065905094147,"206":0.04286770150065422,"207":-0.09352867305278778,"208":0.031264446675777435,"209":0.17080111801624298,"210":-0.18675968050956726,"211":-0.24540925025939941,"212":-0.28964173793792725,"213":-0.019214818254113197,"214":-0.02430783584713936,"215":-0.004279288928955793,"216":0.026579292491078377,"217":-0.05848037824034691,"218":0.039538368582725525,"219":-0.12733906507492065,"220":-0.034853555262088776,"221":-0.1527254730463028,"222":0.38943716883659363,"223":0.22263361513614655,"224":0.06924407929182053,"225":-0.11104895174503326,"226":-0.12889377772808075,"227":-0.3184587359428406,"228":-0.2958560287952423,"229":-0.10594730824232101,"230":-0.10433575510978699,"231":0.029688166454434395,"232":0.04842905327677727,"233":0.27385076880455017,"234":0.04533451795578003,"235":0.14437970519065857,"236":-0.009600413963198662,"237":0.11078428477048874,"238":0.08193144202232361,"239":0.10121884942054749,"240":0.0472719632089138,"241":-0.24529458582401276,"242":0.06070289388298988,"243":-0.22217491269111633,"244":-0.2689071595668793,"245":-0.07728693634271622,"246":-0.17534449696540833,"247":-0.13775362074375153,"248":-0.07528942078351974,"249":0.28687968850135803,"250":0.2942637801170349,"251":0.10473622381687164,"252":0.2849050462245941,"253":0.39872026443481445,"254":0.19213253259658813,"255":-0.031209176406264305}},"5":{"bias":-0.7186009883880615,"weights":{"0":-0.2601155638694763,"1":-0.2935411036014557,"2":-0.1778406798839569,"3":0.19697651267051697,"4":0.1997367888689041,"5":0.436014860868454,"6":0.16406884789466858,"7":0.13723276555538177,"8":0.23484942317008972,"9":0.17657487094402313,"10":-0.031131666153669357,"11":0.016896668821573257,"12":-0.1542218029499054,"13":-0.25465425848960876,"14":0.057262618094682693,"15":0.15464748442173004,"16":-0.11846796423196793,"17":-0.307794988155365,"18":-0.06888891011476517,"19":-0.08542237430810928,"20":-0.04765880107879639,"21":-0.0056190392933785915,"22":-0.02387350983917713,"23":0.20987628400325775,"24":0.06144414469599724,"25":0.023244673386216164,"26":0.03193017840385437,"27":0.028260832652449608,"28":0.08160798251628876,"29":0.3047599792480469,"30":0.18726293742656708,"31":0.3345372974872589,"32":0.09590622782707214,"33":-0.058569930493831635,"34":-0.1414746195077896,"35":-0.11336027085781097,"36":0.15482600033283234,"37":0.16902342438697815,"38":-0.09338007867336273,"39":-0.013961191289126873,"40":-0.030341412872076035,"41":-0.17383229732513428,"42":-0.09120993316173553,"43":0.17833666503429413,"44":0.05275340750813484,"45":0.2426966428756714,"46":0.14547863602638245,"47":0.08011219650506973,"48":0.038518115878105164,"49":0.037850309163331985,"50":-0.2882814407348633,"51":0.08939429372549057,"52":-0.00901639275252819,"53":0.045248597860336304,"54":0.01859114319086075,"55":-0.042396180331707,"56":0.13873200118541718,"57":0.06168179214000702,"58":0.01005574781447649,"59":-0.0006599248154088855,"60":0.07422768324613571,"61":0.4078230559825897,"62":0.09136379510164261,"63":0.26384738087654114,"64":-0.19426453113555908,"65":-0.077681764960289,"66":-0.03873211890459061,"67":-0.22964179515838623,"68":-0.1398821324110031,"69":-0.23257622122764587,"70":-0.295401394367218,"71":-0.2289496809244156,"72":-0.2576172947883606,"73":-0.1443917453289032,"74":-0.06592001020908356,"75":0.2580302655696869,"76":0.4198816120624542,"77":0.343875914812088,"78":0.3860551714897156,"79":0.424746036529541,"80":0.27332431077957153,"81":0.06132230907678604,"82":-0.06251592934131622,"83":0.13970178365707397,"84":-0.08409953862428665,"85":-0.017358476296067238,"86":-0.13573776185512543,"87":-0.5205941200256348,"88":-0.3257483243942261,"89":-0.39294782280921936,"90":-0.25901320576667786,"91":-0.09929445385932922,"92":0.2900905907154083,"93":0.15480715036392212,"94":0.19809852540493011,"95":0.4760778546333313,"96":0.2893611192703247,"97":0.32804104685783386,"98":0.3037545084953308,"99":0.0796317383646965,"100":-0.18261536955833435,"101":-0.2961578965187073,"102":-0.22155563533306122,"103":-0.36942654848098755,"104":-0.4700891375541687,"105":-0.1537153720855713,"106":-0.11271974444389343,"107":-0.12783461809158325,"108":0.20552979409694672,"109":0.004386102315038443,"110":0.16233514249324799,"111":0.2752019464969635,"112":0.11505485326051712,"113":0.16301751136779785,"114":0.06076652929186821,"115":-0.022531846538186073,"116":-0.10873880982398987,"117":-0.11023293435573578,"118":-0.13716299831867218,"119":-0.3162308931350708,"120":-0.25566619634628296,"121":-0.06633538752794266,"122":-0.1944168508052826,"123":-0.010973233729600906,"124":0.17932996153831482,"125":0.11778729408979416,"126":0.0938146710395813,"127":0.271621972322464,"128":0.23665130138397217,"129":0.2423790842294693,"130":0.0025750496424734592,"131":0.041729893535375595,"132":0.05219163000583649,"133":0.00003490457311272621,"134":-0.05610979348421097,"135":0.16767306625843048,"136":0.19096462428569794,"137":0.0002475062501616776,"138":0.07367748767137527,"139":-0.32188597321510315,"140":-0.31247377395629883,"141":0.07683347910642624,"142":-0.23080231249332428,"143":0.142063170671463,"144":0.05272069200873375,"145":0.058095358312129974,"146":0.03757070377469063,"147":0.0671139508485794,"148":0.15486375987529755,"149":0.12158355116844177,"150":0.018296752125024796,"151":0.22287778556346893,"152":0.28081899881362915,"153":-0.1380811482667923,"154":0.035879939794540405,"155":-0.18855814635753632,"156":-0.16456006467342377,"157":0.0007263603620231152,"158":-0.2556472420692444,"159":-0.014974297024309635,"160":0.14486487209796906,"161":0.03202768787741661,"162":-0.006811849307268858,"163":-0.03980729356408119,"164":0.3812253475189209,"165":0.4236351251602173,"166":0.24915528297424316,"167":0.17216898500919342,"168":0.20357456803321838,"169":0.11356643587350845,"170":0.2157490998506546,"171":-0.259626567363739,"172":-0.3654348850250244,"173":-0.4437212347984314,"174":-0.2950454354286194,"175":-0.025780880823731422,"176":-0.03866782784461975,"177":0.005441967863589525,"178":0.15049251914024353,"179":0.06180611997842789,"180":0.12836362421512604,"181":0.25903424620628357,"182":0.2635830044746399,"183":0.3111237585544586,"184":0.11764738708734512,"185":-0.22110505402088165,"186":-0.01403514202684164,"187":-0.17120692133903503,"188":-0.20492659509181976,"189":-0.28235745429992676,"190":-0.12447244673967361,"191":-0.1131475418806076,"192":0.07236357033252716,"193":0.038240451365709305,"194":0.02920972742140293,"195":0.012361828237771988,"196":-0.05169712007045746,"197":0.18847094476222992,"198":0.02720126137137413,"199":-0.16783152520656586,"200":-0.03409745544195175,"201":-0.2429426610469818,"202":-0.08459942042827606,"203":-0.10383981466293335,"204":-0.06570177525281906,"205":-0.026342030614614487,"206":-0.04339432716369629,"207":-0.3828207850456238,"208":0.19576527178287506,"209":0.1109526976943016,"210":0.2824769616127014,"211":0.17613433301448822,"212":0.25500497221946716,"213":0.0983724594116211,"214":0.189485102891922,"215":-0.15109336376190186,"216":-0.15582406520843506,"217":-0.305242121219635,"218":-0.05028502270579338,"219":-0.13527481257915497,"220":-0.3589649200439453,"221":-0.28965482115745544,"222":0.004323943983763456,"223":-0.31829288601875305,"224":-0.13060295581817627,"225":0.23102717101573944,"226":0.18129417300224304,"227":0.4832955300807953,"228":0.2913326919078827,"229":0.1884295791387558,"230":-0.03517886623740196,"231":0.14129704236984253,"232":-0.15745119750499725,"233":-0.027324222028255463,"234":-0.2596229612827301,"235":-0.21135371923446655,"236":0.07437407970428467,"237":0.020686157047748566,"238":-0.1333189606666565,"239":-0.12068508565425873,"240":0.035539720207452774,"241":0.26100119948387146,"242":0.25158581137657166,"243":0.4661312699317932,"244":0.16102199256420135,"245":0.30055859684944153,"246":-0.07503537088632584,"247":-0.15952740609645844,"248":-0.3286215364933014,"249":0.0024233500007539988,"250":-0.03131599724292755,"251":-0.2124549150466919,"252":-0.346060574054718,"253":-0.328227698802948,"254":-0.05569642409682274,"255":-0.061651330441236496}},"6":{"bias":1.5450433492660522,"weights":{"0":-0.08522753417491913,"1":-0.3703659772872925,"2":-0.17633819580078125,"3":-0.21760205924510956,"4":-0.19692526757717133,"5":-0.35991171002388,"6":-0.06390620023012161,"7":-0.22216691076755524,"8":-0.2170930951833725,"9":-0.09128209948539734,"10":0.012041132897138596,"11":0.18600334227085114,"12":0.06898503750562668,"13":0.2135559618473053,"14":-0.014607248827815056,"15":-0.22096788883209229,"16":0.39152491092681885,"17":0.2166135013103485,"18":-0.08445525169372559,"19":0.07392837107181549,"20":-0.07070150971412659,"21":-0.16864974796772003,"22":0.08994057774543762,"23":0.011886819265782833,"24":0.06820377707481384,"25":-0.0076895528472959995,"26":-0.09998580813407898,"27":-0.10781759768724442,"28":-0.030681831762194633,"29":0.07358115911483765,"30":-0.01687738299369812,"31":-0.2901242971420288,"32":0.20927223563194275,"33":-0.04238422214984894,"34":-0.1379130780696869,"35":-0.12132703512907028,"36":0.2024376094341278,"37":-0.050773248076438904,"38":0.1342773586511612,"39":-0.03062419220805168,"40":-0.1713901162147522,"41":-0.15452320873737335,"42":0.08359089493751526,"43":-0.14207078516483307,"44":-0.22680184245109558,"45":0.11343458294868469,"46":0.06069543585181236,"47":0.03287305682897568,"48":0.0612788163125515,"49":-0.16231174767017365,"50":0.1479482799768448,"51":0.12103351205587387,"52":0.03833874315023422,"53":0.02780163660645485,"54":0.1346970945596695,"55":0.11208000034093857,"56":-0.18582355976104736,"57":-0.30533862113952637,"58":-0.3362550735473633,"59":-0.23207297921180725,"60":-0.23913271725177765,"61":-0.09938712418079376,"62":-0.07250096648931503,"63":-0.16863931715488434,"64":0.3909262418746948,"65":0.06244724988937378,"66":0.1718011349439621,"67":0.2892036437988281,"68":0.24742186069488525,"69":0.2517305314540863,"70":0.20064744353294373,"71":0.09618867933750153,"72":-0.14377327263355255,"73":-0.11340881139039993,"74":-0.06989485770463943,"75":0.02627987042069435,"76":0.12277843803167343,"77":0.22426295280456543,"78":0.12682732939720154,"79":0.29488885402679443,"80":-0.040833983570337296,"81":0.03333980217576027,"82":-0.4045177400112152,"83":-0.2922185957431793,"84":-0.051275093108415604,"85":-0.1483699530363083,"86":-0.03474577143788338,"87":0.191981703042984,"88":0.05914849787950516,"89":-0.2528669834136963,"90":0.030213631689548492,"91":0.0010908829281106591,"92":-0.028584033250808716,"93":0.15293383598327637,"94":-0.012029320932924747,"95":-0.04419461265206337,"96":-0.37082093954086304,"97":-0.3600671887397766,"98":-0.36831343173980713,"99":0.0753718912601471,"100":-0.004762113094329834,"101":0.19574156403541565,"102":0.339509516954422,"103":0.3513408303260803,"104":0.33342936635017395,"105":-0.09465011954307556,"106":-0.10495079308748245,"107":0.08949185907840729,"108":-0.12835925817489624,"109":-0.03821614757180214,"110":-0.3007444739341736,"111":-0.14138919115066528,"112":-0.5445358753204346,"113":-0.6140912771224976,"114":-0.29756495356559753,"115":0.1384897232055664,"116":0.12499386072158813,"117":0.32687801122665405,"118":0.21131189167499542,"119":0.09026208519935608,"120":0.29398655891418457,"121":0.08452074974775314,"122":-0.020820733159780502,"123":0.05379759520292282,"124":-0.0012605260126292706,"125":-0.055798906832933426,"126":-0.2569025456905365,"127":-0.03988035023212433,"128":0.029308676719665527,"129":0.05273647978901863,"130":0.22525344789028168,"131":0.12060970813035965,"132":0.209446981549263,"133":0.12144678831100464,"134":0.3097928464412689,"135":-0.03124901093542576,"136":0.240706667304039,"137":0.19358278810977936,"138":0.18642620742321014,"139":-0.059520311653614044,"140":-0.25559529662132263,"141":0.07371746003627777,"142":-0.06698071211576462,"143":-0.05785321444272995,"144":0.02477603405714035,"145":0.19971533119678497,"146":0.020289069041609764,"147":0.2271440625190735,"148":0.21644115447998047,"149":0.4020237922668457,"150":0.32666847109794617,"151":0.049372125416994095,"152":-0.01268557459115982,"153":-0.01895313523709774,"154":0.09768372774124146,"155":0.25996556878089905,"156":-0.2755906581878662,"157":-0.21231932938098907,"158":-0.09132459759712219,"159":0.11550110578536987,"160":-0.10938529670238495,"161":-0.031247597187757492,"162":-0.21749839186668396,"163":0.014195943251252174,"164":-0.09675590693950653,"165":-0.24989467859268188,"166":0.0605614073574543,"167":-0.062456388026475906,"168":0.1349494606256485,"169":0.11576369404792786,"170":-0.04063097760081291,"171":0.2655686140060425,"172":0.22487156093120575,"173":-0.009942660108208656,"174":0.008897912688553333,"175":-0.09117717295885086,"176":-0.3893081247806549,"177":-0.28839144110679626,"178":0.04315231740474701,"179":-0.21894171833992004,"180":0.0607152059674263,"181":-0.07687979936599731,"182":0.04492326080799103,"183":-0.02519555762410164,"184":-0.06310097128152847,"185":0.294230580329895,"186":-0.054323166608810425,"187":0.200550377368927,"188":0.023091377690434456,"189":-0.010755692608654499,"190":-0.021693967282772064,"191":0.16744068264961243,"192":0.03867006674408913,"193":-0.360334187746048,"194":-0.23904311656951904,"195":-0.2765822410583496,"196":-0.10407241433858871,"197":-0.12277857214212418,"198":-0.12366331368684769,"199":-0.11420657485723495,"200":0.0012805196456611156,"201":-0.11185616999864578,"202":-0.16607430577278137,"203":-0.20582517981529236,"204":-0.03598470985889435,"205":-0.18969818949699402,"206":-0.07478119432926178,"207":0.05841204151511192,"208":-0.034588802605867386,"209":-0.058718666434288025,"210":0.02116110920906067,"211":0.08012159168720245,"212":0.13202838599681854,"213":-0.0812273696064949,"214":-0.11328519135713577,"215":0.011882766149938107,"216":0.10183049738407135,"217":0.05209163576364517,"218":-0.09114974737167358,"219":-0.22566239535808563,"220":-0.24849022924900055,"221":-0.24988238513469696,"222":-0.1584949791431427,"223":-0.10837096720933914,"224":0.012972631491720676,"225":-0.18211406469345093,"226":0.0884503424167633,"227":-0.058702852576971054,"228":-0.21689675748348236,"229":-0.16813209652900696,"230":-0.0679834634065628,"231":-0.16572652757167816,"232":-0.2727091908454895,"233":-0.08274222910404205,"234":-0.008176500909030437,"235":-0.23794226348400116,"236":0.045994650572538376,"237":-0.14531010389328003,"238":-0.3262135684490204,"239":-0.227939635515213,"240":-0.17581163346767426,"241":-0.2818540334701538,"242":-0.22801917791366577,"243":-0.3772607445716858,"244":0.09280063956975937,"245":0.08533159643411636,"246":-0.11335457116365433,"247":-0.24822776019573212,"248":-0.11374609917402267,"249":-0.2890491485595703,"250":-0.19080395996570587,"251":-0.0926859974861145,"252":-0.04633487015962601,"253":-0.014149538241326809,"254":-0.3919634222984314,"255":-0.6467772722244263}},"7":{"bias":1.7320468425750732,"weights":{"0":0.9686101078987122,"1":0.8358873724937439,"2":0.581993818283081,"3":0.4305427372455597,"4":-0.04381773620843887,"5":0.04322712868452072,"6":0.07747329771518707,"7":0.06925899535417557,"8":0.03913247212767601,"9":-0.00822677556425333,"10":-0.22826427221298218,"11":-0.07569203525781631,"12":-0.2111501842737198,"13":-0.0719938650727272,"14":0.2845982015132904,"15":0.15382178127765656,"16":0.376773476600647,"17":0.4660341441631317,"18":0.7068116664886475,"19":0.3622002601623535,"20":0.36753085255622864,"21":0.23795929551124573,"22":0.0960020124912262,"23":-0.08197576552629471,"24":-0.25777167081832886,"25":-0.12499908357858658,"26":-0.1198502704501152,"27":-0.16895964741706848,"28":0.06720780581235886,"29":-0.23828236758708954,"30":0.08511127531528473,"31":-0.13579577207565308,"32":-0.05843249335885048,"33":0.13537997007369995,"34":0.2819395363330841,"35":0.18189194798469543,"36":0.06312698870897293,"37":-0.003623553551733494,"38":0.11066180467605591,"39":0.14517372846603394,"40":-0.1321011781692505,"41":0.19745105504989624,"42":-0.01484219916164875,"43":0.12049873918294907,"44":-0.023595351725816727,"45":-0.04895494133234024,"46":0.09791135787963867,"47":0.04222214221954346,"48":-0.1981990784406662,"49":0.1691739708185196,"50":0.1051158681511879,"51":-0.17305950820446014,"52":-0.18421109020709991,"53":0.11235854774713516,"54":0.18940681219100952,"55":-0.01432795636355877,"56":-0.1693996638059616,"57":-0.16925622522830963,"58":-0.05918837711215019,"59":0.021380584686994553,"60":0.05595676228404045,"61":0.20013265311717987,"62":-0.0060920617543160915,"63":0.02644818276166916,"64":-0.4308951199054718,"65":-0.16789108514785767,"66":0.0044286176562309265,"67":-0.18231071531772614,"68":-0.40815117955207825,"69":-0.45526179671287537,"70":-0.1820177286863327,"71":-0.038584284484386444,"72":0.009967932477593422,"73":0.16871891915798187,"74":0.03245343267917633,"75":-0.0649949237704277,"76":-0.24333927035331726,"77":-0.14608675241470337,"78":-0.18355520069599152,"79":-0.17565052211284637,"80":-0.2854851186275482,"81":0.11263447254896164,"82":0.018865149468183517,"83":-0.28679952025413513,"84":-0.3565562665462494,"85":-0.15759927034378052,"86":-0.016241023316979408,"87":0.13943445682525635,"88":0.14485852420330048,"89":0.13772037625312805,"90":0.396075040102005,"91":-0.06459624320268631,"92":0.061430588364601135,"93":-0.2451574206352234,"94":-0.3928457796573639,"95":-0.35644692182540894,"96":0.25973960757255554,"97":0.35603010654449463,"98":0.06550153344869614,"99":-0.3707217872142792,"100":-0.4123498201370239,"101":0.01574370637536049,"102":0.04670368880033493,"103":0.08953049778938293,"104":0.14050808548927307,"105":0.020937491208314896,"106":0.2635158598423004,"107":0.0012370988260954618,"108":0.15294736623764038,"109":0.10337276756763458,"110":-0.15427649021148682,"111":-0.06966237723827362,"112":0.18030691146850586,"113":0.2667792737483978,"114":-0.08235157281160355,"115":-0.12628313899040222,"116":-0.019277658313512802,"117":-0.05807243660092354,"118":0.03663134202361107,"119":0.17105869948863983,"120":-0.03880775719881058,"121":-0.2689262330532074,"122":-0.20081403851509094,"123":0.20294062793254852,"124":-0.021194441244006157,"125":0.09408284723758698,"126":-0.018115149810910225,"127":0.1526203751564026,"128":-0.0015887654153630137,"129":0.1132357195019722,"130":0.02103090099990368,"131":-0.05596007779240608,"132":-0.10625023394823074,"133":0.03443413972854614,"134":-0.1407022327184677,"135":-0.3488304316997528,"136":-0.45949381589889526,"137":-0.4236816167831421,"138":-0.2652498781681061,"139":-0.17187994718551636,"140":-0.0059188599698245525,"141":0.3320743143558502,"142":-0.12324970215559006,"143":0.008867967873811722,"144":0.3053475022315979,"145":0.2460000216960907,"146":0.01532883383333683,"147":-0.0969560369849205,"148":-0.1483989804983139,"149":-0.13113799691200256,"150":-0.03687909245491028,"151":-0.19438762962818146,"152":-0.7112953066825867,"153":-0.2234809845685959,"154":-0.0877055749297142,"155":-0.05490117892622948,"156":0.18966087698936462,"157":0.3210219442844391,"158":-0.014922563917934895,"159":-0.006986215244978666,"160":0.026228463277220726,"161":0.24959918856620789,"162":-0.16161736845970154,"163":-0.07701978832483292,"164":0.01781650446355343,"165":-0.17757222056388855,"166":-0.19098883867263794,"167":-0.45919427275657654,"168":-0.1983165442943573,"169":-0.24401116371154785,"170":0.12377405166625977,"171":0.08950483053922653,"172":0.27312761545181274,"173":0.14399434626102448,"174":0.13045939803123474,"175":-0.03402292728424072,"176":0.09846409410238266,"177":0.4234926998615265,"178":0.22787226736545563,"179":-0.14648160338401794,"180":-0.043494172394275665,"181":-0.10912180691957474,"182":-0.2047334462404251,"183":-0.28531867265701294,"184":-0.32798534631729126,"185":-0.009286834858357906,"186":0.19282886385917664,"187":0.1962537318468094,"188":0.006004902999848127,"189":0.029020098969340324,"190":-0.09565673023462296,"191":0.12336592376232147,"192":-0.19224874675273895,"193":-0.002091750968247652,"194":0.3117620348930359,"195":-0.07498126477003098,"196":0.2186814844608307,"197":0.11800669878721237,"198":0.15011949837207794,"199":-0.015575487166643143,"200":0.0889989584684372,"201":-0.1213320940732956,"202":0.11280270665884018,"203":0.17068710923194885,"204":-0.10583822429180145,"205":-0.07282515615224838,"206":0.032536834478378296,"207":0.07192403823137283,"208":-0.339018851518631,"209":-0.5857593417167664,"210":-0.2422083616256714,"211":0.06091930344700813,"212":0.10824587941169739,"213":0.2131829708814621,"214":-0.05972232297062874,"215":0.08753108978271484,"216":0.29686182737350464,"217":-0.021105600520968437,"218":0.033496443182229996,"219":-0.10949555784463882,"220":0.14134052395820618,"221":0.09458829462528229,"222":-0.3821510076522827,"223":-0.3207154870033264,"224":-0.2658931314945221,"225":-0.16587497293949127,"226":-0.27330443263053894,"227":-0.23100386559963226,"228":-0.15610197186470032,"229":0.20858308672904968,"230":0.32582738995552063,"231":0.09811252355575562,"232":-0.04351947084069252,"233":-0.2947462201118469,"234":-0.10645119845867157,"235":-0.3474494516849518,"236":0.13490726053714752,"237":-0.27447205781936646,"238":-0.16710509359836578,"239":-0.2871878445148468,"240":-0.24078117311000824,"241":-0.12949098646640778,"242":-0.35143011808395386,"243":-0.27841705083847046,"244":0.15962502360343933,"245":-0.004372960422188044,"246":0.13353386521339417,"247":0.3030382990837097,"248":0.10981184989213943,"249":-0.28187233209609985,"250":0.06571771949529648,"251":-0.07785903662443161,"252":-0.4105430245399475,"253":-0.5369787812232971,"254":-0.24208009243011475,"255":-0.47629299759864807}},"8":{"bias":0.6109266877174377,"weights":{"0":0.07767047733068466,"1":0.048187386244535446,"2":0.0532599538564682,"3":0.08563512563705444,"4":0.28428414463996887,"5":0.0625600591301918,"6":0.05860915035009384,"7":-0.20905731618404388,"8":0.06928596645593643,"9":-0.17513731122016907,"10":-0.17736850678920746,"11":-0.15582464635372162,"12":-0.2467486411333084,"13":-0.04687672480940819,"14":0.10838424414396286,"15":0.019873162731528282,"16":-0.02211139351129532,"17":0.25075992941856384,"18":-0.012940224260091782,"19":0.3116483688354492,"20":0.31403106451034546,"21":-0.03534633666276932,"22":0.11347141861915588,"23":-0.0829014927148819,"24":-0.23801042139530182,"25":0.11912083625793457,"26":-0.14621073007583618,"27":-0.013693707063794136,"28":-0.23283377289772034,"29":0.1822032779455185,"30":0.08368173986673355,"31":0.17636236548423767,"32":0.1746448576450348,"33":-0.19397138059139252,"34":-0.04194803163409233,"35":-0.0394066721200943,"36":-0.09293240308761597,"37":0.11207429319620132,"38":0.19217142462730408,"39":-0.05719281733036041,"40":-0.1544899195432663,"41":0.039676349610090256,"42":-0.1796005219221115,"43":0.0854230672121048,"44":0.1307138353586197,"45":0.27650097012519836,"46":-0.06852666288614273,"47":-0.0037638589274138212,"48":-0.10706082731485367,"49":-0.08536620438098907,"50":-0.42437008023262024,"51":-0.12278493493795395,"52":0.16674993932247162,"53":0.13272425532341003,"54":0.3017023503780365,"55":0.012376884929835796,"56":0.12020067870616913,"57":0.2136227935552597,"58":-0.08806853741407394,"59":0.020247232168912888,"60":-0.016600769013166428,"61":0.26374107599258423,"62":0.019951529800891876,"63":-0.12111760675907135,"64":-0.07309876382350922,"65":-0.20769552886486053,"66":-0.29127100110054016,"67":-0.2807053327560425,"68":0.09691430628299713,"69":-0.1431303769350052,"70":0.1268744170665741,"71":-0.1049908995628357,"72":0.20787622034549713,"73":0.09997902810573578,"74":0.2506921589374542,"75":0.12051080912351608,"76":0.19491934776306152,"77":0.2791742980480194,"78":0.28835633397102356,"79":0.019947294145822525,"80":0.08584218472242355,"81":-0.005274648312479258,"82":0.07877550274133682,"83":0.10331540554761887,"84":-0.13754385709762573,"85":0.03649267181754112,"86":-0.06378336250782013,"87":0.03782028704881668,"88":0.032753050327301025,"89":-0.38216540217399597,"90":-0.13653478026390076,"91":0.17362156510353088,"92":0.014246123842895031,"93":0.19039934873580933,"94":0.05829169973731041,"95":0.13663697242736816,"96":-0.09043993800878525,"97":0.10592899471521378,"98":-0.040028952062129974,"99":0.10915166884660721,"100":0.1394340544939041,"101":0.0002693576680030674,"102":0.050554487854242325,"103":-0.2760525345802307,"104":-0.677024781703949,"105":-0.31222978234291077,"106":-0.5039458870887756,"107":-0.089301697909832,"108":0.026987479999661446,"109":-0.04456381872296333,"110":0.13979287445545197,"111":0.14701944589614868,"112":-0.02379179745912552,"113":0.07419075071811676,"114":0.31695622205734253,"115":0.27187830209732056,"116":-0.12266798317432404,"117":0.04468264803290367,"118":-0.1702246516942978,"119":-0.4654168486595154,"120":-0.36225593090057373,"121":-0.4621783196926117,"122":-0.17370042204856873,"123":-0.29700812697410583,"124":0.09175233542919159,"125":-0.1167137399315834,"126":0.19562998414039612,"127":0.014243018813431263,"128":0.29498839378356934,"129":0.09367093443870544,"130":0.3752761781215668,"131":0.42585933208465576,"132":0.27511879801750183,"133":-0.18850980699062347,"134":-0.008187360130250454,"135":-0.009928947314620018,"136":-0.21799254417419434,"137":-0.28258582949638367,"138":-0.14321424067020416,"139":-0.12195461988449097,"140":0.013181356713175774,"141":0.2633011043071747,"142":0.14495787024497986,"143":-0.30326107144355774,"144":0.03097423166036606,"145":-0.03874598816037178,"146":0.23007774353027344,"147":0.1146557629108429,"148":0.2978983521461487,"149":0.13612686097621918,"150":0.10298239439725876,"151":0.10598693042993546,"152":-0.034896016120910645,"153":0.04719094932079315,"154":-0.10896050184965134,"155":-0.14608541131019592,"156":-0.009795174933969975,"157":0.1487000584602356,"158":-0.019452529028058052,"159":0.11618074029684067,"160":0.3895503282546997,"161":0.1956920325756073,"162":0.2658461034297943,"163":-0.16953547298908234,"164":0.0774996280670166,"165":0.4643557667732239,"166":0.4158989191055298,"167":0.324888676404953,"168":0.4331899583339691,"169":0.11099079996347427,"170":0.25001928210258484,"171":-0.050215497612953186,"172":-0.0934416651725769,"173":-0.20020191371440887,"174":0.09673482179641724,"175":-0.2119678556919098,"176":0.15499244630336761,"177":-0.18108107149600983,"178":-0.06821218132972717,"179":-0.24989978969097137,"180":0.1270909309387207,"181":0.08582659065723419,"182":0.2790484130382538,"183":0.3349643051624298,"184":0.1593630015850067,"185":0.26508158445358276,"186":0.29556915163993835,"187":0.09004337340593338,"188":-0.15457749366760254,"189":-0.13064390420913696,"190":-0.19967420399188995,"191":0.2478635162115097,"192":0.003877015085890889,"193":-0.0360126867890358,"194":-0.16622643172740936,"195":-0.1491818130016327,"196":0.04063916951417923,"197":-0.20610256493091583,"198":-0.012778066098690033,"199":-0.12058550119400024,"200":-0.07085458189249039,"201":-0.10460260510444641,"202":-0.0017024400876834989,"203":0.009963602758944035,"204":-0.16680178046226501,"205":-0.18633022904396057,"206":-0.1797877848148346,"207":-0.2539818286895752,"208":-0.10033807158470154,"209":-0.06060371920466423,"210":0.06365764886140823,"211":-0.0129777817055583,"212":-0.06259254366159439,"213":0.11165677011013031,"214":-0.02503933198750019,"215":-0.14347678422927856,"216":-0.036735355854034424,"217":-0.10812358558177948,"218":-0.22489672899246216,"219":-0.27927669882774353,"220":-0.16435952484607697,"221":-0.1075955331325531,"222":-0.3169814348220825,"223":-0.2958739995956421,"224":-0.07133457809686661,"225":-0.051626525819301605,"226":-0.17498180270195007,"227":-0.14959083497524261,"228":0.03321383148431778,"229":-0.085219606757164,"230":-0.016087492927908897,"231":-0.236885204911232,"232":-0.23137031495571136,"233":-0.4008963108062744,"234":-0.404585599899292,"235":-0.30352964997291565,"236":-0.015747157856822014,"237":-0.1643221378326416,"238":-0.39315080642700195,"239":-0.6034114360809326,"240":-0.2689308226108551,"241":-0.13224993646144867,"242":-0.127973273396492,"243":0.04072127491235733,"244":-0.10997684299945831,"245":-0.07102645188570023,"246":-0.2355845421552658,"247":-0.22012707591056824,"248":-0.3769271969795227,"249":-0.022504962980747223,"250":-0.2752760648727417,"251":-0.1007181778550148,"252":-0.5262134075164795,"253":-0.2931051254272461,"254":-0.2642515301704407,"255":-0.290967732667923}},"9":{"bias":-0.11496222764253616,"weights":{"0":-0.006196976639330387,"1":-0.36560356616973877,"2":-0.12015831470489502,"3":0.14404107630252838,"4":0.2121126353740692,"5":0.050381891429424286,"6":-0.19703756272792816,"7":0.03687131032347679,"8":0.18135252594947815,"9":0.2294110655784607,"10":0.17270611226558685,"11":0.0076645417138934135,"12":-0.20495638251304626,"13":-0.3232831060886383,"14":-0.1870431751012802,"15":-0.446686714887619,"16":-0.1888822764158249,"17":0.015362458303570747,"18":-0.2084663063287735,"19":0.05203790217638016,"20":0.17222441732883453,"21":-0.053324032574892044,"22":0.1236792504787445,"23":0.18709459900856018,"24":0.00965308491140604,"25":0.19215813279151917,"26":0.06505908071994781,"27":0.17458361387252808,"28":0.18013086915016174,"29":0.11375674605369568,"30":-0.1360383927822113,"31":-0.16080303490161896,"32":0.11402533948421478,"33":0.02015470340847969,"34":0.02248220145702362,"35":0.10250847041606903,"36":-0.011436262167990208,"37":-0.2143726646900177,"38":0.14719326794147491,"39":0.11509037762880325,"40":0.08297671377658844,"41":0.04201139137148857,"42":-0.035790637135505676,"43":0.14595000445842743,"44":0.057716842740774155,"45":0.12487120181322098,"46":0.053414419293403625,"47":-0.139155775308609,"48":0.14813856780529022,"49":0.22852802276611328,"50":-0.2830321788787842,"51":-0.13716033101081848,"52":0.14416728913784027,"53":-0.14092212915420532,"54":-0.12694178521633148,"55":0.009704952128231525,"56":-0.026434386149048805,"57":0.02865547128021717,"58":0.2526135742664337,"59":-0.06003450229763985,"60":0.20217028260231018,"61":0.24530036747455597,"62":0.07316506654024124,"63":0.14216552674770355,"64":0.06026068329811096,"65":-0.14801327884197235,"66":-0.022583696991205215,"67":0.07040958851575851,"68":0.2253483682870865,"69":-0.04847758635878563,"70":0.10475508123636246,"71":-0.41118916869163513,"72":-0.3012268543243408,"73":-0.24799677729606628,"74":0.1613268405199051,"75":0.23550327122211456,"76":0.5084111094474792,"77":0.40159401297569275,"78":0.2820306718349457,"79":-0.03135836869478226,"80":0.17780932784080505,"81":0.11115625500679016,"82":-0.0393885038793087,"83":0.14605629444122314,"84":0.104216068983078,"85":0.17387361824512482,"86":-0.011798256076872349,"87":-0.33466288447380066,"88":-0.5029518008232117,"89":-0.4450448453426361,"90":-0.08585716784000397,"91":-0.27323490381240845,"92":0.10341018438339233,"93":0.21585164964199066,"94":0.13613781332969666,"95":0.3041068911552429,"96":-0.02707839570939541,"97":-0.06131132319569588,"98":0.07955390214920044,"99":0.3247101306915283,"100":0.2343987375497818,"101":-0.08709096163511276,"102":-0.15588903427124023,"103":-0.3931252956390381,"104":-0.41215893626213074,"105":-0.3023061156272888,"106":-0.049025941640138626,"107":0.05112689360976219,"108":0.16206321120262146,"109":-0.11174744367599487,"110":0.02979736402630806,"111":0.15720926225185394,"112":-0.044267576187849045,"113":0.010829322971403599,"114":0.27054673433303833,"115":0.38726237416267395,"116":0.33383816480636597,"117":0.16290423274040222,"118":-0.04804247245192528,"119":-0.560218095779419,"120":-0.25106140971183777,"121":-0.16893836855888367,"122":-0.29979565739631653,"123":-0.2507003843784332,"124":0.15016187727451324,"125":0.12959876656532288,"126":0.17671869695186615,"127":-0.11631356924772263,"128":0.18466751277446747,"129":0.003184336004778743,"130":0.36441317200660706,"131":0.11484339088201523,"132":0.00037978412001393735,"133":-0.06626681238412857,"134":-0.06827765703201294,"135":0.06895449012517929,"136":0.08312168717384338,"137":0.10532490164041519,"138":0.010805441066622734,"139":-0.05676181614398956,"140":-0.10273973643779755,"141":0.039267491549253464,"142":0.2640306055545807,"143":0.12407220155000687,"144":0.05002633109688759,"145":0.26975005865097046,"146":0.13477517664432526,"147":0.29352763295173645,"148":0.23153206706047058,"149":0.2150869220495224,"150":-0.003254473675042391,"151":0.16080832481384277,"152":0.02807694859802723,"153":0.2970162630081177,"154":0.1271379142999649,"155":-0.025430936366319656,"156":-0.013904796913266182,"157":0.08880051970481873,"158":0.23862199485301971,"159":0.11107879132032394,"160":0.15585508942604065,"161":0.18925927579402924,"162":-0.037834879010915756,"163":-0.01594727858901024,"164":-0.030344879254698753,"165":0.13051022589206696,"166":0.14583444595336914,"167":0.22208723425865173,"168":0.18898753821849823,"169":0.029995469376444817,"170":0.05542329326272011,"171":-0.008882112801074982,"172":0.1720455437898636,"173":0.23021550476551056,"174":-0.09258586913347244,"175":-0.005694982595741749,"176":0.22700859606266022,"177":-0.043711110949516296,"178":0.1144006997346878,"179":0.07274667918682098,"180":0.09920097887516022,"181":-0.11763661354780197,"182":-0.18474259972572327,"183":-0.02654283121228218,"184":0.10979688912630081,"185":-0.006934071891009808,"186":-0.05346427857875824,"187":-0.10735957324504852,"188":0.23039866983890533,"189":0.18517565727233887,"190":0.07091138511896133,"191":0.29126426577568054,"192":0.19430702924728394,"193":-0.016935015097260475,"194":0.061442937701940536,"195":0.12308929115533829,"196":-0.021124521270394325,"197":0.21868042647838593,"198":-0.07847016304731369,"199":-0.037635501474142075,"200":-0.007949968799948692,"201":0.1589059680700302,"202":0.2345709204673767,"203":0.2680806517601013,"204":0.02500920556485653,"205":0.007703108247369528,"206":-0.17183828353881836,"207":0.09773727506399155,"208":-0.00008616616105427966,"209":0.08596287667751312,"210":-0.09471171349287033,"211":0.2186785191297531,"212":0.06856920570135117,"213":0.18415962159633636,"214":-0.19543594121932983,"215":-0.20137141644954681,"216":-0.07225153595209122,"217":-0.12093523889780045,"218":-0.10346430540084839,"219":0.2665707468986511,"220":0.09687775373458862,"221":0.07641217112541199,"222":0.20123140513896942,"223":0.1241757869720459,"224":-0.3376896381378174,"225":-0.03617698699235916,"226":-0.18024006485939026,"227":-0.03800018131732941,"228":0.1366119086742401,"229":-0.06643307209014893,"230":-0.2833945155143738,"231":-0.3133806586265564,"232":-0.01148142572492361,"233":0.03180665150284767,"234":0.059060949832201004,"235":0.23000766336917877,"236":-0.10575877875089645,"237":0.09435012936592102,"238":-0.20666289329528809,"239":-0.17873230576515198,"240":-0.39947590231895447,"241":-0.025946954265236855,"242":-0.09457975625991821,"243":0.09402263164520264,"244":0.025242509320378304,"245":-0.24788466095924377,"246":-0.23256650567054749,"247":0.07590541243553162,"248":0.12462139874696732,"249":-0.10622962564229965,"250":0.16344916820526123,"251":-0.007494669407606125,"252":-0.1845783293247223,"253":0.009898596443235874,"254":0.08443393558263779,"255":-0.3444261848926544}},"10":{"bias":-1.6449471712112427,"weights":{"0":0.231949582695961,"1":0.3226316571235657,"2":0.10078537464141846,"3":0.22827081382274628,"4":-0.21961207687854767,"5":-0.04587070643901825,"6":0.14611829817295074,"7":-0.06709130108356476,"8":0.15113310515880585,"9":-0.061877548694610596,"10":0.047537773847579956,"11":0.03790341690182686,"12":0.050242844969034195,"13":0.3958361744880676,"14":0.31081968545913696,"15":0.3407381474971771,"16":-0.18285337090492249,"17":-0.0024131652899086475,"18":0.08048301190137863,"19":-0.25702622532844543,"20":-0.1743030995130539,"21":0.08257637172937393,"22":-0.05909394845366478,"23":0.01845826394855976,"24":-0.02753637172281742,"25":-0.06325910240411758,"26":-0.08483825623989105,"27":-0.058509767055511475,"28":0.06846429407596588,"29":0.13214507699012756,"30":0.030658720061182976,"31":-0.02597971446812153,"32":-0.009801294654607773,"33":-0.1100877970457077,"34":0.019981833174824715,"35":-0.28574952483177185,"36":-0.14652866125106812,"37":0.11276128143072128,"38":-0.11205699294805527,"39":-0.06298939138650894,"40":-0.09387693554162979,"41":0.11979950219392776,"42":-0.18140944838523865,"43":-0.09135609120130539,"44":-0.0029200236313045025,"45":0.004811202175915241,"46":-0.07385333627462387,"47":0.16993358731269836,"48":-0.19440069794654846,"49":-0.06579435616731644,"50":-0.14265692234039307,"51":0.005691611208021641,"52":-0.29758143424987793,"53":-0.09531424939632416,"54":0.007847001776099205,"55":-0.006676992867141962,"56":0.04105633497238159,"57":0.13026754558086395,"58":0.07425787299871445,"59":0.2101866900920868,"60":-0.01506777573376894,"61":-0.0501217357814312,"62":-0.09597074240446091,"63":-0.19234535098075867,"64":-0.3765180706977844,"65":-0.1949465274810791,"66":0.0464797168970108,"67":-0.0371006578207016,"68":-0.20223355293273926,"69":0.20465342700481415,"70":-0.007566277403384447,"71":-0.004958475474268198,"72":0.15255920588970184,"73":-0.05127514526247978,"74":-0.13799956440925598,"75":-0.27623695135116577,"76":-0.36430707573890686,"77":-0.3818823993206024,"78":-0.2354591339826584,"79":-0.12425221502780914,"80":-0.04242075979709625,"81":0.25330850481987,"82":0.5242611169815063,"83":0.40900734066963196,"84":0.37893974781036377,"85":0.39563706517219543,"86":0.21353890001773834,"87":0.27150365710258484,"88":0.1843944638967514,"89":0.31650999188423157,"90":0.007045289501547813,"91":-0.03269798308610916,"92":-0.16484351456165314,"93":-0.1317262202501297,"94":-0.32816874980926514,"95":-0.06591355055570602,"96":0.4303770065307617,"97":0.4568783938884735,"98":0.3720763027667999,"99":0.23926475644111633,"100":0.062201183289289474,"101":0.22666001319885254,"102":0.02231256105005741,"103":-0.00892541091889143,"104":0.08679918199777603,"105":0.17766717076301575,"106":-0.08584494143724442,"107":0.1712646186351776,"108":0.13796280324459076,"109":0.04569188505411148,"110":0.08449601382017136,"111":0.19817125797271729,"112":0.33076974749565125,"113":0.5957642793655396,"114":0.29783502221107483,"115":0.08113998174667358,"116":0.23608875274658203,"117":0.188699871301651,"118":0.1166052296757698,"119":0.06405194103717804,"120":0.10388997942209244,"121":0.03956682235002518,"122":-0.21125009655952454,"123":-0.1074657216668129,"124":0.12559081614017487,"125":0.008318302221596241,"126":0.2202102392911911,"127":0.23753722012043,"128":0.21099823713302612,"129":0.2032705545425415,"130":-0.1720728725194931,"131":-0.2591165006160736,"132":-0.17495200037956238,"133":-0.22066958248615265,"134":-0.037699151784181595,"135":-0.2293870747089386,"136":-0.08452444523572922,"137":-0.15054374933242798,"138":-0.19415679574012756,"139":-0.07518508285284042,"140":-0.11861765384674072,"141":0.1272774338722229,"142":0.16132186353206635,"143":0.3011905252933502,"144":-0.0923454612493515,"145":-0.17331837117671967,"146":0.04461723566055298,"147":-0.06737717241048813,"148":0.032038185745477676,"149":-0.18132741749286652,"150":-0.3310418725013733,"151":-0.2556611895561218,"152":-0.3766705095767975,"153":-0.09400119632482529,"154":0.20136991143226624,"155":-0.07304366677999496,"156":0.0881342813372612,"157":0.21785323321819305,"158":0.11587055772542953,"159":0.24720682203769684,"160":0.18361856043338776,"161":0.17261068522930145,"162":0.06458736211061478,"163":-0.044996365904808044,"164":0.023296190425753593,"165":-0.03398109972476959,"166":-0.14675556123256683,"167":-0.20302864909172058,"168":-0.16745196282863617,"169":-0.08292737603187561,"170":0.0018885278841480613,"171":-0.12801110744476318,"172":0.15370523929595947,"173":0.26298680901527405,"174":0.18519656360149384,"175":0.15032748878002167,"176":0.27605992555618286,"177":0.3955543339252472,"178":0.06869594752788544,"179":-0.015422220341861248,"180":-0.10234025120735168,"181":0.06794578582048416,"182":-0.14396969974040985,"183":0.026868263259530067,"184":0.09943580627441406,"185":-0.08256581425666809,"186":0.07381764054298401,"187":-0.09309180825948715,"188":0.050388824194669724,"189":0.12907961010932922,"190":0.0006268177530728281,"191":0.13819164037704468,"192":0.03241712972521782,"193":0.32176971435546875,"194":0.3648596405982971,"195":-0.0918518528342247,"196":-0.1270546317100525,"197":-0.03810703754425049,"198":0.142166867852211,"199":0.17101679742336273,"200":-0.0780196413397789,"201":-0.02281869575381279,"202":-0.07371098548173904,"203":0.2865590453147888,"204":0.04986907169222832,"205":0.30246832966804504,"206":0.2239181250333786,"207":-0.05448795482516289,"208":-0.1230669915676117,"209":-0.048066411167383194,"210":0.13444049656391144,"211":0.13567303121089935,"212":-0.07152561098337173,"213":-0.1018163412809372,"214":0.06454747915267944,"215":-0.10383289307355881,"216":0.23910698294639587,"217":-0.08181899785995483,"218":0.14630095660686493,"219":0.14199794828891754,"220":-0.10815323889255524,"221":-0.052203599363565445,"222":-0.1628280133008957,"223":0.07067590206861496,"224":0.27309155464172363,"225":-0.013543500564992428,"226":0.32431304454803467,"227":-0.1058381050825119,"228":0.17143215239048004,"229":0.036132942885160446,"230":0.32933226227760315,"231":0.1689845472574234,"232":-0.005555691197514534,"233":0.18994691967964172,"234":-0.06158585846424103,"235":0.23340268433094025,"236":0.21259646117687225,"237":0.11629600822925568,"238":0.19566962122917175,"239":0.19939693808555603,"240":0.3536998927593231,"241":0.2789224684238434,"242":0.1706855297088623,"243":0.26099273562431335,"244":0.15970826148986816,"245":0.22154353559017181,"246":0.34492167830467224,"247":0.254932701587677,"248":0.049139924347400665,"249":0.1604970395565033,"250":0.2278711050748825,"251":-0.09685260057449341,"252":0.07291685044765472,"253":0.0645141452550888,"254":0.14723455905914307,"255":0.2706892788410187}},"11":{"bias":-0.2566099166870117,"weights":{"0":0.1996312439441681,"1":0.1900959610939026,"2":-0.10789737105369568,"3":-0.12392639368772507,"4":-0.1262865513563156,"5":0.08613721281290054,"6":-0.1064767837524414,"7":0.04927545785903931,"8":-0.41379374265670776,"9":0.04725410044193268,"10":-0.13270413875579834,"11":0.08754986524581909,"12":-0.21833834052085876,"13":-0.4518871605396271,"14":-0.4511178731918335,"15":-0.6504180431365967,"16":-0.03284326568245888,"17":0.12996213138103485,"18":0.10063362121582031,"19":0.15735410153865814,"20":0.26712870597839355,"21":0.09807153046131134,"22":0.03776806965470314,"23":0.08686666935682297,"24":-0.3683098554611206,"25":-0.23924267292022705,"26":-0.03614829480648041,"27":0.20955707132816315,"28":0.07913363724946976,"29":-0.28721433877944946,"30":-0.4098445773124695,"31":-0.23512986302375793,"32":0.005784367676824331,"33":0.08664847165346146,"34":-0.069199338555336,"35":-0.038695745170116425,"36":-0.22599759697914124,"37":-0.13799212872982025,"38":0.22510980069637299,"39":-0.09202485531568527,"40":0.03433098644018173,"41":-0.17578624188899994,"42":0.0007979752845130861,"43":-0.0821819007396698,"44":-0.09913402050733566,"45":-0.10664355754852295,"46":-0.2822352945804596,"47":-0.40505266189575195,"48":0.12809889018535614,"49":-0.11358314752578735,"50":0.06722020357847214,"51":-0.19192568957805634,"52":0.059328872710466385,"53":0.13245517015457153,"54":0.281901091337204,"55":-0.22216324508190155,"56":-0.19808782637119293,"57":-0.12543199956417084,"58":0.13203099370002747,"59":-0.08213774114847183,"60":0.05972297489643097,"61":0.12256577610969543,"62":-0.010466973297297955,"63":-0.20239144563674927,"64":-0.13906773924827576,"65":-0.12604188919067383,"66":-0.04287778586149216,"67":-0.049145106226205826,"68":-0.20207519829273224,"69":0.0002408978616585955,"70":-0.03259856626391411,"71":-0.06549806147813797,"72":-0.07867073267698288,"73":0.1672040820121765,"74":0.2655438184738159,"75":0.2937678396701813,"76":0.02067740447819233,"77":0.2295043170452118,"78":0.32795172929763794,"79":-0.025506751611828804,"80":-0.12523750960826874,"81":-0.189338818192482,"82":-0.25435036420822144,"83":-0.23666958510875702,"84":-0.25215211510658264,"85":-0.22356033325195312,"86":-0.004095378331840038,"87":-0.370073139667511,"88":-0.5253134965896606,"89":-0.2783493995666504,"90":-0.027199916541576385,"91":0.10398281365633011,"92":0.2072049230337143,"93":0.23226414620876312,"94":0.07136497646570206,"95":0.1333627551794052,"96":0.0753510519862175,"97":-0.0018543126061558723,"98":-0.18387958407402039,"99":0.23079271614551544,"100":-0.030152050778269768,"101":0.42290401458740234,"102":0.22995401918888092,"103":-0.1813170462846756,"104":-0.17561376094818115,"105":-0.19990120828151703,"106":-0.025587141513824463,"107":-0.10197293013334274,"108":0.19533248245716095,"109":-0.21955007314682007,"110":0.039531439542770386,"111":-0.04210670664906502,"112":-0.2676185071468353,"113":-0.19435395300388336,"114":0.13210344314575195,"115":0.09718270599842072,"116":0.04703838378190994,"117":0.2745618522167206,"118":0.2633129060268402,"119":-0.00659093726426363,"120":-0.37526386976242065,"121":-0.18514811992645264,"122":-0.19441090524196625,"123":-0.16515687108039856,"124":0.01888206973671913,"125":0.09234166890382767,"126":0.1562241166830063,"127":-0.005559276789426804,"128":0.21622958779335022,"129":0.2120532989501953,"130":0.4480869472026825,"131":0.27846571803092957,"132":0.4975871741771698,"133":0.16471920907497406,"134":0.30177050828933716,"135":-0.006029510870575905,"136":0.12782827019691467,"137":0.09459783881902695,"138":-0.013908008113503456,"139":-0.012328832410275936,"140":0.28278258442878723,"141":0.07662200182676315,"142":0.12373053282499313,"143":0.07554496079683304,"144":0.07991333305835724,"145":-0.0008874153718352318,"146":0.3661871552467346,"147":0.3009829521179199,"148":0.4636048674583435,"149":0.2936079204082489,"150":0.2667757272720337,"151":0.21964842081069946,"152":0.06595076620578766,"153":-0.11070180684328079,"154":-0.019109727814793587,"155":0.07174471765756607,"156":0.3420809507369995,"157":0.19413897395133972,"158":0.12316037714481354,"159":0.1360064446926117,"160":0.11092153936624527,"161":0.3236636519432068,"162":0.35802513360977173,"163":0.23350366950035095,"164":0.11694082617759705,"165":-0.1009758859872818,"166":-0.12239648401737213,"167":0.09146414697170258,"168":-0.26339632272720337,"169":-0.07368200272321701,"170":0.13921280205249786,"171":0.36792027950286865,"172":0.5164754986763,"173":0.27628856897354126,"174":0.3777305483818054,"175":0.22204670310020447,"176":0.08488618582487106,"177":-0.043171390891075134,"178":0.1993536502122879,"179":-0.10184373706579208,"180":0.10245247185230255,"181":-0.10755010694265366,"182":-0.13365842401981354,"183":-0.32763293385505676,"184":-0.14849872887134552,"185":0.13472169637680054,"186":0.1833435744047165,"187":0.011991117149591446,"188":0.3276863694190979,"189":0.2193140685558319,"190":0.3933762311935425,"191":0.37103429436683655,"192":-0.05369938537478447,"193":-0.1332177370786667,"194":0.011725797317922115,"195":-0.009477797895669937,"196":0.1153561919927597,"197":0.04750179126858711,"198":-0.049474120140075684,"199":0.15974858403205872,"200":-0.2396838665008545,"201":-0.08213889598846436,"202":-0.1328815072774887,"203":-0.15291115641593933,"204":0.26901185512542725,"205":0.1866883486509323,"206":0.19113484025001526,"207":0.05361677333712578,"208":-0.21445897221565247,"209":-0.17491742968559265,"210":-0.27426913380622864,"211":0.04201389476656914,"212":0.10510927438735962,"213":0.20922042429447174,"214":0.03770263493061066,"215":0.055453110486269,"216":0.1466253101825714,"217":-0.09432686120271683,"218":-0.024070726707577705,"219":-0.031371090561151505,"220":-0.09061529487371445,"221":0.1495169699192047,"222":0.15560726821422577,"223":-0.22201861441135406,"224":-0.3312161862850189,"225":-0.29536861181259155,"226":-0.1463014781475067,"227":-0.19897863268852234,"228":-0.14773784577846527,"229":-0.21516254544258118,"230":0.1498129963874817,"231":0.013839153572916985,"232":-0.038142815232276917,"233":0.16324537992477417,"234":0.10408224910497665,"235":-0.2018553912639618,"236":0.38739943504333496,"237":-0.2399922013282776,"238":-0.08970870077610016,"239":-0.38964205980300903,"240":-0.29003429412841797,"241":-0.5331827998161316,"242":-0.5076197981834412,"243":-0.3873181939125061,"244":0.040860775858163834,"245":-0.017459558323025703,"246":0.25169652700424194,"247":0.2967534363269806,"248":0.09269195795059204,"249":0.2701421082019806,"250":-0.004745961166918278,"251":0.080716572701931,"252":-0.05510631203651428,"253":-0.07948853820562363,"254":-0.32210424542427063,"255":-0.21305574476718903}},"12":{"bias":0.8483940362930298,"weights":{"0":0.2983153760433197,"1":0.43885302543640137,"2":0.29297783970832825,"3":0.21012620627880096,"4":0.21018899977207184,"5":-0.18883690237998962,"6":0.01890140399336815,"7":-0.0008333653677254915,"8":-0.07538550347089767,"9":-0.21350818872451782,"10":-0.0092875175178051,"11":-0.022495388984680176,"12":-0.15202637016773224,"13":-0.27261221408843994,"14":0.005755409132689238,"15":0.03015660122036934,"16":0.43754324316978455,"17":0.2960452437400818,"18":0.3219289183616638,"19":0.2295030802488327,"20":0.23503416776657104,"21":0.17705601453781128,"22":-0.12970654666423798,"23":-0.16581331193447113,"24":-0.13709570467472076,"25":0.07942010462284088,"26":-0.2353067845106125,"27":-0.2487151175737381,"28":-0.10198815912008286,"29":-0.06993225961923599,"30":-0.18619249761104584,"31":-0.009958736598491669,"32":0.1967925727367401,"33":0.4052148461341858,"34":0.4079224467277527,"35":0.294425368309021,"36":0.319387286901474,"37":0.15959684550762177,"38":-0.0893842801451683,"39":-0.03711662068963051,"40":-0.011450833640992641,"41":0.04855054244399071,"42":-0.017594266682863235,"43":-0.1921200156211853,"44":0.1652895212173462,"45":-0.11169714480638504,"46":-0.17500947415828705,"47":0.06999025493860245,"48":0.21095451712608337,"49":0.19972077012062073,"50":0.10680223256349564,"51":0.022019745782017708,"52":0.3199319541454315,"53":0.13870273530483246,"54":0.30844348669052124,"55":0.041383352130651474,"56":0.07954436540603638,"57":0.0737818256020546,"58":0.2536531984806061,"59":0.024835685268044472,"60":0.08702963590621948,"61":-0.13529345393180847,"62":0.0439397431910038,"63":-0.19027914106845856,"64":0.20335036516189575,"65":0.18604055047035217,"66":0.14077486097812653,"67":-0.03274741768836975,"68":-0.025207890197634697,"69":-0.16985638439655304,"70":-0.19090208411216736,"71":-0.13438957929611206,"72":-0.29280802607536316,"73":0.13195310533046722,"74":0.22591844201087952,"75":0.055833715945482254,"76":0.04614369571208954,"77":0.13862216472625732,"78":0.19050118327140808,"79":0.22011378407478333,"80":-0.11201117932796478,"81":0.030333083122968674,"82":0.0115975858643651,"83":-0.18448497354984283,"84":-0.1828238070011139,"85":-0.2889385521411896,"86":-0.13683900237083435,"87":0.12250368297100067,"88":-0.07669719308614731,"89":0.04588887095451355,"90":0.3209766745567322,"91":0.25356122851371765,"92":-0.002797401277348399,"93":0.20568017661571503,"94":0.03456037864089012,"95":-0.01132272556424141,"96":-0.1639755368232727,"97":-0.30909255146980286,"98":-0.15564021468162537,"99":-0.18927495181560516,"100":-0.13487297296524048,"101":-0.1597185581922531,"102":-0.1108296811580658,"103":0.0545537993311882,"104":-0.14039918780326843,"105":0.07714188098907471,"106":0.1895652711391449,"107":-0.16501249372959137,"108":-0.10432588309049606,"109":-0.074973925948143,"110":0.20261643826961517,"111":0.10861087590456009,"112":-0.44825512170791626,"113":-0.3204864263534546,"114":-0.4148278534412384,"115":-0.23798047006130219,"116":-0.220160573720932,"117":-0.2900657057762146,"118":-0.27061647176742554,"119":0.04865686595439911,"120":0.18536733090877533,"121":0.13110339641571045,"122":-0.0028735205996781588,"123":-0.006700099445879459,"124":-0.009194686077535152,"125":0.1579732447862625,"126":-0.07036169618368149,"127":-0.12077178061008453,"128":-0.11401680111885071,"129":-0.2305780053138733,"130":-0.30972230434417725,"131":-0.199080690741539,"132":0.06962268799543381,"133":0.2149265706539154,"134":0.10100890696048737,"135":0.3411705791950226,"136":-0.0025081010535359383,"137":0.18537451326847076,"138":0.15152192115783691,"139":0.2552957236766815,"140":-0.027348900213837624,"141":-0.02320859394967556,"142":-0.10709984600543976,"143":-0.1162235289812088,"144":-0.3065125346183777,"145":-0.20123139023780823,"146":-0.17478929460048676,"147":0.017479171976447105,"148":-0.03148777782917023,"149":0.08141104876995087,"150":0.2503916919231415,"151":0.1696782410144806,"152":0.23592644929885864,"153":-0.017683133482933044,"154":-0.031944770365953445,"155":0.024029599502682686,"156":0.3184104859828949,"157":0.031048543751239777,"158":0.00046621428919024765,"159":-0.2048272341489792,"160":-0.20383049547672272,"161":-0.18745480477809906,"162":-0.2597443163394928,"163":0.025764716789126396,"164":0.08647137880325317,"165":0.041540030390024185,"166":-0.019855013117194176,"167":0.3429279923439026,"168":0.180193230509758,"169":0.33240967988967896,"170":0.19448865950107574,"171":0.02228126861155033,"172":0.018486296758055687,"173":0.1805395931005478,"174":0.1440397948026657,"175":0.15714088082313538,"176":-0.48256441950798035,"177":-0.4073474109172821,"178":-0.3138420879840851,"179":-0.37762734293937683,"180":-0.06243641674518585,"181":-0.12522229552268982,"182":0.006782413925975561,"183":0.20273388922214508,"184":0.3298739194869995,"185":0.28335893154144287,"186":0.18049347400665283,"187":0.17601370811462402,"188":-0.030959421768784523,"189":0.1138286292552948,"190":-0.03476027026772499,"191":0.009593387134373188,"192":-0.24374587833881378,"193":-0.2697688043117523,"194":-0.18660244345664978,"195":-0.17348706722259521,"196":-0.1365853101015091,"197":0.1878640055656433,"198":0.11889617145061493,"199":0.14033354818820953,"200":0.3126106560230255,"201":-0.11438518017530441,"202":-0.10439503192901611,"203":-0.1353083997964859,"204":-0.051864661276340485,"205":-0.03517143428325653,"206":0.07503890246152878,"207":0.11424610018730164,"208":-0.21464747190475464,"209":-0.46529629826545715,"210":-0.09064093232154846,"211":-0.08472414314746857,"212":-0.02582365833222866,"213":-0.0798124149441719,"214":0.0056630391627550125,"215":-0.033802494406700134,"216":0.030069764703512192,"217":-0.08977705240249634,"218":0.09837205708026886,"219":-0.019399236887693405,"220":-0.19056540727615356,"221":0.02479831874370575,"222":0.2090250849723816,"223":0.09101316332817078,"224":-0.08126778900623322,"225":-0.25678592920303345,"226":-0.22725822031497955,"227":-0.1421191692352295,"228":0.08650273084640503,"229":0.06909190118312836,"230":0.08332768827676773,"231":0.04145479202270508,"232":0.06937506049871445,"233":0.10038378834724426,"234":-0.1545405089855194,"235":0.11735919117927551,"236":0.043017446994781494,"237":-0.19707341492176056,"238":0.035440608859062195,"239":0.006118600722402334,"240":0.02311473712325096,"241":-0.32147133350372314,"242":0.1441398561000824,"243":-0.23128198087215424,"244":-0.21184411644935608,"245":0.062278490513563156,"246":-0.03644952178001404,"247":-0.15423905849456787,"248":0.11537013202905655,"249":-0.04910483956336975,"250":-0.14818944036960602,"251":-0.05788826569914818,"252":0.24893642961978912,"253":0.1264985203742981,"254":0.30817872285842896,"255":0.2631881833076477}},"13":{"bias":-0.4004303216934204,"weights":{"0":-0.6297748684883118,"1":-0.5195334553718567,"2":-0.29166179895401,"3":-0.4624752700328827,"4":-0.10739636421203613,"5":-0.09377571195363998,"6":-0.23597773909568787,"7":0.2491931915283203,"8":0.07694293558597565,"9":-0.060090214014053345,"10":0.046242136508226395,"11":0.11920186877250671,"12":-0.041747886687517166,"13":-0.21515381336212158,"14":-0.18340352177619934,"15":-0.3780331015586853,"16":-0.26730725169181824,"17":-0.22373487055301666,"18":-0.4657413363456726,"19":-0.20690974593162537,"20":-0.16530422866344452,"21":0.0030976468697190285,"22":-0.062238071113824844,"23":0.18029841780662537,"24":0.18945227563381195,"25":0.13818779587745667,"26":0.18985673785209656,"27":0.13809067010879517,"28":0.19361376762390137,"29":-0.016738668084144592,"30":-0.27919644117355347,"31":-0.052938323467969894,"32":-0.18465140461921692,"33":-0.14647425711154938,"34":-0.19210749864578247,"35":-0.010010271333158016,"36":-0.075158029794693,"37":-0.09225330501794815,"38":0.03181752189993858,"39":-0.07351310551166534,"40":0.1453152298927307,"41":0.2175811380147934,"42":-0.055343348532915115,"43":0.007152065634727478,"44":-0.1378554105758667,"45":0.02858455292880535,"46":-0.2094944715499878,"47":-0.0772983506321907,"48":0.009824824519455433,"49":-0.16962267458438873,"50":0.10455494374036789,"51":-0.05874583125114441,"52":-0.05955207347869873,"53":-0.10781951993703842,"54":0.049258239567279816,"55":-0.18498215079307556,"56":0.07414744794368744,"57":-0.024391349405050278,"58":-0.11795628070831299,"59":-0.0022120170760899782,"60":-0.26773279905319214,"61":-0.34596773982048035,"62":-0.03729627653956413,"63":0.012406421825289726,"64":0.13257183134555817,"65":-0.0007479428313672543,"66":0.28105247020721436,"67":0.19815480709075928,"68":0.19493389129638672,"69":0.28693997859954834,"70":0.26564568281173706,"71":0.17286165058612823,"72":-0.2945278286933899,"73":-0.17131100594997406,"74":-0.06357727199792862,"75":-0.14268653094768524,"76":0.10600107908248901,"77":-0.18644505739212036,"78":-0.06463500112295151,"79":0.2959654629230499,"80":0.25442764163017273,"81":0.12089066952466965,"82":0.21219731867313385,"83":0.09065431356430054,"84":-0.05567774921655655,"85":0.24584686756134033,"86":-0.1725573092699051,"87":0.14536401629447937,"88":-0.021871818229556084,"89":-0.1868554949760437,"90":-0.08694412559270859,"91":0.027248352766036987,"92":-0.14237621426582336,"93":0.028498588129878044,"94":-0.08403787016868591,"95":0.023000456392765045,"96":0.10664737224578857,"97":0.03962293267250061,"98":0.05531331151723862,"99":0.14007942378520966,"100":0.19532319903373718,"101":0.04473451152443886,"102":-0.04765430837869644,"103":0.14200687408447266,"104":-0.08647297322750092,"105":0.06248025596141815,"106":-0.16380590200424194,"107":-0.09835188835859299,"108":-0.1327725201845169,"109":-0.34252816438674927,"110":-0.08148256689310074,"111":0.08975794166326523,"112":-0.18406064808368683,"113":0.06211012974381447,"114":-0.0049790069460868835,"115":0.1714692860841751,"116":0.1662459373474121,"117":0.1193176731467247,"118":0.10661892592906952,"119":-0.08288561552762985,"120":-0.008782487362623215,"121":-0.10835228115320206,"122":-0.14234869182109833,"123":-0.06471766531467438,"124":0.07281520217657089,"125":-0.3410244882106781,"126":0.15159952640533447,"127":0.1343524008989334,"128":0.18987514078617096,"129":0.06857533007860184,"130":0.06714494526386261,"131":-0.10427599400281906,"132":0.04784636199474335,"133":0.1585596650838852,"134":-0.033195555210113525,"135":-0.11532939970493317,"136":-0.14168132841587067,"137":-0.23079875111579895,"138":-0.15639659762382507,"139":0.020871508866548538,"140":0.039284270256757736,"141":0.0007543961983174086,"142":0.0065388805232942104,"143":0.17220330238342285,"144":-0.18977254629135132,"145":-0.19884327054023743,"146":0.1058163121342659,"147":0.17469467222690582,"148":-0.25101417303085327,"149":0.0854581668972969,"150":0.02547846920788288,"151":-0.06027696654200554,"152":-0.27159714698791504,"153":0.1346285343170166,"154":0.19758860766887665,"155":0.1354946345090866,"156":0.01886877976357937,"157":-0.26644694805145264,"158":0.11580801755189896,"159":-0.026903271675109863,"160":-0.09504319727420807,"161":-0.10346411168575287,"162":-0.25032365322113037,"163":-0.32347673177719116,"164":-0.08373516798019409,"165":-0.37856000661849976,"166":-0.5115199685096741,"167":-0.26295006275177,"168":-0.12664860486984253,"169":-0.20465390384197235,"170":-0.30771687626838684,"171":0.06419329345226288,"172":0.015223018825054169,"173":-0.12754908204078674,"174":0.11819906532764435,"175":0.29514187574386597,"176":-0.019895032048225403,"177":0.02054527960717678,"178":-0.31829705834388733,"179":-0.20571552217006683,"180":-0.1304173618555069,"181":-0.33128055930137634,"182":-0.43311989307403564,"183":-0.12294943630695343,"184":-0.13597765564918518,"185":0.07398606091737747,"186":0.0664425864815712,"187":0.26846635341644287,"188":0.37825894355773926,"189":0.21276147663593292,"190":0.28298938274383545,"191":0.11823491752147675,"192":0.13647857308387756,"193":0.004305677954107523,"194":0.12572553753852844,"195":0.09887181222438812,"196":-0.009853506460785866,"197":0.13087356090545654,"198":-0.29820168018341064,"199":-0.26203981041908264,"200":-0.10056564211845398,"201":0.08167063444852829,"202":0.25914156436920166,"203":0.05491569638252258,"204":0.19485613703727722,"205":0.14025931060314178,"206":-0.0013648087624460459,"207":0.08755450695753098,"208":0.3535054922103882,"209":0.18216297030448914,"210":0.15131297707557678,"211":0.06225733831524849,"212":0.16627450287342072,"213":0.06196418032050133,"214":-0.12043935060501099,"215":0.06378968805074692,"216":0.23918871581554413,"217":-0.08461184054613113,"218":0.03121579997241497,"219":0.25921431183815,"220":-0.09513747692108154,"221":0.079140305519104,"222":0.05363181233406067,"223":0.01398397982120514,"224":0.09907965362071991,"225":-0.011108893901109695,"226":-0.03450968116521835,"227":0.06916192173957825,"228":0.07445457577705383,"229":-0.08086533099412918,"230":0.010211576707661152,"231":0.07383576035499573,"232":0.15621350705623627,"233":0.11412956565618515,"234":0.12696561217308044,"235":0.3536183536052704,"236":0.12251527607440948,"237":0.05985119193792343,"238":-0.27964869141578674,"239":0.02243732661008835,"240":0.2385016828775406,"241":-0.06528791040182114,"242":0.0997934639453888,"243":0.21487493813037872,"244":0.013687224127352238,"245":0.03320944309234619,"246":-0.198843851685524,"247":0.10737422853708267,"248":0.006043844856321812,"249":0.12161759287118912,"250":0.3049536347389221,"251":0.1874864101409912,"252":0.16374486684799194,"253":-0.22977545857429504,"254":-0.15928204357624054,"255":-0.11052199453115463}},"14":{"bias":-1.3980848789215088,"weights":{"0":-0.18939191102981567,"1":-0.19603319466114044,"2":-0.2189408540725708,"3":-0.2450462132692337,"4":-0.18098491430282593,"5":-0.10621659457683563,"6":-0.11298064887523651,"7":0.03138376772403717,"8":0.16773143410682678,"9":0.1465882658958435,"10":0.0847136601805687,"11":0.026102792471647263,"12":-0.001497611403465271,"13":-0.3505910336971283,"14":-0.24285823106765747,"15":-0.39269784092903137,"16":0.07563967257738113,"17":0.1769515722990036,"18":-0.3777925968170166,"19":-0.18159893155097961,"20":-0.05934685841202736,"21":-0.22619974613189697,"22":0.04949314892292023,"23":-0.21378864347934723,"24":0.02146163210272789,"25":-0.08526305109262466,"26":0.17243750393390656,"27":-0.09954498708248138,"28":0.1739349365234375,"29":-0.15213727951049805,"30":-0.1834663450717926,"31":-0.3464440107345581,"32":-0.09539026021957397,"33":0.11945277452468872,"34":-0.03446154668927193,"35":0.1073518693447113,"36":0.0453249029815197,"37":-0.208532452583313,"38":0.1258123815059662,"39":-0.017667269334197044,"40":-0.06750649213790894,"41":0.037973273545503616,"42":-0.05267312750220299,"43":0.010407930240035057,"44":-0.1684478223323822,"45":-0.3552364408969879,"46":-0.2894993722438812,"47":-0.2226870357990265,"48":-0.14315804839134216,"49":0.08468557149171829,"50":0.08312931656837463,"51":0.006243594456464052,"52":0.01865837723016739,"53":-0.08895991742610931,"54":0.1452166736125946,"55":-0.07749989628791809,"56":0.27471858263015747,"57":0.2896839380264282,"58":0.2954305410385132,"59":-0.07013579457998276,"60":-0.07412518560886383,"61":0.12884797155857086,"62":-0.1478625237941742,"63":-0.06554529815912247,"64":0.2970651686191559,"65":0.016058186069130898,"66":0.05367356166243553,"67":-0.16351604461669922,"68":0.18292249739170074,"69":0.17707684636116028,"70":0.00899579469114542,"71":0.3093484938144684,"72":0.2661057114601135,"73":0.17452087998390198,"74":0.001955687999725342,"75":0.14648573100566864,"76":-0.04186531528830528,"77":0.06410789489746094,"78":0.06986913830041885,"79":0.27253642678260803,"80":-0.015071670524775982,"81":0.0916220024228096,"82":0.022447947412729263,"83":0.13183248043060303,"84":0.009267903864383698,"85":0.09076353907585144,"86":0.0864090844988823,"87":-0.08666042983531952,"88":-0.18101836740970612,"89":-0.11358287930488586,"90":-0.036959320306777954,"91":0.15863899886608124,"92":0.08857045322656631,"93":-0.08082085102796555,"94":0.4137621819972992,"95":0.2688263952732086,"96":0.04249889776110649,"97":-0.08317024260759354,"98":0.19607454538345337,"99":-0.05104059725999832,"100":0.07166885584592819,"101":0.1791621595621109,"102":-0.018607793375849724,"103":-0.1954653561115265,"104":-0.2859164774417877,"105":-0.24913851916790009,"106":-0.15667253732681274,"107":0.1473563313484192,"108":-0.09477017819881439,"109":0.08090732246637344,"110":0.07581636309623718,"111":0.2725752890110016,"112":0.028861897066235542,"113":-0.20876945555210114,"114":0.0430242083966732,"115":-0.1714322865009308,"116":-0.1098407432436943,"117":0.1424829661846161,"118":-0.18636897206306458,"119":-0.0686786025762558,"120":0.06652633100748062,"121":-0.15839187800884247,"122":0.06515752524137497,"123":0.0833299532532692,"124":0.1961633712053299,"125":-0.008200570940971375,"126":0.1665915995836258,"127":0.3308401107788086,"128":0.059590887278318405,"129":-0.025342034175992012,"130":-0.10402166843414307,"131":0.015311027877032757,"132":0.10005346685647964,"133":-0.20381666719913483,"134":0.09183785319328308,"135":0.47147655487060547,"136":0.5452980399131775,"137":0.1293124407529831,"138":0.036181382834911346,"139":0.19408629834651947,"140":0.14686615765094757,"141":-0.09292798489332199,"142":0.22454394400119781,"143":-0.00025312454090453684,"144":-0.18900872766971588,"145":-0.11644889414310455,"146":0.014306769706308842,"147":0.0279390849173069,"148":0.15479101240634918,"149":-0.09953196346759796,"150":0.32574185729026794,"151":0.2755041718482971,"152":0.28324517607688904,"153":0.1531134396791458,"154":0.07024247199296951,"155":0.1168881356716156,"156":-0.01589708775281906,"157":0.0029374270234256983,