{"sizes":[256,16,16,19],"layers":[{"0":{},"1":{},"2":{},"3":{},"4":{},"5":{},"6":{},"7":{},"8":{},"9":{},"10":{},"11":{},"12":{},"13":{},"14":{},"15":{},"16":{},"17":{},"18":{},"19":{},"20":{},"21":{},"22":{},"23":{},"24":{},"25":{},"26":{},"27":{},"28":{},"29":{},"30":{},"31":{},"32":{},"33":{},"34":{},"35":{},"36":{},"37":{},"38":{},"39":{},"40":{},"41":{},"42":{},"43":{},"44":{},"45":{},"46":{},"47":{},"48":{},"49":{},"50":{},"51":{},"52":{},"53":{},"54":{},"55":{},"56":{},"57":{},"58":{},"59":{},"60":{},"61":{},"62":{},"63":{},"64":{},"65":{},"66":{},"67":{},"68":{},"69":{},"70":{},"71":{},"72":{},"73":{},"74":{},"75":{},"76":{},"77":{},"78":{},"79":{},"80":{},"81":{},"82":{},"83":{},"84":{},"85":{},"86":{},"87":{},"88":{},"89":{},"90":{},"91":{},"92":{},"93":{},"94":{},"95":{},"96":{},"97":{},"98":{},"99":{},"100":{},"101":{},"102":{},"103":{},"104":{},"105":{},"106":{},"107":{},"108":{},"109":{},"110":{},"111":{},"112":{},"113":{},"114":{},"115":{},"116":{},"117":{},"118":{},"119":{},"120":{},"121":{},"122":{},"123":{},"124":{},"125":{},"126":{},"127":{},"128":{},"129":{},"130":{},"131":{},"132":{},"133":{},"134":{},"135":{},"136":{},"137":{},"138":{},"139":{},"140":{},"141":{},"142":{},"143":{},"144":{},"145":{},"146":{},"147":{},"148":{},"149":{},"150":{},"151":{},"152":{},"153":{},"154":{},"155":{},"156":{},"157":{},"158":{},"159":{},"160":{},"161":{},"162":{},"163":{},"164":{},"165":{},"166":{},"167":{},"168":{},"169":{},"170":{},"171":{},"172":{},"173":{},"174":{},"175":{},"176":{},"177":{},"178":{},"179":{},"180":{},"181":{},"182":{},"183":{},"184":{},"185":{},"186":{},"187":{},"188":{},"189":{},"190":{},"191":{},"192":{},"193":{},"194":{},"195":{},"196":{},"197":{},"198":{},"199":{},"200":{},"201":{},"202":{},"203":{},"204":{},"205":{},"206":{},"207":{},"208":{},"209":{},"210":{},"211":{},"212":{},"213":{},"214":{},"215":{},"216":{},"217":{},"218":{},"219":{},"220":{},"221":{},"222":{},"223":{},"224":{},"225":{},"226":{},"227":{},"228":{},"229":{},"230":{},"231":{},"232":{},"233":{},"234":{},"235":{},"236":{},"237":{},"238":{},"239":{},"240":{},"241":{},"242":{},"243":{},"244":{},"245":{},"246":{},"247":{},"248":{},"249":{},"250":{},"251":{},"252":{},"253":{},"254":{},"255":{}},{"0":{"bias":0.13246266543865204,"weights":{"0":0.008209663443267345,"1":-0.24524235725402832,"2":-0.3186764419078827,"3":-0.09788911044597626,"4":0.0031022250186651945,"5":-0.281673401594162,"6":0.1803695112466812,"7":0.1406754106283188,"8":0.10282354056835175,"9":-0.09201604872941971,"10":-0.16436444222927094,"11":-0.06193020939826965,"12":0.15306994318962097,"13":-0.06881217658519745,"14":-0.12409056723117828,"15":0.13354425132274628,"16":-0.21164509654045105,"17":0.1634020060300827,"18":-0.19989794492721558,"19":-0.29302626848220825,"20":-0.3917243778705597,"21":0.08404175192117691,"22":-0.1869172602891922,"23":0.18665608763694763,"24":-0.03262290731072426,"25":0.10338344424962997,"26":0.02171563170850277,"27":-0.05144056677818298,"28":0.33449462056159973,"29":-0.18873310089111328,"30":-0.16062510013580322,"31":0.09420563280582428,"32":-0.10474824160337448,"33":-0.11125212162733078,"34":0.03334097936749458,"35":-0.11243820935487747,"36":-0.10207520425319672,"37":-0.0906669870018959,"38":-0.14836521446704865,"39":0.07020498812198639,"40":0.06318799406290054,"41":-0.1947544813156128,"42":0.2923959493637085,"43":-0.1152544841170311,"44":0.32987725734710693,"45":-0.02389673702418804,"46":-0.054852232336997986,"47":-0.052819665521383286,"48":-0.1589284986257553,"49":-0.007234543561935425,"50":-0.0000377252436010167,"51":-0.21574968099594116,"52":-0.06728816777467728,"53":-0.16823694109916687,"54":0.13588158786296844,"55":-0.02398180402815342,"56":0.18848854303359985,"57":-0.03190351650118828,"58":0.15469951927661896,"59":0.01746557280421257,"60":0.0589572973549366,"61":0.16261304914951324,"62":0.06240237504243851,"63":-0.2497393637895584,"64":-0.3248687982559204,"65":-0.25772973895072937,"66":-0.2699398994445801,"67":-0.19933132827281952,"68":-0.12380378693342209,"69":-0.02438640594482422,"70":0.057926975190639496,"71":0.02414754219353199,"72":-0.36805489659309387,"73":-0.02464141696691513,"74":0.062692791223526,"75":-0.23228324949741364,"76":0.13017374277114868,"77":0.18906818330287933,"78":-0.02340419963002205,"79":-0.21052896976470947,"80":-0.029990432783961296,"81":0.033051975071430206,"82":-0.1457151621580124,"83":-0.09320108592510223,"84":-0.02413203939795494,"85":-0.2509347200393677,"86":-0.09507621824741364,"87":-0.28182142972946167,"88":-0.06344329565763474,"89":0.13915330171585083,"90":-0.04309246689081192,"91":0.10652010142803192,"92":-0.04916777089238167,"93":0.26915720105171204,"94":0.03234624117612839,"95":0.10432962328195572,"96":-0.2404666393995285,"97":0.04150566831231117,"98":0.11215805262327194,"99":-0.05793781578540802,"100":-0.008955410681664944,"101":-0.10374338179826736,"102":-0.22249601781368256,"103":-0.05874950811266899,"104":-0.1716737151145935,"105":0.1852700561285019,"106":-0.039247941225767136,"107":-0.016005242243409157,"108":0.11943751573562622,"109":0.25564146041870117,"110":0.26072362065315247,"111":-0.2245456576347351,"112":-0.27638453245162964,"113":-0.12100756913423538,"114":-0.06747408211231232,"115":-0.07240569591522217,"116":0.0637018084526062,"117":0.01352589949965477,"118":-0.39497503638267517,"119":-0.4147816300392151,"120":-0.22399243712425232,"121":0.01175722572952509,"122":-0.035756342113018036,"123":-0.08288175612688065,"124":0.20462670922279358,"125":0.053389523178339005,"126":-0.19472123682498932,"127":-0.39124324917793274,"128":-0.4160252809524536,"129":-0.25888022780418396,"130":-0.015002619475126266,"131":-0.09119950979948044,"132":-0.0525444932281971,"133":-0.3619065582752228,"134":-0.423080176115036,"135":-0.26453837752342224,"136":-0.24974671006202698,"137":0.14853380620479584,"138":-0.07420086115598679,"139":0.07778424024581909,"140":0.33657434582710266,"141":-0.005407736636698246,"142":0.2212710976600647,"143":-0.09768928587436676,"144":-0.1979130357503891,"145":0.04557059705257416,"146":-0.1050012856721878,"147":-0.19490931928157806,"148":-0.2502627670764923,"149":-0.16477850079536438,"150":-0.10025818645954132,"151":-0.338222861289978,"152":-0.04259921610355377,"153":-0.16155673563480377,"154":-0.09497742354869843,"155":0.09280148893594742,"156":0.19002604484558105,"157":0.0006832983926869929,"158":0.3649575412273407,"159":0.09996403753757477,"160":0.08379775285720825,"161":0.16666051745414734,"162":0.13928864896297455,"163":0.08821216225624084,"164":-0.055182233452796936,"165":-0.17192783951759338,"166":-0.1880120187997818,"167":0.013520916923880577,"168":-0.24058569967746735,"169":-0.017960967496037483,"170":-0.062114521861076355,"171":-0.0851052775979042,"172":0.002526897005736828,"173":0.44301241636276245,"174":0.31950870156288147,"175":0.44353675842285156,"176":0.230316624045372,"177":0.35417044162750244,"178":0.20045916736125946,"179":0.17353354394435883,"180":-0.028751933947205544,"181":-0.159525066614151,"182":-0.31093522906303406,"183":-0.17101231217384338,"184":-0.08632370829582214,"185":0.044555917382240295,"186":-0.22348155081272125,"187":0.053242411464452744,"188":0.11758077144622803,"189":0.031907819211483,"190":0.37578704953193665,"191":0.5792709589004517,"192":0.1853851079940796,"193":0.4383779466152191,"194":0.40206944942474365,"195":0.18439634144306183,"196":0.17653894424438477,"197":0.11080314964056015,"198":-0.04175002500414848,"199":0.010371879674494267,"200":0.06394093483686447,"201":0.015016191639006138,"202":0.09304569661617279,"203":0.021052904427051544,"204":0.3722062408924103,"205":0.36985522508621216,"206":0.20080912113189697,"207":0.24037985503673553,"208":0.2941150367259979,"209":0.15233184397220612,"210":0.146835595369339,"211":0.3304574191570282,"212":-0.034523796290159225,"213":0.059985898435115814,"214":-0.01008108165115118,"215":0.0027640804182738066,"216":-0.12297423183917999,"217":-0.023851238191127777,"218":0.2671806216239929,"219":-0.003644529264420271,"220":0.4366568326950073,"221":0.3470112681388855,"222":0.40162545442581177,"223":0.20030754804611206,"224":0.2757675349712372,"225":-0.004158825147897005,"226":0.01586967706680298,"227":0.31871744990348816,"228":0.18811890482902527,"229":0.15158766508102417,"230":0.009125045500695705,"231":-0.19027425348758698,"232":-0.057850100100040436,"233":-0.010517982766032219,"234":-0.004350746516138315,"235":0.11159214377403259,"236":0.48498860001564026,"237":0.30785220861434937,"238":0.0037867664359509945,"239":0.15234409272670746,"240":0.18589112162590027,"241":0.3396904170513153,"242":0.1484449803829193,"243":-0.11046591401100159,"244":0.010150907561182976,"245":0.25420722365379333,"246":-0.015062272548675537,"247":-0.21382251381874084,"248":-0.006171307526528835,"249":0.018993541598320007,"250":0.2562832832336426,"251":0.12825295329093933,"252":0.10612531751394272,"253":0.14321497082710266,"254":0.20511752367019653,"255":0.06894479691982269}},"1":{"bias":-0.37473490834236145,"weights":{"0":-0.005013305693864822,"1":0.09053622931241989,"2":-0.12240113317966461,"3":0.30743008852005005,"4":0.3461381494998932,"5":0.10734734684228897,"6":-0.06796823441982269,"7":-0.061628762632608414,"8":0.0028757755644619465,"9":-0.26837465167045593,"10":-0.06249973550438881,"11":-0.16101723909378052,"12":-0.0744762122631073,"13":0.03297841176390648,"14":0.06611905992031097,"15":-0.19316203892230988,"16":-0.1079285740852356,"17":0.3266095519065857,"18":0.3252939283847809,"19":0.1577964425086975,"20":0.3035174310207367,"21":-0.00607504416257143,"22":-0.09958107769489288,"23":0.06900433450937271,"24":0.0035842256620526314,"25":0.014312454499304295,"26":-0.026148945093154907,"27":0.14603297412395477,"28":-0.1298581063747406,"29":0.1152011901140213,"30":-0.17816375195980072,"31":-0.40713995695114136,"32":0.0741223469376564,"33":0.3217354714870453,"34":0.22602523863315582,"35":0.20869328081607819,"36":0.18589365482330322,"37":0.2335735559463501,"38":-0.02487681247293949,"39":0.16437681019306183,"40":0.0302460715174675,"41":0.2777901887893677,"42":-0.17700998485088348,"43":-0.1462174355983734,"44":-0.059770792722702026,"45":-0.17988404631614685,"46":-0.043079882860183716,"47":-0.09388513118028641,"48":0.27591609954833984,"49":0.28732362389564514,"50":-0.02654566988348961,"51":-0.06569432467222214,"52":-0.10459981858730316,"53":0.07325495034456253,"54":-0.03583213686943054,"55":-0.04654870927333832,"56":-0.04742475599050522,"57":0.20103909075260162,"58":0.05467037856578827,"59":0.018208157271146774,"60":0.17981970310211182,"61":-0.18619120121002197,"62":-0.21057440340518951,"63":0.03834245726466179,"64":0.1956065446138382,"65":0.2774207592010498,"66":0.4179641008377075,"67":0.1280004233121872,"68":0.2069929987192154,"69":-0.0027212148997932673,"70":0.14204801619052887,"71":-0.12518422305583954,"72":0.15679699182510376,"73":-0.2508030831813812,"74":-0.031962115317583084,"75":0.009249730966985226,"76":-0.13853979110717773,"77":-0.021296251565217972,"78":0.01127406395971775,"79":-0.2189340591430664,"80":-0.009685884229838848,"81":-0.10244273394346237,"82":0.2371934950351715,"83":0.13143058121204376,"84":0.4296720623970032,"85":0.10397852957248688,"86":0.17052333056926727,"87":0.3117070198059082,"88":-0.09745404124259949,"89":0.07425078749656677,"90":-0.005595869850367308,"91":0.36444082856178284,"92":0.1120571494102478,"93":-0.043889254331588745,"94":0.09348513185977936,"95":-0.1371038407087326,"96":0.10893556475639343,"97":0.12707926332950592,"98":-0.09180918335914612,"99":-0.07114090770483017,"100":0.40093398094177246,"101":0.23891621828079224,"102":-0.02919889986515045,"103":0.1231231540441513,"104":0.06829998642206192,"105":0.22877706587314606,"106":0.050625309348106384,"107":0.04463833570480347,"108":0.021341538056731224,"109":-0.15168796479701996,"110":-0.05523299425840378,"111":0.04085668548941612,"112":-0.3485984802246094,"113":-0.17985665798187256,"114":-0.009075512178242207,"115":0.17859406769275665,"116":0.06106740981340408,"117":-0.016782520338892937,"118":0.2902064025402069,"119":0.4138001799583435,"120":0.24582499265670776,"121":0.1464066356420517,"122":0.04570161551237106,"123":0.11563690751791,"124":-0.26198726892471313,"125":-0.17996136844158173,"126":-0.18509788811206818,"127":-0.0426652729511261,"128":-0.5416678786277771,"129":-0.20674054324626923,"130":-0.12710785865783691,"131":0.03879387676715851,"132":0.04345652461051941,"133":0.14187827706336975,"134":0.29082363843917847,"135":0.348264217376709,"136":0.15499721467494965,"137":0.1949623078107834,"138":0.3068437874317169,"139":0.06213007867336273,"140":-0.04822757467627525,"141":-0.10754606872797012,"142":-0.23318199813365936,"143":-0.40065985918045044,"144":-0.44274505972862244,"145":-0.19861258566379547,"146":-0.0510457418859005,"147":-0.1053035780787468,"148":0.22220131754875183,"149":0.48986414074897766,"150":0.13956528902053833,"151":0.20375196635723114,"152":0.15789349377155304,"153":0.315265029668808,"154":0.15239378809928894,"155":0.06467373669147491,"156":-0.1289527267217636,"157":-0.34961363673210144,"158":-0.3399238586425781,"159":-0.30291348695755005,"160":-0.5094876885414124,"161":-0.30874887108802795,"162":-0.14511750638484955,"163":0.23571670055389404,"164":-0.12280992418527603,"165":0.04095401242375374,"166":0.08572803437709808,"167":0.07432693243026733,"168":0.05919961258769035,"169":0.14168424904346466,"170":-0.01907741278409958,"171":-0.13702625036239624,"172":-0.16355623304843903,"173":-0.4909542500972748,"174":-0.3299390971660614,"175":-0.4580063819885254,"176":-0.055197276175022125,"177":-0.24289469420909882,"178":-0.10380925983190536,"179":-0.04342036321759224,"180":-0.17446190118789673,"181":-0.2309965044260025,"182":-0.2746736705303192,"183":0.06102713569998741,"184":0.10084746032953262,"185":-0.2841952443122864,"186":-0.28482556343078613,"187":-0.1555074155330658,"188":-0.09480736404657364,"189":-0.38142654299736023,"190":-0.22882476449012756,"191":-0.536468505859375,"192":0.005057112779468298,"193":-0.4366024136543274,"194":-0.050945084542036057,"195":0.0934428870677948,"196":0.13838833570480347,"197":0.36391744017601013,"198":0.3149086534976959,"199":0.059345416724681854,"200":-0.24666082859039307,"201":0.18430541455745697,"202":0.02854100614786148,"203":-0.12237520515918732,"204":-0.30056434869766235,"205":-0.20743387937545776,"206":-0.29564833641052246,"207":-0.023313501849770546,"208":0.12500010430812836,"209":0.14389392733573914,"210":-0.10624054819345474,"211":-0.015463621355593204,"212":0.24730807542800903,"213":0.09106732904911041,"214":-0.09187164902687073,"215":0.01914927363395691,"216":-0.1309063583612442,"217":0.22983993589878082,"218":0.1074589192867279,"219":0.08703736960887909,"220":-0.28357994556427,"221":-0.26678845286369324,"222":-0.25632616877555847,"223":0.07369992882013321,"224":0.26668503880500793,"225":0.1250002235174179,"226":0.07153333723545074,"227":0.23614385724067688,"228":0.4566868543624878,"229":0.3027055859565735,"230":0.14541670680046082,"231":0.09884260594844818,"232":-0.038199394941329956,"233":0.06901483982801437,"234":0.4393967390060425,"235":0.24945096671581268,"236":-0.1935102343559265,"237":0.04057453200221062,"238":-0.00372499437071383,"239":0.44742491841316223,"240":-0.2966727912425995,"241":0.04341942444443703,"242":0.2563783824443817,"243":0.34534215927124023,"244":0.035329435020685196,"245":-0.0799543559551239,"246":-0.01145665068179369,"247":-0.09542585909366608,"248":-0.2738538384437561,"249":-0.23989205062389374,"250":0.04354729503393173,"251":-0.09895220398902893,"252":-0.17293956875801086,"253":-0.19295571744441986,"254":-0.2834888696670532,"255":-0.15875016152858734}},"2":{"bias":0.13047893345355988,"weights":{"0":-0.05367068946361542,"1":0.1710420846939087,"2":0.32137301564216614,"3":-0.23239095509052277,"4":-0.15806013345718384,"5":0.2907867729663849,"6":0.22649222612380981,"7":-0.08055432140827179,"8":0.052008576691150665,"9":0.2166450470685959,"10":-0.07126515358686447,"11":-0.08705221861600876,"12":0.04603451490402222,"13":0.4391584098339081,"14":0.2136651575565338,"15":0.3022766411304474,"16":-0.05268266797065735,"17":-0.09420771151781082,"18":0.13397842645645142,"19":0.22455888986587524,"20":0.27583786845207214,"21":0.9284214973449707,"22":0.26630643010139465,"23":-0.11578524857759476,"24":-0.13310562074184418,"25":0.03431585058569908,"26":0.6561335921287537,"27":-0.020892158150672913,"28":0.10614264011383057,"29":0.12207885831594467,"30":-0.2684829533100128,"31":0.42013731598854065,"32":-0.2773320972919464,"33":-0.1404459923505783,"34":0.1461951583623886,"35":0.06511133909225464,"36":0.5762596726417542,"37":0.2768596112728119,"38":0.2889380156993866,"39":-0.07127853482961655,"40":-0.03785748779773712,"41":0.007615279406309128,"42":0.02300732024013996,"43":0.07427126914262772,"44":0.04534146562218666,"45":0.03587961569428444,"46":-0.07970508933067322,"47":0.11642350256443024,"48":0.19668535888195038,"49":-0.07626426219940186,"50":0.2068883776664734,"51":-0.16611258685588837,"52":-0.007066902704536915,"53":0.2700364887714386,"54":0.06941326707601547,"55":-0.07897523790597916,"56":0.20414471626281738,"57":0.047335267066955566,"58":-0.10997367650270462,"59":-0.3027363121509552,"60":-0.13620837032794952,"61":0.129904106259346,"62":-0.010147933848202229,"63":0.16051442921161652,"64":0.30187782645225525,"65":0.24993249773979187,"66":-0.10040879994630814,"67":-0.733427882194519,"68":-0.28524571657180786,"69":-0.014783130027353764,"70":0.134256973862648,"71":-0.12217042595148087,"72":0.2500000298023224,"73":0.10046801716089249,"74":-0.004872238263487816,"75":-0.28119543194770813,"76":-0.5384495854377747,"77":0.007238365244120359,"78":0.013325429521501064,"79":0.24053336679935455,"80":-0.03602247312664986,"81":0.11814261972904205,"82":-0.39672109484672546,"83":-0.2250639647245407,"84":-0.41148990392684937,"85":-0.21755686402320862,"86":0.05090836063027382,"87":-0.3300354778766632,"88":-0.039742473512887955,"89":0.0630703866481781,"90":0.11690744012594223,"91":-0.21618521213531494,"92":-0.38388776779174805,"93":-0.41750001907348633,"94":-0.20321933925151825,"95":0.06780096888542175,"96":0.06569512188434601,"97":-0.34749388694763184,"98":-0.018855229020118713,"99":-0.10208609700202942,"100":-0.22473812103271484,"101":-0.28042736649513245,"102":0.13048619031906128,"103":-0.21012787520885468,"104":-0.10177350044250488,"105":-0.0840618833899498,"106":-0.1155717745423317,"107":0.11577723175287247,"108":-0.010033111087977886,"109":-0.0980588048696518,"110":-0.16108962893486023,"111":0.076230987906456,"112":-0.30769863724708557,"113":-0.1810685247182846,"114":-0.1271234005689621,"115":-0.11640074104070663,"116":-0.296382874250412,"117":-0.16890877485275269,"118":0.13721342384815216,"119":0.23386192321777344,"120":0.2719690203666687,"121":0.2458895593881607,"122":0.27675244212150574,"123":-0.034930892288684845,"124":0.2643996775150299,"125":0.3492823541164398,"126":0.13613058626651764,"127":-0.012446830980479717,"128":-0.5184488892555237,"129":-0.22485747933387756,"130":-0.07267116755247116,"131":-0.18653850257396698,"132":0.016856612637639046,"133":-0.19629664719104767,"134":0.22103369235992432,"135":-0.16470198333263397,"136":-0.05667102709412575,"137":0.14353495836257935,"138":-0.01414352748543024,"139":0.1083880215883255,"140":0.0945197269320488,"141":0.1422715187072754,"142":-0.00522169005125761,"143":-0.2461453080177307,"144":-0.2932699918746948,"145":-0.5108619928359985,"146":-0.29374584555625916,"147":-0.02784624695777893,"148":-0.1263790875673294,"149":-0.487495094537735,"150":0.08288396149873734,"151":-0.16704276204109192,"152":0.04348796233534813,"153":-0.07476922869682312,"154":-0.1188092976808548,"155":0.15374188125133514,"156":0.21418067812919617,"157":0.014722046442329884,"158":-0.04866085574030876,"159":-0.4148552119731903,"160":-0.29383859038352966,"161":-0.25757908821105957,"162":-0.4883680045604706,"163":-0.047128207981586456,"164":-0.062435489147901535,"165":-0.318086177110672,"166":0.04295402765274048,"167":0.24528391659259796,"168":0.3413177728652954,"169":0.21245355904102325,"170":0.1582772582769394,"171":0.023700343444943428,"172":0.1355106681585312,"173":0.10304723680019379,"174":0.38815373182296753,"175":-0.2297956347465515,"176":-0.6592514514923096,"177":-0.16457068920135498,"178":-0.17883914709091187,"179":-0.5464836955070496,"180":-0.2776912748813629,"181":-0.05868158116936684,"182":0.15382587909698486,"183":0.12644290924072266,"184":0.25725221633911133,"185":0.10045616328716278,"186":0.0777430310845375,"187":-0.010635212995111942,"188":0.052022527903318405,"189":0.05889197066426277,"190":0.20224009454250336,"191":-0.6200361251831055,"192":-0.5652609467506409,"193":-0.2795025408267975,"194":-0.12037186324596405,"195":-0.06634816527366638,"196":-0.06642957776784897,"197":-0.10428282618522644,"198":-0.21885576844215393,"199":0.10804322361946106,"200":0.07705273479223251,"201":-0.17743633687496185,"202":0.013848364353179932,"203":0.09178592264652252,"204":0.007719785440713167,"205":0.06632625311613083,"206":-0.12925559282302856,"207":0.26038968563079834,"208":-0.2027362436056137,"209":0.2824400067329407,"210":0.05740401893854141,"211":0.18179012835025787,"212":0.22391341626644135,"213":0.15973658859729767,"214":-0.19678395986557007,"215":-0.12819968163967133,"216":-0.19539248943328857,"217":-0.0405815951526165,"218":0.030454084277153015,"219":0.1642499566078186,"220":0.1460597813129425,"221":-0.33052507042884827,"222":0.09020645171403885,"223":-0.10447593778371811,"224":0.030591459944844246,"225":0.4100753962993622,"226":0.08659601956605911,"227":-0.14704939723014832,"228":-0.05101046338677406,"229":0.2918393015861511,"230":-0.09471995383501053,"231":-0.04623977094888687,"232":0.2789389491081238,"233":-0.1079367846250534,"234":0.038932379335165024,"235":0.1149490475654602,"236":0.011685471050441265,"237":-0.12657859921455383,"238":-0.3995870053768158,"239":0.06272763013839722,"240":0.23952458798885345,"241":0.04774584248661995,"242":0.10956937074661255,"243":0.2108389139175415,"244":-0.1296548694372177,"245":0.003903549863025546,"246":0.07377112656831741,"247":-0.0836527943611145,"248":0.06760010123252869,"249":0.2960975468158722,"250":-0.05770588666200638,"251":-0.19842621684074402,"252":0.049893442541360855,"253":0.17471876740455627,"254":0.30396437644958496,"255":0.05023917928338051}},"3":{"bias":0.04662511125206947,"weights":{"0":0.22054710984230042,"1":0.14824482798576355,"2":0.0404670313000679,"3":-0.026859302073717117,"4":-0.13204367458820343,"5":-0.3929015100002289,"6":-0.07874945551156998,"7":-0.15817458927631378,"8":-0.22051891684532166,"9":-0.2638302147388458,"10":-0.28670817613601685,"11":0.03607343137264252,"12":0.027813514694571495,"13":0.025791190564632416,"14":0.001040116185322404,"15":0.07989925891160965,"16":0.09412746876478195,"17":0.14292673766613007,"18":-0.10304567962884903,"19":0.2144957333803177,"20":-0.042747654020786285,"21":-0.5615016222000122,"22":-0.061165712773799896,"23":-0.15183493494987488,"24":0.02140393666923046,"25":-0.1411646008491516,"26":-0.697880208492279,"27":0.003167561022564769,"28":-0.08850366622209549,"29":0.1155688613653183,"30":0.1386614441871643,"31":-0.18927758932113647,"32":-0.08800160884857178,"33":0.02368202805519104,"34":0.07725868374109268,"35":-0.1447509080171585,"36":-0.3991301953792572,"37":-0.1775493621826172,"38":-0.030526069924235344,"39":0.2875310480594635,"40":-0.039063941687345505,"41":-0.04938558489084244,"42":-0.1212330162525177,"43":-0.4258287847042084,"44":-0.11005908250808716,"45":0.02586386725306511,"46":-0.2518073320388794,"47":-0.12571606040000916,"48":0.035298824310302734,"49":-0.0693727359175682,"50":0.21148283779621124,"51":0.25120872259140015,"52":0.2544741928577423,"53":0.04220634326338768,"54":0.23603884875774384,"55":0.17789387702941895,"56":0.048212043941020966,"57":-0.018745940178632736,"58":-0.192486971616745,"59":-0.18418559432029724,"60":-0.1636362373828888,"61":-0.25102367997169495,"62":-0.343044251203537,"63":-0.31524786353111267,"64":-0.03521015867590904,"65":0.2743692100048065,"66":0.19155581295490265,"67":0.589673638343811,"68":0.3836027979850769,"69":0.08106933534145355,"70":-0.12234624475240707,"71":0.030768219381570816,"72":-0.2346808761358261,"73":-0.33902907371520996,"74":-0.16592013835906982,"75":-0.42803823947906494,"76":0.14358913898468018,"77":-0.5000000596046448,"78":-0.2613735496997833,"79":0.04249400272965431,"80":0.30602964758872986,"81":0.19824105501174927,"82":0.4310729503631592,"83":0.2977348864078522,"84":0.5327135920524597,"85":0.08776245266199112,"86":-0.12183994799852371,"87":-0.08014269173145294,"88":0.15108327567577362,"89":-0.002348054898902774,"90":-0.08056387305259705,"91":-0.05508381873369217,"92":-0.27560463547706604,"93":-0.141255721449852,"94":-0.45088210701942444,"95":-0.1445150077342987,"96":-0.009966854937374592,"97":0.5428459644317627,"98":0.15420518815517426,"99":0.37658724188804626,"100":-0.03610526770353317,"101":-0.08960922062397003,"102":-0.19746318459510803,"103":0.08732247352600098,"104":0.012119034305214882,"105":-0.1790418028831482,"106":-0.10331333428621292,"107":-0.23503878712654114,"108":-0.10473144799470901,"109":-0.01348188053816557,"110":-0.12930917739868164,"111":-0.14082391560077667,"112":-0.026132168248295784,"113":0.3185333013534546,"114":0.42550337314605713,"115":0.14069226384162903,"116":0.11602374911308289,"117":0.19254636764526367,"118":-0.2766256034374237,"119":-0.05432331934571266,"120":-0.23508428037166595,"121":-0.2510252892971039,"122":-0.11006013303995132,"123":0.048153385519981384,"124":0.10422395914793015,"125":0.13328945636749268,"126":-0.13964031636714935,"127":-0.3481554687023163,"128":0.07872357219457626,"129":0.15115441381931305,"130":-0.04165994003415108,"131":0.10677490383386612,"132":-0.21515892446041107,"133":-0.291999489068985,"134":-0.11167924851179123,"135":-0.3973010182380676,"136":-0.028611186891794205,"137":-0.08682774007320404,"138":-0.06388142704963684,"139":-0.12310639768838882,"140":-0.018978562206029892,"141":-0.15993528068065643,"142":-0.06525219976902008,"143":0.0966668576002121,"144":0.046800363808870316,"145":0.26154112815856934,"146":0.12669295072555542,"147":-0.253304660320282,"148":-0.23916266858577728,"149":-0.01932154968380928,"150":-0.21983180940151215,"151":-0.30793917179107666,"152":-0.3132191002368927,"153":-0.25910621881484985,"154":0.06119619682431221,"155":0.09654441475868225,"156":-0.16294188797473907,"157":-0.02359738200902939,"158":-0.04593981057405472,"159":0.3689103424549103,"160":0.1705930083990097,"161":0.33118778467178345,"162":0.09514079242944717,"163":-0.12020234763622284,"164":-0.08994844555854797,"165":0.2606833279132843,"166":0.021579165011644363,"167":-0.16517460346221924,"168":-0.18100090324878693,"169":-0.41853466629981995,"170":-0.1306249499320984,"171":0.14467373490333557,"172":0.10814978182315826,"173":0.16466684639453888,"174":0.014858382754027843,"175":0.2807461619377136,"176":0.25641947984695435,"177":0.23608848452568054,"178":0.3534124791622162,"179":0.12648437917232513,"180":-0.054605234414339066,"181":-0.012548642233014107,"182":-0.20731689035892487,"183":-0.32080018520355225,"184":-0.007042639888823032,"185":-0.34213903546333313,"186":-0.09133848547935486,"187":-0.2820040285587311,"188":0.1689746230840683,"189":0.03948001563549042,"190":0.3321291506290436,"191":0.33153602480888367,"192":0.25182369351387024,"193":0.40802985429763794,"194":0.16661877930164337,"195":0.031157569959759712,"196":0.009170268662273884,"197":0.039337173104286194,"198":0.10942769795656204,"199":0.2201005071401596,"200":-0.23832954466342926,"201":0.20352168381214142,"202":-0.06259981542825699,"203":-0.1708454191684723,"204":0.1263272911310196,"205":0.26789596676826477,"206":0.3898855149745941,"207":-0.137552872300148,"208":0.312106192111969,"209":0.06696459650993347,"210":0.39243945479393005,"211":-0.14816914498806,"212":-0.2571985721588135,"213":-0.3452107608318329,"214":0.18665744364261627,"215":0.03493348881602287,"216":0.10865243524312973,"217":0.07660650461912155,"218":-0.2733137011528015,"219":-0.06654581427574158,"220":0.2318171262741089,"221":0.9084810018539429,"222":0.17931735515594482,"223":-0.11928258836269379,"224":0.27348265051841736,"225":-0.10942962020635605,"226":0.2806767523288727,"227":0.07844652980566025,"228":-0.02397984080016613,"229":-0.27239990234375,"230":0.04034848511219025,"231":-0.20225805044174194,"232":-0.0717766061425209,"233":-0.04701858013868332,"234":-0.17365741729736328,"235":0.07833690941333771,"236":0.3282885253429413,"237":0.1654171496629715,"238":0.1489703506231308,"239":-0.04694843664765358,"240":0.06435190886259079,"241":0.1860215812921524,"242":0.035037387162446976,"243":-0.1807647943496704,"244":0.21042414009571075,"245":0.06158767268061638,"246":0.21201366186141968,"247":-0.25123944878578186,"248":0.1826099455356598,"249":-0.19079047441482544,"250":-0.3156178891658783,"251":-0.10737529397010803,"252":-0.2562226355075836,"253":0.0858665481209755,"254":0.2841241657733917,"255":0.010827874764800072}},"4":{"bias":0.27586957812309265,"weights":{"0":0.015583249740302563,"1":0.16944964230060577,"2":0.04684771969914436,"3":-0.3796231746673584,"4":-0.312049001455307,"5":-0.208811953663826,"6":-0.06391791254281998,"7":-0.11297164112329483,"8":-0.0049714273773133755,"9":-0.127419576048851,"10":0.5539827942848206,"11":0.5091695785522461,"12":0.1675044298171997,"13":0.3087950646877289,"14":0.1653374582529068,"15":0.2547023296356201,"16":0.07844382524490356,"17":0.13656030595302582,"18":0.03789077699184418,"19":-0.23297442495822906,"20":-0.3187946677207947,"21":0.18884693086147308,"22":-0.1667734682559967,"23":-0.051873259246349335,"24":-0.1677219271659851,"25":0.06017221137881279,"26":0.26716935634613037,"27":-0.026022853329777718,"28":-0.0025405935011804104,"29":0.06218276545405388,"30":0.18960416316986084,"31":0.19553571939468384,"32":0.26220861077308655,"33":-0.21550960838794708,"34":0.07616061717271805,"35":0.07459978014230728,"36":0.24508823454380035,"37":-0.14494453370571136,"38":-0.3647545874118805,"39":-0.1307331770658493,"40":-0.14124833047389984,"41":-0.2730543613433838,"42":0.1190994381904602,"43":0.3498384952545166,"44":0.062499988824129105,"45":0.15542475879192352,"46":0.04780183359980583,"47":0.3005082607269287,"48":-0.18537430465221405,"49":-0.23016303777694702,"50":-0.1667051911354065,"51":-0.0016797450371086597,"52":-0.1979600191116333,"53":-0.13558031618595123,"54":0.06499986350536346,"55":0.09725877642631531,"56":0.16557684540748596,"57":0.07566048949956894,"58":-0.44453880190849304,"59":-0.23687927424907684,"60":-0.00028807728085666895,"61":0.12549827992916107,"62":0.02421259880065918,"63":0.1255754828453064,"64":0.15889644622802734,"65":-0.25959160923957825,"66":-0.22646206617355347,"67":-0.4940142333507538,"68":-0.2539713680744171,"69":-0.20157210528850555,"70":0.13291974365711212,"71":0.21936513483524323,"72":0.027887362986803055,"73":-0.05611351877450943,"74":0.07175502926111221,"75":-0.36746764183044434,"76":-0.282633513212204,"77":0.027652673423290253,"78":-0.09080895036458969,"79":-0.201683908700943,"80":-0.1267353594303131,"81":0.10761325061321259,"82":-0.45682618021965027,"83":-0.22333945333957672,"84":-0.36973273754119873,"85":-0.032450757920742035,"86":0.1083926409482956,"87":-0.0402972437441349,"88":0.3347168564796448,"89":0.39071348309516907,"90":-0.21971960365772247,"91":-0.22819074988365173,"92":-0.5547695159912109,"93":-0.38875246047973633,"94":0.13864868879318237,"95":-0.3756762742996216,"96":0.13604514300823212,"97":-0.23122580349445343,"98":-0.11456853151321411,"99":-0.06191062554717064,"100":-0.14181524515151978,"101":-0.08543999493122101,"102":0.06570103019475937,"103":0.11527294665575027,"104":0.26840534806251526,"105":0.10638970881700516,"106":0.14743249118328094,"107":-0.020462868735194206,"108":0.2372845858335495,"109":-0.22108298540115356,"110":-0.2782078683376312,"111":-0.2731093466281891,"112":0.32612332701683044,"113":-0.17741426825523376,"114":0.004297778941690922,"115":0.19831398129463196,"116":0.06801267713308334,"117":-0.2831414043903351,"118":0.1585884839296341,"119":-0.0032826829701662064,"120":0.03831332176923752,"121":-0.001838094787672162,"122":-0.07388413697481155,"123":-0.16483595967292786,"124":0.1150454729795456,"125":0.08456505835056305,"126":-0.2841182053089142,"127":0.159037247300148,"128":0.04189972206950188,"129":-0.263081431388855,"130":-0.002967161824926734,"131":-0.11861427128314972,"132":-0.34149137139320374,"133":-0.4322534203529358,"134":-0.030627943575382233,"135":-0.39445996284484863,"136":-0.08831916004419327,"137":0.1638467013835907,"138":-0.082926444709301,"139":0.034171778708696365,"140":0.35436806082725525,"141":0.3230431079864502,"142":0.22121241688728333,"143":-0.0051607838831841946,"144":0.19010376930236816,"145":0.26413342356681824,"146":-0.042439863085746765,"147":-0.047365568578243256,"148":-0.15300260484218597,"149":-0.6900044083595276,"150":-0.20789016783237457,"151":-0.2492205947637558,"152":-0.09774068742990494,"153":-0.046057190746068954,"154":-0.19351331889629364,"155":0.03177503123879433,"156":0.4628049433231354,"157":0.18053872883319855,"158":0.3837519884109497,"159":-0.09866807609796524,"160":0.23631557822227478,"161":0.10456439107656479,"162":-0.16395318508148193,"163":-0.3285196125507355,"164":-0.33352071046829224,"165":-0.19060933589935303,"166":-0.09428296983242035,"167":-0.26714780926704407,"168":0.05444273352622986,"169":0.03868910297751427,"170":0.14947783946990967,"171":-0.21310971677303314,"172":0.33570194244384766,"173":0.5671141743659973,"174":0.5665549635887146,"175":0.5595995783805847,"176":-0.18328766524791718,"177":0.062478549778461456,"178":-0.017367830500006676,"179":-0.3175203502178192,"180":-0.18425270915031433,"181":-0.11376198381185532,"182":0.1309065967798233,"183":-0.1066078171133995,"184":0.30571046471595764,"185":0.0924963727593422,"186":0.2740413248538971,"187":0.23963569104671478,"188":0.3574545979499817,"189":0.3900015354156494,"190":0.18951795995235443,"191":0.3771808445453644,"192":-0.16587845981121063,"193":-0.37480854988098145,"194":-0.06925449520349503,"195":-0.15992119908332825,"196":-0.32378095388412476,"197":-0.42803823947906494,"198":-0.4792129397392273,"199":-0.08988144248723984,"200":0.1486394703388214,"201":-0.30920106172561646,"202":-0.1243269219994545,"203":-0.12208618968725204,"204":0.1320865899324417,"205":0.12403441220521927,"206":0.05219584330916405,"207":0.3045540750026703,"208":-0.007516085635870695,"209":-0.02841813862323761,"210":-0.3251759707927704,"211":0.2331131100654602,"212":0.037253014743328094,"213":-0.1278413087129593,"214":-0.2596185803413391,"215":-0.01066972129046917,"216":-0.19126485288143158,"217":-0.20442910492420197,"218":-0.05765186622738838,"219":0.07520055025815964,"220":-0.15225201845169067,"221":-0.20602326095104218,"222":-0.1464473009109497,"223":0.197282075881958,"224":0.18437960743904114,"225":-0.08599440008401871,"226":-0.036118779331445694,"227":-0.23680754005908966,"228":-0.02381204068660736,"229":-0.21911515295505524,"230":-0.4591147303581238,"231":-0.3365960121154785,"232":-0.0007652559434063733,"233":-0.1519063264131546,"234":-0.08550778776407242,"235":0.22513166069984436,"236":0.03990570828318596,"237":0.10932828485965729,"238":-0.05432494729757309,"239":-0.20073920488357544,"240":0.16127640008926392,"241":0.2525097131729126,"242":-0.23777341842651367,"243":-0.008756781928241253,"244":-0.11020050197839737,"245":-0.040093183517456055,"246":-0.2282796949148178,"247":-0.20498599112033844,"248":-0.3152582049369812,"249":-0.23482464253902435,"250":0.242462158203125,"251":0.0452364906668663,"252":0.17016316950321198,"253":0.06899681687355042,"254":0.19673694670200348,"255":0.006856127176433802}},"5":{"bias":-0.01567016914486885,"weights":{"0":0.12315434217453003,"1":0.33007338643074036,"2":0.4695141017436981,"3":0.03405340015888214,"4":0.1918514370918274,"5":-0.05192415788769722,"6":0.08695016801357269,"7":-0.30961155891418457,"8":-0.2870230972766876,"9":-0.07988745719194412,"10":-0.15916995704174042,"11":-0.11871863156557083,"12":-0.16780203580856323,"13":0.1365983635187149,"14":0.10142850875854492,"15":-0.06442365050315857,"16":0.045927416533231735,"17":0.21611401438713074,"18":0.12764672935009003,"19":0.36535799503326416,"20":0.34026721119880676,"21":0.12962990999221802,"22":-0.05768556520342827,"23":-0.21788017451763153,"24":-0.04985900595784187,"25":-0.17154712975025177,"26":0.28509584069252014,"27":0.1941269338130951,"28":0.11872081458568573,"29":0.18919815123081207,"30":-0.017449455335736275,"31":0.1396283209323883,"32":-0.226192906498909,"33":0.03072221390902996,"34":0.4392012059688568,"35":0.25,"36":0.23490570485591888,"37":0.024582820013165474,"38":-0.033508602529764175,"39":0.06921050697565079,"40":-0.15741077065467834,"41":-0.2964363098144531,"42":-0.3044421076774597,"43":-0.05793211981654167,"44":0.07712718099355698,"45":0.11076868325471878,"46":0.01598953641951084,"47":-0.332209974527359,"48":0.19338862597942352,"49":0.4624091386795044,"50":0.2862442135810852,"51":0.3166366517543793,"52":-0.011843998916447163,"53":0.06942800432443619,"54":-0.22367605566978455,"55":0.2557862102985382,"56":0.27618786692619324,"57":-0.1111038327217102,"58":-0.08968524634838104,"59":-0.15890507400035858,"60":-0.06863930821418762,"61":-0.06303813308477402,"62":-0.04918602481484413,"63":-0.03695521876215935,"64":0.2862587869167328,"65":0.44168081879615784,"66":0.5147619247436523,"67":0.1917048990726471,"68":-0.01284428033977747,"69":-0.09641336649656296,"70":0.2025471180677414,"71":-0.05479568988084793,"72":-0.18064145743846893,"73":0.018339352682232857,"74":-0.21033985912799835,"75":-0.4692195653915405,"76":-0.12075082212686539,"77":-0.0031303486321121454,"78":-0.13221706449985504,"79":0.062040381133556366,"80":0.38707464933395386,"81":0.4286099672317505,"82":0.4219466745853424,"83":0.2743970453739166,"84":0.14459435641765594,"85":0.11713507026433945,"86":-0.17855584621429443,"87":-0.12272268533706665,"88":-0.14177748560905457,"89":-0.18885394930839539,"90":-0.2551330327987671,"91":-0.14061330258846283,"92":-0.1302957683801651,"93":-0.1689968705177307,"94":-0.33863961696624756,"95":0.1789385974407196,"96":0.7966448664665222,"97":0.42250946164131165,"98":0.402640700340271,"99":0.07938151061534882,"100":0.21975798904895782,"101":0.09373418986797333,"102":-0.05910494178533554,"103":-0.22200489044189453,"104":0.03463560715317726,"105":-0.3047598600387573,"106":0.14696386456489563,"107":-0.10421392321586609,"108":-0.08118557929992676,"109":-0.07572674006223679,"110":-0.15730150043964386,"111":0.158136785030365,"112":0.5984543561935425,"113":0.38965117931365967,"114":0.23704633116722107,"115":0.2390812486410141,"116":-0.01753932610154152,"117":0.11703717708587646,"118":0.11648812890052795,"119":-0.14968453347682953,"120":0.08527655154466629,"121":-0.3062015771865845,"122":-0.12062283605337143,"123":-0.20770388841629028,"124":-0.08193930983543396,"125":0.09769225865602493,"126":0.10255473852157593,"127":-0.08973801881074905,"128":-0.0036004355642944574,"129":-0.1753963679075241,"130":0.23567058145999908,"131":0.25881227850914,"132":-0.12375027686357498,"133":0.09725373238325119,"134":-0.22813023626804352,"135":-0.2521696090698242,"136":-0.07163286209106445,"137":-0.08294584602117538,"138":-0.1519627571105957,"139":-0.31282472610473633,"140":0.023656021803617477,"141":0.10678194463253021,"142":-0.021074781194329262,"143":0.13103701174259186,"144":0.27602607011795044,"145":0.02673087641596794,"146":0.18828900158405304,"147":-0.10953943431377411,"148":0.03088187985122204,"149":0.044093057513237,"150":-0.34744003415107727,"151":-0.14262360334396362,"152":-0.3530099093914032,"153":-0.40740254521369934,"154":-0.04416736215353012,"155":-0.002259335480630398,"156":-0.11226411908864975,"157":-0.10732453316450119,"158":-0.06224297732114792,"159":0.014877980574965477,"160":0.08754456043243408,"161":-0.23527197539806366,"162":-0.42323675751686096,"163":0.13818347454071045,"164":-0.1989036649465561,"165":0.010617177002131939,"166":-0.09133616089820862,"167":-0.03555689752101898,"168":0.007049317937344313,"169":-0.2863205373287201,"170":0.012535875663161278,"171":0.06638127565383911,"172":0.26820430159568787,"173":-0.00007742747402517125,"174":-0.16896314918994904,"175":-0.29395589232444763,"176":-0.4066212773323059,"177":0.018855707719922066,"178":-0.17559844255447388,"179":-0.14189839363098145,"180":-0.28609293699264526,"181":0.10188659280538559,"182":0.05977082997560501,"183":-0.011973506771028042,"184":-0.04243960231542587,"185":0.18283194303512573,"186":0.07044336944818497,"187":-0.08049377799034119,"188":-0.16977034509181976,"189":-0.14187243580818176,"190":-0.025423960760235786,"191":-0.12439708411693573,"192":0.007078629452735186,"193":0.14304952323436737,"194":-0.02620321698486805,"195":-0.241474449634552,"196":-0.15172609686851501,"197":-0.021572403609752655,"198":-0.07515347003936768,"199":-0.02896334044635296,"200":0.15098461508750916,"201":-0.30602163076400757,"202":-0.11902422457933426,"203":-0.04865586757659912,"204":0.10397783666849136,"205":0.06137344241142273,"206":0.16618533432483673,"207":-0.37348031997680664,"208":-0.1797802746295929,"209":-0.004201830830425024,"210":0.11117613315582275,"211":-0.05375831946730614,"212":-0.06077418848872185,"213":-0.1812710464000702,"214":-0.18535910546779633,"215":-0.13460524380207062,"216":-0.03347637504339218,"217":-0.029702220112085342,"218":0.1995363086462021,"219":-0.11182500422000885,"220":0.10570593923330307,"221":-0.0061910729855299,"222":-0.08464333415031433,"223":-0.04015741124749184,"224":-0.054376546293497086,"225":-0.11720185726881027,"226":-0.04554804787039757,"227":-0.028511492535471916,"228":0.07502692937850952,"229":-0.027743980288505554,"230":0.07662531733512878,"231":-0.020300323143601418,"232":-0.061592865735292435,"233":-0.03429105877876282,"234":-0.07438712567090988,"235":0.05393888056278229,"236":-0.07036644965410233,"237":-0.04372941702604294,"238":-0.22759337723255157,"239":-0.169257253408432,"240":0.1478564292192459,"241":-0.23005220293998718,"242":-0.537386953830719,"243":-0.2567910850048065,"244":-0.22719433903694153,"245":-0.016135938465595245,"246":0.03476966544985771,"247":0.018076028674840927,"248":0.00991533137857914,"249":0.18310007452964783,"250":-0.1296292543411255,"251":0.03392452374100685,"252":-0.23951426148414612,"253":-0.11073917895555496,"254":0.043512988835573196,"255":0.026852993294596672}},"6":{"bias":0.14549767971038818,"weights":{"0":-0.02821650542318821,"1":-0.2671063244342804,"2":-0.3052579462528229,"3":0.037792932242155075,"4":-0.12674757838249207,"5":-0.04427296295762062,"6":0.252697229385376,"7":0.12849071621894836,"8":-0.04673841968178749,"9":0.2506590187549591,"10":-0.1120358482003212,"11":-0.17219358682632446,"12":-0.05996502563357353,"13":0.08557888120412827,"14":-0.01702187769114971,"15":0.211007222533226,"16":-0.2075410932302475,"17":-0.22151488065719604,"18":-0.389901727437973,"19":-0.3574499487876892,"20":-0.2107844054698944,"21":-0.017706075683236122,"22":0.2775266170501709,"23":0.07550717890262604,"24":0.1667403131723404,"25":0.162554532289505,"26":-0.2090095430612564,"27":-0.0014347764663398266,"28":-0.16596297919750214,"29":-0.32123568654060364,"30":0.1411033570766449,"31":0.0671534389257431,"32":0.15306000411510468,"33":-0.3173089027404785,"34":-0.08570767939090729,"35":-0.14779843389987946,"36":-0.013400530442595482,"37":0.202560693025589,"38":-0.06525705009698868,"39":0.07150746881961823,"40":-0.09221292287111282,"41":-0.1902247965335846,"42":-0.04418431222438812,"43":-0.17402681708335876,"44":-0.3987247049808502,"45":-0.18254491686820984,"46":-0.2826950252056122,"47":0.11038284003734589,"48":-0.12770023941993713,"49":-0.3487050533294678,"50":-0.1532619148492813,"51":0.02250729501247406,"52":0.3285735249519348,"53":0.31787681579589844,"54":-0.04967164993286133,"55":0.19451762735843658,"56":-0.29839086532592773,"57":-0.10752319544553757,"58":-0.1504414677619934,"59":-0.01683315820991993,"60":-0.3063603937625885,"61":-0.37738853693008423,"62":-0.09313125908374786,"63":0.11931610852479935,"64":-0.3062659502029419,"65":-0.3498222529888153,"66":-0.05811825022101402,"67":-0.06320279091596603,"68":0.21463163197040558,"69":0.041656121611595154,"70":0.05415912717580795,"71":0.12557515501976013,"72":0.269537091255188,"73":-0.042010195553302765,"74":-0.19298386573791504,"75":-0.15984772145748138,"76":-0.2694409489631653,"77":-0.3355831205844879,"78":0.00764918839558959,"79":0.11307242512702942,"80":-0.5453757643699646,"81":-0.248175710439682,"82":-0.18160907924175262,"83":-0.16159985959529877,"84":-0.16818590462207794,"85":-0.3199625611305237,"86":0.031993888318538666,"87":-0.14060115814208984,"88":-0.03537470102310181,"89":0.11076486855745316,"90":-0.12108827382326126,"91":-0.08130577951669693,"92":-0.20054492354393005,"93":-0.20662610232830048,"94":0.13613863289356232,"95":0.18835681676864624,"96":-0.33059176802635193,"97":-0.06393037736415863,"98":-0.09660547971725464,"99":-0.3587838411331177,"100":-0.041124116629362106,"101":-0.36635851860046387,"102":-0.2968595027923584,"103":-0.14336344599723816,"104":0.23001043498516083,"105":0.14829617738723755,"106":0.0957353338599205,"107":-0.023669829592108727,"108":0.08127906173467636,"109":0.0036407001316547394,"110":0.18265065550804138,"111":0.002333031501621008,"112":-0.34840601682662964,"113":-0.20877894759178162,"114":-0.13169947266578674,"115":-0.0711473897099495,"116":-0.12111696600914001,"117":-0.42457741498947144,"118":-0.14566068351268768,"119":0.14074455201625824,"120":0.056961167603731155,"121":0.22836874425411224,"122":-0.10263656824827194,"123":-0.09708935022354126,"124":0.05198316648602486,"125":0.14342109858989716,"126":0.04654676094651222,"127":-0.07570303976535797,"128":0.2517620623111725,"129":-0.06094763055443764,"130":-0.22075609862804413,"131":-0.05882847681641579,"132":0.1271502524614334,"133":-0.3255910873413086,"134":0.0161258764564991,"135":0.0006507858051918447,"136":0.06617046892642975,"137":-0.043898437172174454,"138":0.15019886195659637,"139":-0.00937741156667471,"140":0.00005771188807557337,"141":-0.12198781222105026,"142":-0.19081056118011475,"143":0.22748708724975586,"144":0.03372645750641823,"145":-0.000685577280819416,"146":-0.05820872634649277,"147":-0.002805508906021714,"148":0.17418353259563446,"149":0.08879276365041733,"150":0.3988308310508728,"151":0.050528205931186676,"152":-0.23197336494922638,"153":-0.12046255171298981,"154":-0.15716856718063354,"155":-0.014696584083139896,"156":-0.10996560007333755,"157":-0.19433504343032837,"158":-0.21926645934581757,"159":0.1006862223148346,"160":0.1755853146314621,"161":0.28602200746536255,"162":0.22335600852966309,"163":-0.04806311056017876,"164":0.42293599247932434,"165":0.12825927138328552,"166":0.2358875870704651,"167":0.3547196686267853,"168":0.14503546059131622,"169":0.17472602427005768,"170":-0.41202062368392944,"171":-0.04502995312213898,"172":-0.36777788400650024,"173":0.016184650361537933,"174":-0.15506169199943542,"175":0.15802711248397827,"176":-0.06694275885820389,"177":0.27631887793540955,"178":0.09753651171922684,"179":0.2518560588359833,"180":0.3214276134967804,"181":0.2629528343677521,"182":0.29444846510887146,"183":0.23892094194889069,"184":0.3698619306087494,"185":-0.07247108966112137,"186":-0.13068754971027374,"187":-0.1370556503534317,"188":-0.2221100926399231,"189":0.03609563037753105,"190":0.1484690010547638,"191":0.03179921954870224,"192":0.03788699209690094,"193":0.34606948494911194,"194":-0.08070767670869827,"195":0.07779761403799057,"196":-0.06611107289791107,"197":0.08097898960113525,"198":0.004703963175415993,"199":-0.10313745588064194,"200":-0.34133458137512207,"201":-0.03295200690627098,"202":-0.46212172508239746,"203":-0.2976701259613037,"204":0.12069207429885864,"205":0.10044319182634354,"206":0.018785011023283005,"207":-0.05202425271272659,"208":-0.14440596103668213,"209":0.12851330637931824,"210":0.20606321096420288,"211":0.24539753794670105,"212":0.3042278587818146,"213":0.08252085000276566,"214":0.2810889482498169,"215":0.21782246232032776,"216":-0.1806279718875885,"217":-0.08970095962285995,"218":-0.0917520523071289,"219":-0.06250081956386566,"220":0.15004979074001312,"221":0.2736665904521942,"222":0.10053170472383499,"223":0.1819692701101303,"224":-0.009034422226250172,"225":0.09424984455108643,"226":0.2815156877040863,"227":0.4991491138935089,"228":0.3399283289909363,"229":0.04738524183630943,"230":0.334882915019989,"231":0.02118152752518654,"232":0.3278687000274658,"233":-0.036045655608177185,"234":-0.22909575700759888,"235":-0.3589814603328705,"236":-0.13539814949035645,"237":0.3689870238304138,"238":-0.005092174746096134,"239":0.399613618850708,"240":0.08360068500041962,"241":0.11745806038379669,"242":0.33531785011291504,"243":0.4243931770324707,"244":0.23500511050224304,"245":0.240136981010437,"246":0.3943715989589691,"247":0.042372070252895355,"248":0.016314368695020676,"249":0.17825660109519958,"250":0.017622776329517365,"251":-0.04602896422147751,"252":-0.05197964236140251,"253":0.20606489479541779,"254":0.2783662676811218,"255":0.1560061126947403}},"7":{"bias":0.025331171229481697,"weights":{"0":-0.13165272772312164,"1":-0.10921147465705872,"2":-0.11249794065952301,"3":-0.18222032487392426,"4":-0.23678690195083618,"5":-0.3382333815097809,"6":0.13773781061172485,"7":-0.1874016970396042,"8":-0.17297782003879547,"9":-0.0076313926838338375,"10":-0.1683669537305832,"11":0.05414967983961105,"12":0.2881200313568115,"13":0.17492006719112396,"14":0.02456352673470974,"15":0.03844454512000084,"16":-0.21265165507793427,"17":-0.06348107755184174,"18":-0.2673332393169403,"19":-0.4183487296104431,"20":-0.2745872139930725,"21":-0.1838601529598236,"22":-0.06728525459766388,"23":0.05627834424376488,"24":-0.11957542598247528,"25":0.08338077366352081,"26":-0.176319420337677,"27":-0.05307361111044884,"28":-0.2728571891784668,"29":-0.29687565565109253,"30":0.3118021786212921,"31":0.21292449533939362,"32":-0.13232417404651642,"33":-0.22885766625404358,"34":-0.08407048881053925,"35":-0.379431813955307,"36":-0.39272862672805786,"37":-0.0005016557406634092,"38":-0.05379052460193634,"39":0.12420166283845901,"40":-0.06482752412557602,"41":-0.13441267609596252,"42":-0.06007866561412811,"43":0.02245349995791912,"44":0.0529496930539608,"45":-0.09543639421463013,"46":-0.14929978549480438,"47":0.24242421984672546,"48":-0.04275934398174286,"49":-0.14716629683971405,"50":-0.3630043566226959,"51":-0.23404686152935028,"52":0.017505940049886703,"53":-0.15820640325546265,"54":0.2241000533103943,"55":0.10228478908538818,"56":-0.007108818739652634,"57":-0.04752475023269653,"58":-0.15175014734268188,"59":-0.15122836828231812,"60":-0.21636205911636353,"61":-0.20390434563159943,"62":0.007369906175881624,"63":-0.04266209900379181,"64":-0.09395480155944824,"65":-0.16801613569259644,"66":-0.4027562439441681,"67":0.04624402895569801,"68":0.15540555119514465,"69":0.07792049646377563,"70":0.0844859704375267,"71":0.23703151941299438,"72":0.34766778349876404,"73":0.062078867107629776,"74":0.10560189187526703,"75":-0.16631686687469482,"76":0.03566153720021248,"77":-0.137126624584198,"78":0.10049406439065933,"79":0.007841326296329498,"80":-0.024483149871230125,"81":-0.20705345273017883,"82":-0.014709693379700184,"83":-0.1951083540916443,"84":-0.19842831790447235,"85":-0.07576458156108856,"86":-0.20295800268650055,"87":0.18166354298591614,"88":0.23895853757858276,"89":0.2302749752998352,"90":0.12508758902549744,"91":-0.22313188016414642,"92":-0.13596968352794647,"93":-0.0433795228600502,"94":0.13070310652256012,"95":0.039884477853775024,"96":-0.05306125804781914,"97":-0.3210937976837158,"98":-0.13087792694568634,"99":-0.03422318398952484,"100":-0.19015416502952576,"101":-0.1981104165315628,"102":-0.12836554646492004,"103":0.04635913297533989,"104":-0.029875658452510834,"105":-0.09452812373638153,"106":0.04510834813117981,"107":0.0447072871029377,"108":-0.05615612864494324,"109":0.1971086859703064,"110":-0.1457040011882782,"111":0.25859349966049194,"112":-0.04883819818496704,"113":-0.03017936460673809,"114":0.07959167659282684,"115":0.06426601111888885,"116":0.15137167274951935,"117":-0.0024895421229302883,"118":-0.04254232347011566,"119":-0.33231982588768005,"120":-0.1497245728969574,"121":-0.14825654029846191,"122":-0.14893940091133118,"123":0.03890528902411461,"124":0.13477322459220886,"125":0.057805806398391724,"126":0.19999682903289795,"127":0.18850763142108917,"128":0.357198566198349,"129":0.20342668890953064,"130":0.0988498404622078,"131":0.2557356655597687,"132":0.0026633432134985924,"133":-0.1504061371088028,"134":-0.2066107541322708,"135":-0.27896079421043396,"136":-0.4278084337711334,"137":-0.16803720593452454,"138":-0.17509710788726807,"139":0.1544775664806366,"140":0.09172601997852325,"141":-0.017521480098366737,"142":0.020615248009562492,"143":0.3036300241947174,"144":0.07078494131565094,"145":0.5702497959136963,"146":0.19982798397541046,"147":-0.04004153981804848,"148":-0.041071243584156036,"149":0.04663191735744476,"150":-0.23663540184497833,"151":-0.38653579354286194,"152":-0.39472341537475586,"153":-0.34526190161705017,"154":-0.32559511065483093,"155":-0.2791507840156555,"156":0.03450280427932739,"157":-0.02173326350748539,"158":-0.021243540570139885,"159":0.24389895796775818,"160":0.27855196595191956,"161":0.5200246572494507,"162":0.22301939129829407,"163":-0.17612463235855103,"164":0.18856577575206757,"165":0.20163865387439728,"166":-0.0009999786270782351,"167":0.2865932583808899,"168":0.01335235871374607,"169":0.06718441098928452,"170":-0.2647130787372589,"171":0.11156507581472397,"172":0.2707577347755432,"173":0.24163997173309326,"174":0.3414921760559082,"175":0.3225245177745819,"176":0.2893140912055969,"177":0.3077622652053833,"178":-0.07703635096549988,"179":0.3475181758403778,"180":0.49237462878227234,"181":0.4416024684906006,"182":0.22750820219516754,"183":0.03263624757528305,"184":0.09433171153068542,"185":0.30826249718666077,"186":0.18428665399551392,"187":0.07777055352926254,"188":0.18631324172019958,"189":0.14994041621685028,"190":0.04331338778138161,"191":0.43095123767852783,"192":-0.18938302993774414,"193":-0.04363406449556351,"194":-0.20897425711154938,"195":0.002231179503723979,"196":0.08772366493940353,"197":-0.2247026115655899,"198":-0.24866507947444916,"199":0.023091362789273262,"200":0.07771442830562592,"201":-0.1291808933019638,"202":-0.3183586597442627,"203":0.10481076687574387,"204":-0.05134347826242447,"205":-0.22848165035247803,"206":-0.0031280475668609142,"207":-0.050031471997499466,"208":-0.3173007369041443,"209":-0.32701775431632996,"210":-0.29504531621932983,"211":-0.23313048481941223,"212":-0.08795874565839767,"213":-0.2704384922981262,"214":0.27092981338500977,"215":0.20033597946166992,"216":-0.13817289471626282,"217":-0.09074778854846954,"218":-0.45191434025764465,"219":-0.34394919872283936,"220":-0.17420847713947296,"221":-0.011523607186973095,"222":-0.10418504476547241,"223":-0.06479591876268387,"224":-0.3255489766597748,"225":-0.5169085264205933,"226":-0.30587536096572876,"227":-0.4276916980743408,"228":-0.2795107066631317,"229":-0.24288888275623322,"230":0.03626550734043121,"231":-0.07260996103286743,"232":-0.07991127669811249,"233":-0.3639920949935913,"234":-0.6371878981590271,"235":-0.5237239003181458,"236":-0.3178583085536957,"237":0.15070290863513947,"238":-0.18514542281627655,"239":-0.33609986305236816,"240":0.20164819061756134,"241":-0.09695088118314743,"242":-0.13210871815681458,"243":-0.24999994039535522,"244":-0.09145499765872955,"245":-0.2085927128791809,"246":-0.11918729543685913,"247":0.12108474224805832,"248":0.10127131640911102,"249":0.06905908137559891,"250":-0.15893970429897308,"251":-0.04701961576938629,"252":0.01900254562497139,"253":0.07459352910518646,"254":0.07198581844568253,"255":0.2359178364276886}},"8":{"bias":-0.15358617901802063,"weights":{"0":-0.0056378464214503765,"1":-0.364980548620224,"2":0.130951926112175,"3":0.3954024612903595,"4":0.20705072581768036,"5":-0.07709792256355286,"6":-0.03976971656084061,"7":-0.3211943209171295,"8":-0.15159888565540314,"9":-0.30032822489738464,"10":-0.2512950897216797,"11":-0.15793420374393463,"12":-0.16008813679218292,"13":-0.2643536925315857,"14":-0.046572260558605194,"15":-0.3845691680908203,"16":-0.44472649693489075,"17":-0.23285935819149017,"18":0.2380618453025818,"19":0.0598796047270298,"20":0.3226812183856964,"21":-0.6868751645088196,"22":-0.18132071197032928,"23":-0.036281853914260864,"24":-0.012658342719078064,"25":0.06350864470005035,"26":-0.6638929843902588,"27":0.20472081005573273,"28":-0.025628918781876564,"29":-0.24808385968208313,"30":0.10466955602169037,"31":-0.4388728439807892,"32":-0.08047357201576233,"33":0.29279500246047974,"34":0.32327625155448914,"35":0.3411903977394104,"36":-0.25252777338027954,"37":-0.21192574501037598,"38":-0.10880192369222641,"39":0.10380151122808456,"40":0.28870993852615356,"41":0.06555520743131638,"42":0.15338841080665588,"43":-0.3167778253555298,"44":-0.1798950731754303,"45":0.10114613175392151,"46":-0.1636507511138916,"47":-0.35220369696617126,"48":0.10403437912464142,"49":0.2961260676383972,"50":0.007042178884148598,"51":0.15554073452949524,"52":0.2261366993188858,"53":-0.033401258289813995,"54":0.047196388244628906,"55":0.17150920629501343,"56":-0.0016875055152922869,"57":0.11902208626270294,"58":0.4599233865737915,"59":0.37301039695739746,"60":0.06142482906579971,"61":-0.21086743474006653,"62":-0.001289455103687942,"63":-0.01369543094187975,"64":-0.06584354490041733,"65":0.09867201745510101,"66":0.5563198924064636,"67":1.0920016765594482,"68":0.4251871705055237,"69":0.3208698332309723,"70":-0.02194487862288952,"71":-0.11323880404233932,"72":-0.18022648990154266,"73":0.12611734867095947,"74":0.22370485961437225,"75":0.2772344648838043,"76":0.44266173243522644,"77":-0.14514349400997162,"78":-0.1250000149011612,"79":-0.03630237281322479,"80":0.0508563332259655,"81":0.06466499716043472,"82":0.5001733303070068,"83":0.12079066038131714,"84":0.5814813375473022,"85":0.14619854092597961,"86":0.26385143399238586,"87":0.24433155357837677,"88":0.1216902807354927,"89":-0.26246488094329834,"90":-0.11718452721834183,"91":0.40045133233070374,"92":0.23450952768325806,"93":0.17037226259708405,"94":-0.13128167390823364,"95":0.2107190489768982,"96":0.0055954051204025745,"97":0.4240107238292694,"98":-0.08847172558307648,"99":0.1614760011434555,"100":0.1593737006187439,"101":0.29652267694473267,"102":-0.07197944074869156,"103":-0.07437515258789062,"104":-0.26070618629455566,"105":0.06820504367351532,"106":0.11004989594221115,"107":-0.24215207993984222,"108":-0.38339561223983765,"109":-0.15221227705478668,"110":0.1811317503452301,"111":-0.04451485723257065,"112":-0.28902676701545715,"113":0.14102669060230255,"114":-0.04904647171497345,"115":-0.15484388172626495,"116":0.09704134613275528,"117":0.23944512009620667,"118":0.015419041737914085,"119":-0.08561046421527863,"120":-0.1137174442410469,"121":-0.31480175256729126,"122":-0.28027021884918213,"123":-0.05182845517992973,"124":-0.16776150465011597,"125":-0.3313056528568268,"126":0.07241391390562057,"127":-0.12520527839660645,"128":0.1442074477672577,"129":0.06504407525062561,"130":-0.08688952773809433,"131":-0.02187645249068737,"132":0.27178627252578735,"133":0.4364365339279175,"134":-0.022779099643230438,"135":0.2493969351053238,"136":0.11361747235059738,"137":-0.1615951508283615,"138":0.11752341687679291,"139":-0.04409639909863472,"140":-0.28229087591171265,"141":-0.05705792456865311,"142":-0.1686490923166275,"143":-0.15553875267505646,"144":-0.01553903054445982,"145":-0.024465974420309067,"146":0.03541272133588791,"147":0.0318329818546772,"148":0.16279533505439758,"149":0.3756943345069885,"150":0.12789534032344818,"151":0.28906723856925964,"152":0.2072232961654663,"153":0.06446187943220139,"154":0.16565367579460144,"155":-0.03191438689827919,"156":-0.1340734362602234,"157":-0.5098656415939331,"158":-0.13149158656597137,"159":0.2596684694290161,"160":-0.2544395625591278,"161":-0.006624272558838129,"162":-0.15509548783302307,"163":0.12784826755523682,"164":0.26989230513572693,"165":0.09444171190261841,"166":0.009024431928992271,"167":-0.13637594878673553,"168":-0.109896719455719,"169":-0.0445329025387764,"170":0.1384436935186386,"171":0.3007890284061432,"172":-0.12292571365833282,"173":-0.5736427903175354,"174":-0.5550981163978577,"175":-0.24876545369625092,"176":0.4405894875526428,"177":0.11396332830190659,"178":-0.06815740466117859,"179":0.19995667040348053,"180":0.27642449736595154,"181":0.226154625415802,"182":-0.22924089431762695,"183":-0.3206365406513214,"184":-0.13359101116657257,"185":-0.034666746854782104,"186":-0.1538459211587906,"187":0.08897272497415543,"188":-0.174595907330513,"189":-0.28414952754974365,"190":-0.5366230010986328,"191":-0.06909497082233429,"192":0.13754798471927643,"193":0.10661348700523376,"194":-0.13145102560520172,"195":-0.05211275815963745,"196":0.1589110642671585,"197":0.03104345127940178,"198":0.499813973903656,"199":0.009237518534064293,"200":0.03942297026515007,"201":0.3101601004600525,"202":0.161680668592453,"203":0.0004798377340193838,"204":0.24875541031360626,"205":-0.07297336310148239,"206":-0.012465288862586021,"207":-0.34927621483802795,"208":-0.07812216132879257,"209":-0.21583938598632812,"210":0.0866892859339714,"211":-0.19603490829467773,"212":-0.1178424134850502,"213":-0.09009917080402374,"214":0.35256823897361755,"215":0.38609564304351807,"216":-0.0057325344532728195,"217":0.17768409848213196,"218":0.33724725246429443,"219":-0.19446808099746704,"220":-0.046370141208171844,"221":0.4374188184738159,"222":-0.09672931581735611,"223":-0.1963811218738556,"224":0.021118251606822014,"225":-0.17627017199993134,"226":0.0706404373049736,"227":0.15573886036872864,"228":-0.05339287221431732,"229":-0.00649798521772027,"230":0.3942854404449463,"231":0.12625057995319366,"232":0.15848135948181152,"233":0.2089550942182541,"234":-0.179707869887352,"235":0.0538242906332016,"236":-0.01997295208275318,"237":-0.03666705638170242,"238":0.3364083468914032,"239":0.11655840277671814,"240":0.030567146837711334,"241":-0.15006476640701294,"242":0.2735927402973175,"243":-0.1343056559562683,"244":-0.08328155428171158,"245":0.037310585379600525,"246":0.28411296010017395,"247":0.2275688201189041,"248":0.32746967673301697,"249":0.16127052903175354,"250":0.2549232840538025,"251":0.3497702479362488,"252":0.0791630670428276,"253":-0.1649252325296402,"254":-0.2527276575565338,"255":-0.12948188185691833}},"9":{"bias":0.21820837259292603,"weights":{"0":0.012502789497375488,"1":-0.2778964042663574,"2":-0.2668754756450653,"3":0.008933407254517078,"4":0.21123486757278442,"5":0.21508610248565674,"6":-0.034200768917798996,"7":0.018881430849432945,"8":0.2581422030925751,"9":0.14834991097450256,"10":0.08689809590578079,"11":0.22710248827934265,"12":0.21595335006713867,"13":0.09584669023752213,"14":-0.07898146659135818,"15":-0.06248351186513901,"16":-0.10197847336530685,"17":-0.19216293096542358,"18":-0.2786567211151123,"19":-0.4279302656650543,"20":-0.3258991241455078,"21":-0.32285815477371216,"22":-0.021382305771112442,"23":-0.07747388631105423,"24":0.10164518654346466,"25":-0.08404681086540222,"26":-0.2729111611843109,"27":0.11721515655517578,"28":-0.06449554115533829,"29":-0.07905734330415726,"30":0.18651083111763,"31":0.11983560770750046,"32":-0.20903733372688293,"33":-0.16671089828014374,"34":-0.19981954991817474,"35":-0.28691956400871277,"36":-0.4258263409137726,"37":-0.2606489360332489,"38":-0.258501261472702,"39":0.12227775156497955,"40":-0.07021943479776382,"41":0.18989835679531097,"42":0.29937806725502014,"43":0.43510696291923523,"44":0.30280786752700806,"45":-0.054852601140737534,"46":0.2185477465391159,"47":0.3817864954471588,"48":-0.08398740738630295,"49":-0.26272475719451904,"50":-0.2443651407957077,"51":-0.20756755769252777,"52":-0.2226763218641281,"53":0.06767552345991135,"54":-0.18676066398620605,"55":0.005250928923487663,"56":-0.13217870891094208,"57":0.0881316289305687,"58":0.1460958868265152,"59":0.16691885888576508,"60":0.30711737275123596,"61":-0.02754366584122181,"62":0.17131875455379486,"63":0.10536941140890121,"64":-0.20618142187595367,"65":-0.21975289285182953,"66":-0.12350951135158539,"67":0.15345728397369385,"68":-0.024720588698983192,"69":-0.13126946985721588,"70":0.1759289801120758,"71":-0.03896935284137726,"72":0.07189330458641052,"73":0.09143265336751938,"74":-0.025970980525016785,"75":0.2608417570590973,"76":0.3196845054626465,"77":-0.10992413759231567,"78":0.13879916071891785,"79":-0.07030855119228363,"80":-0.24820345640182495,"81":-0.03346996754407883,"82":-0.002964021870866418,"83":-0.21061056852340698,"84":-0.3087886571884155,"85":-0.017250733450055122,"86":0.18074114620685577,"87":0.4461990296840668,"88":0.09710552543401718,"89":0.21590448915958405,"90":-0.09814628213644028,"91":0.10631498694419861,"92":0.2309153974056244,"93":0.029951076954603195,"94":0.4429885149002075,"95":0.17770236730575562,"96":-0.2837127149105072,"97":-0.20771631598472595,"98":0.009093809872865677,"99":0.12779735028743744,"100":0.15646441280841827,"101":-0.04434765875339508,"102":0.034238751977682114,"103":0.007796826306730509,"104":-0.14073851704597473,"105":0.2273358255624771,"106":0.034461136907339096,"107":0.08051934093236923,"108":0.11514674872159958,"109":-0.02163088694214821,"110":0.26712608337402344,"111":-0.15150873363018036,"112":-0.3240228295326233,"113":0.07531041651964188,"114":0.054040536284446716,"115":-0.1657317876815796,"116":0.15658123791217804,"117":0.026801783591508865,"118":0.025161156430840492,"119":-0.2354418933391571,"120":-0.255903959274292,"121":-0.1798923909664154,"122":0.06663906574249268,"123":0.23447297513484955,"124":-0.08721711486577988,"125":-0.17373082041740417,"126":0.09496404230594635,"127":0.0039739483036100864,"128":-0.06675540655851364,"129":0.295753538608551,"130":0.17100974917411804,"131":0.04256622865796089,"132":-0.09357498586177826,"133":-0.12004340440034866,"134":-0.2100282609462738,"135":-0.0062910765409469604,"136":0.12166119366884232,"137":0.12087283283472061,"138":0.12846772372722626,"139":0.05077219381928444,"140":0.08113428950309753,"141":0.15461555123329163,"142":0.27540260553359985,"143":0.28123825788497925,"144":-0.1504371166229248,"145":0.28567206859588623,"146":0.23418325185775757,"147":-0.05818009376525879,"148":-0.10774000734090805,"149":0.13035310804843903,"150":0.22027182579040527,"151":0.1474342942237854,"152":0.24210448563098907,"153":0.024113301187753677,"154":-0.0014571005012840033,"155":0.1044217199087143,"156":-0.08406946063041687,"157":0.0052248332649469376,"158":0.32730114459991455,"159":0.6300439238548279,"160":0.5258536338806152,"161":0.16457803547382355,"162":0.3748398721218109,"163":0.11186560988426208,"164":-0.11060432344675064,"165":0.02665337733924389,"166":-0.1193825975060463,"167":0.025226760655641556,"168":-0.09510146081447601,"169":0.02766696736216545,"170":0.09472169727087021,"171":0.21521128714084625,"172":0.15648409724235535,"173":0.0025359257124364376,"174":0.43835562467575073,"175":0.6866263747215271,"176":0.5918722152709961,"177":0.3670060932636261,"178":-0.07004082947969437,"179":0.30088886618614197,"180":-0.0348953977227211,"181":-0.15373528003692627,"182":-0.04585067927837372,"183":0.007742524147033691,"184":0.07196351140737534,"185":-0.0056477622129023075,"186":0.06254953145980835,"187":0.1890496015548706,"188":0.04573928564786911,"189":-0.08228255808353424,"190":0.12783044576644897,"191":0.6556559205055237,"192":0.10135713964700699,"193":-0.039819829165935516,"194":-0.056653257459402084,"195":-0.017783064395189285,"196":-0.21665655076503754,"197":0.30741336941719055,"198":0.07061444222927094,"199":0.02702975831925869,"200":-0.339423269033432,"201":-0.16048534214496613,"202":-0.021023642271757126,"203":0.05898106098175049,"204":0.24287448823451996,"205":0.0695406049489975,"206":0.3952479958534241,"207":0.11196154356002808,"208":-0.2466321885585785,"209":-0.35355591773986816,"210":-0.22284360229969025,"211":0.04443589970469475,"212":-0.14669708907604218,"213":-0.16521738469600677,"214":-0.2727396786212921,"215":0.3704969882965088,"216":0.10817289352416992,"217":-0.31225815415382385,"218":-0.4826453626155853,"219":0.11451534926891327,"220":0.10766232013702393,"221":-0.013356026262044907,"222":-0.047483425587415695,"223":-0.024523865431547165,"224":0.18410803377628326,"225":-0.04415755346417427,"226":0.07466361671686172,"227":-0.3119141459465027,"228":-0.4066362977027893,"229":-0.4733125567436218,"230":-0.023872392252087593,"231":0.12378278374671936,"232":0.2861219644546509,"233":0.19539231061935425,"234":-0.5008931756019592,"235":-0.2646419107913971,"236":-0.15325208008289337,"237":0.1582602560520172,"238":-0.2189212441444397,"239":0.15840868651866913,"240":-0.06591470539569855,"241":0.11297988891601562,"242":0.23799020051956177,"243":-0.11780638992786407,"244":0.12052343040704727,"245":0.13481967151165009,"246":0.20232674479484558,"247":0.21683155000209808,"248":0.027283715084195137,"249":-0.08153090626001358,"250":-0.00007076754263835028,"251":0.038268622010946274,"252":0.09588228911161423,"253":-0.03453800827264786,"254":-0.2119586318731308,"255":-0.03876196965575218}},"10":{"bias":0.05008137971162796,"weights":{"0":-0.1494714617729187,"1":0.012836230918765068,"2":0.20382477343082428,"3":0.18275731801986694,"4":-0.10624624043703079,"5":-0.19305862486362457,"6":-0.0741710439324379,"7":-0.3437350392341614,"8":-0.2810744047164917,"9":-0.20658262073993683,"10":-0.1287684142589569,"11":0.03746245428919792,"12":0.02035609632730484,"13":-0.05875593051314354,"14":0.08624375611543655,"15":0.08601479977369308,"16":0.0939645990729332,"17":-0.06597977876663208,"18":0.15770021080970764,"19":-0.2389839142560959,"20":-0.11266395449638367,"21":-0.18197935819625854,"22":-0.08569587022066116,"23":-0.08158835768699646,"24":-0.026304548606276512,"25":-0.07709909975528717,"26":-0.14787213504314423,"27":-0.18917255103588104,"28":-0.14305931329727173,"29":0.05212661623954773,"30":0.3460371494293213,"31":-0.18322055041790009,"32":0.2570064961910248,"33":0.024816647171974182,"34":-0.09239533543586731,"35":-0.22474916279315948,"36":-0.3034971058368683,"37":-0.07478570193052292,"38":-0.30092713236808777,"39":-0.11606893688440323,"40":-0.011863957159221172,"41":0.0851547047495842,"42":-0.12480787187814713,"43":0.012581483460962772,"44":0.03336448594927788,"45":-0.02226240187883377,"46":0.2449866086244583,"47":-0.07222941517829895,"48":0.24117280542850494,"49":0.08582370728254318,"50":-0.0701141208410263,"51":-0.06828419864177704,"52":0.036870550364255905,"53":-0.258008748292923,"54":-0.1119847372174263,"55":0.0634278953075409,"56":0.16062751412391663,"57":-0.11255060136318207,"58":0.1574847400188446,"59":0.1132262572646141,"60":-0.1539924293756485,"61":-0.2852984368801117,"62":-0.27120980620384216,"63":-0.04317478835582733,"64":-0.015910901129245758,"65":0.11028815805912018,"66":0.20034751296043396,"67":0.1103442907333374,"68":0.07430459558963776,"69":0.09062512964010239,"70":0.12165053188800812,"71":0.23778952658176422,"72":0.2211286574602127,"73":0.24009844660758972,"74":0.007589179091155529,"75":0.20906926691532135,"76":0.24815979599952698,"77":0.08693113178014755,"78":-0.2149679809808731,"79":-0.1522226631641388,"80":-0.034849926829338074,"81":0.15156641602516174,"82":0.1331280916929245,"83":0.04383791238069534,"84":-0.09714426845312119,"85":0.18937547504901886,"86":0.15888406336307526,"87":0.5163439512252808,"88":0.23681531846523285,"89":0.07939958572387695,"90":0.1676056832075119,"91":-0.13987046480178833,"92":-0.10508846491575241,"93":0.08885994553565979,"94":0.03612935543060303,"95":-0.03240327164530754,"96":0.0444156713783741,"97":0.3001439571380615,"98":0.14532208442687988,"99":0.34107980132102966,"100":0.15382090210914612,"101":-0.07812922447919846,"102":0.297571063041687,"103":0.02988293580710888,"104":0.19469411671161652,"105":-0.09224650263786316,"106":-0.0016391313401982188,"107":0.01627553254365921,"108":-0.2961216866970062,"109":-0.24489913880825043,"110":0.2065701186656952,"111":-0.000981572549790144,"112":-0.08240388333797455,"113":0.2845427989959717,"114":0.2750874161720276,"115":0.30748915672302246,"116":0.14799810945987701,"117":0.197830930352211,"118":0.11796887218952179,"119":0.0676446482539177,"120":-0.006970335263758898,"121":-0.12655237317085266,"122":-0.0012188941473141313,"123":-0.0935148149728775,"124":0.037195149809122086,"125":0.04320378229022026,"126":0.22988714277744293,"127":-0.14515943825244904,"128":0.2120819240808487,"129":0.25389254093170166,"130":0.3024657368659973,"131":-0.0028995927423238754,"132":0.06672694534063339,"133":0.001647721161134541,"134":0.24182218313217163,"135":0.13817881047725677,"136":0.10783696174621582,"137":-0.12481588125228882,"138":-0.09794598817825317,"139":-0.10645154118537903,"140":0.13019557297229767,"141":-0.018513573333621025,"142":-0.08487080782651901,"143":0.04064081236720085,"144":0.16598360240459442,"145":0.25543302297592163,"146":0.33263731002807617,"147":0.01296946406364441,"148":0.10490146279335022,"149":0.33884742856025696,"150":-0.1400604546070099,"151":0.09234104305505753,"152":0.16599199175834656,"153":0.05366634950041771,"154":0.14346632361412048,"155":-0.13646236062049866,"156":-0.24994629621505737,"157":0.09559684991836548,"158":-0.03284216672182083,"159":0.12153912335634232,"160":0.29478177428245544,"161":0.12870202958583832,"162":0.17938853800296783,"163":0.22683106362819672,"164":0.28582897782325745,"165":0.09664986282587051,"166":-0.09301051497459412,"167":0.047351423650979996,"168":-0.12378742545843124,"169":-0.12939132750034332,"170":0.09393961727619171,"171":0.14190858602523804,"172":0.09242116659879684,"173":-0.04626777768135071,"174":-0.2863726317882538,"175":0.008583371527493,"176":0.5011100172996521,"177":0.25864794850349426,"178":-0.10631285607814789,"179":-0.01775328442454338,"180":0.24299508333206177,"181":-0.07194874435663223,"182":0.1412392407655716,"183":-0.01795901358127594,"184":0.03131639584898949,"185":0.2021118700504303,"186":0.019195349887013435,"187":-0.06970135867595673,"188":0.15218204259872437,"189":-0.1556776463985443,"190":0.005278948228806257,"191":0.07879727333784103,"192":-0.09088706970214844,"193":-0.014726556837558746,"194":-0.15599259734153748,"195":0.025311201810836792,"196":0.010781882330775261,"197":0.111225925385952,"198":-0.101563960313797,"199":0.07464368641376495,"200":0.14083468914031982,"201":0.020802177488803864,"202":-0.01839543879032135,"203":0.1617073267698288,"204":-0.03793942183256149,"205":-0.1959601640701294,"206":-0.04270906373858452,"207":-0.18227994441986084,"208":-0.10590264946222305,"209":-0.41652050614356995,"210":-0.15633456408977509,"211":-0.05024250969290733,"212":-0.234572634100914,"213":-0.11493423581123352,"214":0.06469174474477768,"215":0.0793260857462883,"216":0.1358417421579361,"217":0.13094815611839294,"218":-0.10683441907167435,"219":-0.19479484856128693,"220":-0.07901361584663391,"221":-0.18318425118923187,"222":-0.14569230377674103,"223":-0.11258348077535629,"224":-0.06773924082517624,"225":-0.24623842537403107,"226":-0.3262858986854553,"227":-0.29030337929725647,"228":-0.3572733700275421,"229":-0.545056939125061,"230":0.12844790518283844,"231":0.041468337178230286,"232":0.0482991598546505,"233":0.09078986197710037,"234":-0.4098317623138428,"235":-0.2871435582637787,"236":-0.018427355214953423,"237":0.008224072866141796,"238":0.179128035902977,"239":-0.1745785027742386,"240":-0.2669019103050232,"241":-0.06627770513296127,"242":-0.2697738707065582,"243":-0.2172989696264267,"244":-0.0748494490981102,"245":-0.42505472898483276,"246":-0.05527431145310402,"247":-0.00006203305383678526,"248":0.053674712777137756,"249":0.031151965260505676,"250":0.05173823982477188,"251":0.06929662823677063,"252":-0.25132086873054504,"253":0.07415585219860077,"254":-0.25893908739089966,"255":0.19400426745414734}},"11":{"bias":0.03806937485933304,"weights":{"0":0.11992475390434265,"1":-0.16704107820987701,"2":-0.23105838894844055,"3":0.0076983035542070866,"4":0.0024199599865823984,"5":-0.2151244580745697,"6":-0.39485931396484375,"7":-0.09471746534109116,"8":0.05893254280090332,"9":-0.11418993771076202,"10":-0.17374593019485474,"11":-0.04085090756416321,"12":-0.15006542205810547,"13":-0.020333752036094666,"14":-0.269363135099411,"15":-0.26684561371803284,"16":0.0374368391931057,"17":0.10045332461595535,"18":-0.00471150828525424,"19":-0.020800823345780373,"20":-0.15024152398109436,"21":-0.82509845495224,"22":-0.4363645315170288,"23":-0.11235911399126053,"24":-0.029062509536743164,"25":0.193884015083313,"26":-0.48396381735801697,"27":0.0856873020529747,"28":0.32623621821403503,"29":-0.025540368631482124,"30":-0.2119952142238617,"31":-0.27620550990104675,"32":-0.30500528216362,"33":-0.20803403854370117,"34":-0.011321322992444038,"35":0.2065391093492508,"36":-0.5027520656585693,"37":-0.11438991874456406,"38":-0.11114491522312164,"39":0.2473805546760559,"40":-0.18706750869750977,"41":-0.21054008603096008,"42":-0.020636294037103653,"43":-0.38946253061294556,"44":0.3493746817111969,"45":0.4747314751148224,"46":-0.009266238659620285,"47":-0.12864500284194946,"48":0.03411060571670532,"49":0.09589193016290665,"50":0.018684936687350273,"51":0.12031008303165436,"52":0.05997048690915108,"53":-0.2645879089832306,"54":-0.061969928443431854,"55":0.08459264039993286,"56":-0.24278990924358368,"57":-0.16250145435333252,"58":0.05955829843878746,"59":-0.24840708076953888,"60":0.12584176659584045,"61":0.03374195471405983,"62":-0.09147873520851135,"63":-0.3876963257789612,"64":0.17050102353096008,"65":0.1509677767753601,"66":0.0009176249732263386,"67":0.18692627549171448,"68":-0.14314241707324982,"69":-0.31270402669906616,"70":0.022316638380289078,"71":-0.08914283663034439,"72":-0.4443366527557373,"73":-0.0617322213947773,"74":-0.21820460259914398,"75":-0.04294484481215477,"76":0.42845889925956726,"77":-0.25538235902786255,"78":0.0019903613720089197,"79":-0.27789223194122314,"80":0.15252864360809326,"81":0.42140477895736694,"82":0.2856564223766327,"83":0.1738772839307785,"84":0.11852406710386276,"85":-0.21813859045505524,"86":-0.3282434642314911,"87":-0.2139376699924469,"88":-0.1513928771018982,"89":-0.24005436897277832,"90":0.14881198108196259,"91":0.1310632973909378,"92":0.30411258339881897,"93":0.267428457736969,"94":-0.10303261876106262,"95":-0.028186393901705742,"96":-0.15930235385894775,"97":0.2673456072807312,"98":0.053258638828992844,"99":0.10014950484037399,"100":-0.19531138241291046,"101":-0.1988934427499771,"102":-0.322681725025177,"103":-0.2224925458431244,"104":-0.24263322353363037,"105":0.0749371200799942,"106":-0.025441359728574753,"107":0.04186476022005081,"108":-0.20787553489208221,"109":0.20868812501430511,"110":0.29925772547721863,"111":-0.10659444332122803,"112":-0.2279486209154129,"113":0.2876621186733246,"114":-0.14028097689151764,"115":-0.05556768551468849,"116":-0.28894704580307007,"117":-0.2857862710952759,"118":-0.4182557761669159,"119":-0.19997760653495789,"120":-0.156124547123909,"121":-0.21247030794620514,"122":-0.09925653785467148,"123":-0.32186439633369446,"124":0.04926971718668938,"125":-0.12359338998794556,"126":0.3724639117717743,"127":-0.5253795981407166,"128":0.11378602683544159,"129":-0.007401243783533573,"130":0.053028594702482224,"131":-0.07096913456916809,"132":-0.4140350818634033,"133":-0.5978380441665649,"134":-0.5840848088264465,"135":-0.14408628642559052,"136":-0.07564156502485275,"137":0.026072030887007713,"138":-0.15786518156528473,"139":0.06755205988883972,"140":-0.09432787448167801,"141":-0.15398575365543365,"142":0.13717694580554962,"143":0.14737269282341003,"144":0.138948455452919,"145":-0.009444582276046276,"146":-0.20280209183692932,"147":-0.1432972252368927,"148":-0.23550726473331451,"149":-0.1305835247039795,"150":-0.09690717607736588,"151":0.19434769451618195,"152":-0.0009112273110076785,"153":-0.03452939912676811,"154":0.07251230627298355,"155":0.0920240730047226,"156":-0.07122386991977692,"157":-0.08860882371664047,"158":-0.11065973341464996,"159":0.4045679569244385,"160":0.40499308705329895,"161":0.22915472090244293,"162":0.027979964390397072,"163":0.10282918810844421,"164":-0.3338128328323364,"165":-0.25272002816200256,"166":-0.24949796497821808,"167":-0.10634556412696838,"168":-0.17464224994182587,"169":-0.019262146204710007,"170":-0.13243767619132996,"171":0.09604065865278244,"172":0.11155011504888535,"173":-0.059599149972200394,"174":0.29074758291244507,"175":0.5248254537582397,"176":0.5414510369300842,"177":0.4507564306259155,"178":0.29920756816864014,"179":0.27844491600990295,"180":-0.22776933014392853,"181":-0.28590628504753113,"182":-0.046786777675151825,"183":0.058249522000551224,"184":0.05879785493016243,"185":-0.21106041967868805,"186":-0.10893771052360535,"187":-0.20435068011283875,"188":0.0630185678601265,"189":0.10395955294370651,"190":0.12025631964206696,"191":0.37947720289230347,"192":0.1989501714706421,"193":0.5338431000709534,"194":0.1132819801568985,"195":0.19677837193012238,"196":-0.061701688915491104,"197":-0.11555259674787521,"198":0.1132233738899231,"199":-0.17003443837165833,"200":0.1004539281129837,"201":0.0850033164024353,"202":0.04524790123105049,"203":-0.05157270282506943,"204":0.24828378856182098,"205":0.46498769521713257,"206":0.3975631296634674,"207":-0.039002422243356705,"208":0.11697804182767868,"209":-0.019713200628757477,"210":0.17631424963474274,"211":-0.018999895080924034,"212":-0.46218883991241455,"213":-0.4516824185848236,"214":-0.10839631408452988,"215":0.10255052894353867,"216":0.1387542188167572,"217":0.3557053804397583,"218":0.10066106170415878,"219":0.05084856227040291,"220":0.6519886255264282,"221":1.0121921300888062,"222":0.3635373115539551,"223":-0.0850234255194664,"224":-0.13209736347198486,"225":-0.09672778844833374,"226":-0.20430698990821838,"227":-0.09623676538467407,"228":-0.13881495594978333,"229":-0.06143647059798241,"230":0.2027188539505005,"231":0.03658119589090347,"232":-0.2065114974975586,"233":0.24694621562957764,"234":-0.0474361926317215,"235":0.2281002551317215,"236":0.2822954058647156,"237":-0.023086244240403175,"238":0.14615707099437714,"239":0.1776074916124344,"240":-0.2645159363746643,"241":0.15069296956062317,"242":-0.4245789051055908,"243":-0.27087828516960144,"244":0.2913079857826233,"245":-0.10893010348081589,"246":0.2606263756752014,"247":0.009261181578040123,"248":-0.06964577734470367,"249":-0.037673212587833405,"250":0.23555755615234375,"251":0.3765948712825775,"252":0.062942735850811,"253":-0.18284812569618225,"254":-0.08710682392120361,"255":-0.2499011754989624}},"12":{"bias":0.031034331768751144,"weights":{"0":-0.13957753777503967,"1":0.026372354477643967,"2":0.2965896427631378,"3":-0.14685097336769104,"4":0.1783236712217331,"5":0.24035659432411194,"6":0.29650983214378357,"7":-0.0742194727063179,"8":-0.022051973268389702,"9":0.1039259061217308,"10":0.2049296349287033,"11":-0.19675834476947784,"12":-0.020821664482355118,"13":0.1242627426981926,"14":0.07538396120071411,"15":0.12172392010688782,"16":0.009156916290521622,"17":0.133819580078125,"18":0.1420890837907791,"19":0.02286875620484352,"20":0.32541877031326294,"21":0.7451502084732056,"22":0.1119396761059761,"23":-0.1194450780749321,"24":-0.01755042001605034,"25":-0.04715351015329361,"26":0.6923561096191406,"27":-0.09500531852245331,"28":0.2696712017059326,"29":0.13955239951610565,"30":0.09971804916858673,"31":0.33394384384155273,"32":-0.1660478711128235,"33":0.0642085000872612,"34":-0.08202588558197021,"35":0.2622092664241791,"36":0.4458247125148773,"37":0.15914756059646606,"38":0.22434575855731964,"39":-0.07243593782186508,"40":-0.0986214280128479,"41":0.0839744359254837,"42":-0.03746224194765091,"43":0.36788323521614075,"44":0.26933661103248596,"45":0.0962936133146286,"46":0.45801693201065063,"47":0.18043017387390137,"48":0.046709198504686356,"49":-0.045707520097494125,"50":0.19519296288490295,"51":-0.22659945487976074,"52":-0.022856369614601135,"53":-0.125553160905838,"54":-0.2087559700012207,"55":0.15130409598350525,"56":0.009892527014017105,"57":0.022437727078795433,"58":0.14476525783538818,"59":0.0829639732837677,"60":0.24211949110031128,"61":0.361957848072052,"62":0.47835275530815125,"63":0.4161493480205536,"64":0.03927053138613701,"65":-0.04233524203300476,"66":-0.22780080139636993,"67":-0.6270461678504944,"68":-0.43836715817451477,"69":-0.2556616961956024,"70":-0.13203001022338867,"71":-0.2837699353694916,"72":-0.0071931565180420876,"73":0.24928344786167145,"74":0.30589693784713745,"75":-0.0927184671163559,"76":-0.4902192950248718,"77":0.4197913706302643,"78":0.36568111181259155,"79":0.25681108236312866,"80":0.2287067472934723,"81":-0.1336095631122589,"82":-0.43971097469329834,"83":-0.4945654571056366,"84":-0.8025663495063782,"85":-0.3940800130367279,"86":-0.3710678815841675,"87":-0.4315234124660492,"88":-0.298146516084671,"89":-0.30964887142181396,"90":0.012735902331769466,"91":-0.3797188103199005,"92":0.07198997586965561,"93":0.07525499910116196,"94":0.29881924390792847,"95":0.5567101836204529,"96":0.2322998195886612,"97":-0.34944188594818115,"98":-0.27230387926101685,"99":-0.15148499608039856,"100":-0.35756221413612366,"101":-0.2723628878593445,"102":-0.3851131796836853,"103":-0.16642341017723083,"104":-0.08479542285203934,"105":-0.22418121993541718,"106":-0.22926250100135803,"107":0.11695815622806549,"108":-0.025063343346118927,"109":-0.21134096384048462,"110":0.048069294542074203,"111":0.27630364894866943,"112":0.22787131369113922,"113":-0.17197445034980774,"114":-0.2016703337430954,"115":-0.14422915875911713,"116":-0.2377857118844986,"117":-0.34305644035339355,"118":-0.039086002856492996,"119":0.0014163862215355039,"120":0.004826994612812996,"121":0.06261316686868668,"122":0.14270611107349396,"123":0.0352974496781826,"124":0.04060332104563713,"125":0.32458147406578064,"126":0.441204309463501,"127":0.1657467782497406,"128":-0.07041576504707336,"129":0.08185546100139618,"130":0.1766144037246704,"131":0.06971878558397293,"132":-0.1146525964140892,"133":0.1222924292087555,"134":-0.01940595731139183,"135":0.25001850724220276,"136":0.0344235822558403,"137":-0.13181529939174652,"138":-0.04177181422710419,"139":0.04408568888902664,"140":0.33315446972846985,"141":0.07190770655870438,"142":0.012379764579236507,"143":-0.016308587044477463,"144":0.4177077114582062,"145":-0.22197824716567993,"146":-0.13470326364040375,"147":-0.09462424367666245,"148":-0.0832490473985672,"149":0.10119705647230148,"150":-0.01655697450041771,"151":0.06427671015262604,"152":-0.0035407503601163626,"153":-0.15554000437259674,"154":0.14593471586704254,"155":-0.07802829891443253,"156":0.29310083389282227,"157":0.27400848269462585,"158":-0.1501440852880478,"159":-0.29347750544548035,"160":0.02614334598183632,"161":-0.17687951028347015,"162":-0.10879026353359222,"163":0.1916811466217041,"164":-0.17476311326026917,"165":0.08350732922554016,"166":0.13809561729431152,"167":-0.13962051272392273,"168":0.013568134047091007,"169":0.08425935357809067,"170":0.15286502242088318,"171":-0.030346278101205826,"172":0.05458332598209381,"173":0.1357235610485077,"174":0.392063170671463,"175":0.14901462197303772,"176":-0.3366335928440094,"177":-0.19333615899085999,"178":-0.03954939544200897,"179":-0.1600342094898224,"180":0.10606827586889267,"181":-0.03228061646223068,"182":0.08105582743883133,"183":0.16048550605773926,"184":0.20809601247310638,"185":0.20109662413597107,"186":0.3746488094329834,"187":-0.07204841822385788,"188":-0.03660444915294647,"189":0.23561108112335205,"190":0.3133200705051422,"191":-0.04097937420010567,"192":-0.25374460220336914,"193":0.19348859786987305,"194":-0.2072247713804245,"195":-0.07151895016431808,"196":-0.06519585102796555,"197":0.18127703666687012,"198":-0.29618921875953674,"199":0.2658929228782654,"200":0.3660210967063904,"201":-0.09678678214550018,"202":0.21501833200454712,"203":0.039456695318222046,"204":-0.1271853744983673,"205":0.17406168580055237,"206":-0.03996175900101662,"207":-0.2742456793785095,"208":-0.19386108219623566,"209":-0.186656653881073,"210":0.17764787375926971,"211":0.14805898070335388,"212":0.12370797246694565,"213":0.10510783642530441,"214":-0.31208693981170654,"215":0.14758892357349396,"216":-0.015482205897569656,"217":-0.4098772406578064,"218":0.0006329625612124801,"219":0.0814906507730484,"220":-0.0997302383184433,"221":-0.6144372820854187,"222":-0.13457201421260834,"223":-0.42090141773223877,"224":-0.24259433150291443,"225":-0.10587385296821594,"226":-0.3401149809360504,"227":-0.0851331278681755,"228":-0.12910255789756775,"229":0.09493599086999893,"230":-0.15081091225147247,"231":0.13587389886379242,"232":0.07738125324249268,"233":0.0456467904150486,"234":-0.1271529495716095,"235":-0.20317748188972473,"236":-0.4327659010887146,"237":-0.5573307275772095,"238":-0.4191688001155853,"239":-0.46116912364959717,"240":-0.09435822069644928,"241":-0.11835145205259323,"242":-0.21293041110038757,"243":0.0230539683252573,"244":-0.17939600348472595,"245":0.12020130455493927,"246":0.054957203567028046,"247":0.10006234049797058,"248":0.3755195140838623,"249":0.33120688796043396,"250":-0.4144040644168854,"251":-0.3831850588321686,"252":-0.05298926308751106,"253":0.03505048528313637,"254":0.21704450249671936,"255":-0.10149636119604111}},"13":{"bias":0.21236936748027802,"weights":{"0":-0.10466835647821426,"1":0.011672760359942913,"2":0.19731178879737854,"3":0.27445489168167114,"4":-0.008674213662743568,"5":0.29879745841026306,"6":-0.03895103558897972,"7":-0.07117640972137451,"8":0.013820042833685875,"9":-0.26349568367004395,"10":0.12557081878185272,"11":-0.06890808790922165,"12":-0.01779971458017826,"13":0.057289667427539825,"14":0.23393435776233673,"15":0.014035217463970184,"16":0.08796180039644241,"17":0.27927789092063904,"18":-0.006080527324229479,"19":0.12500011920928955,"20":0.029141711071133614,"21":0.217386394739151,"22":0.22532345354557037,"23":-0.28051629662513733,"24":0.11434134840965271,"25":0.11192865669727325,"26":-0.13704755902290344,"27":-0.3997146487236023,"28":-0.4672008752822876,"29":0.15214882791042328,"30":0.09476575255393982,"31":0.35726407170295715,"32":0.19095708429813385,"33":0.01480606384575367,"34":0.08597061783075333,"35":-0.07003480941057205,"36":-0.010972668416798115,"37":0.3989432454109192,"38":0.037471603602170944,"39":-0.06443282216787338,"40":-0.07076503336429596,"41":-0.19381745159626007,"42":-0.004331227391958237,"43":0.1554519236087799,"44":-0.06946571916341782,"45":-0.005529270973056555,"46":-0.06636079400777817,"47":0.09092439711093903,"48":0.2536694407463074,"49":0.17925967276096344,"50":-0.13789451122283936,"51":-0.18907849490642548,"52":0.11748351156711578,"53":0.10076963901519775,"54":-0.19231614470481873,"55":0.0609382688999176,"56":-0.1483113318681717,"57":0.003796092001721263,"58":0.08584768325090408,"59":0.13279111683368683,"60":-0.19703635573387146,"61":-0.08297908306121826,"62":-0.07087016105651855,"63":0.4054577648639679,"64":-0.05479782447218895,"65":0.014861023053526878,"66":0.07072020322084427,"67":0.07469265162944794,"68":0.05587043985724449,"69":-0.041615668684244156,"70":-0.12112104147672653,"71":0.37593957781791687,"72":0.2103673666715622,"73":0.19625701010227203,"74":-0.20120717585086823,"75":-0.0160071924328804,"76":-0.1448669582605362,"77":-0.06970362365245819,"78":0.043147023767232895,"79":0.32434242963790894,"80":-0.049455676227808,"81":0.15126097202301025,"82":-0.026170356199145317,"83":-0.14109313488006592,"84":-0.1987430453300476,"85":0.0210396908223629,"86":0.15955401957035065,"87":0.13962127268314362,"88":0.0798988789319992,"89":0.21957479417324066,"90":-0.10602197796106339,"91":-0.35494112968444824,"92":-0.40646180510520935,"93":-0.3535487651824951,"94":-0.23717035353183746,"95":-0.01758263073861599,"96":0.16813351213932037,"97":-0.02320806495845318,"98":-0.00198453851044178,"99":-0.1428883969783783,"100":0.09104564040899277,"101":-0.15387727320194244,"102":-0.018039345741271973,"103":0.3429678678512573,"104":0.09279666841030121,"105":0.03221569582819939,"106":-0.043150726705789566,"107":-0.09618949145078659,"108":-0.15111520886421204,"109":-0.2445126622915268,"110":-0.23526516556739807,"111":0.18570415675640106,"112":0.3681570887565613,"113":0.1707828789949417,"114":0.11012040078639984,"115":0.017905134707689285,"116":-0.15335135161876678,"117":0.07380911707878113,"118":0.1662919670343399,"119":0.005800580605864525,"120":0.3422018885612488,"121":0.08120131492614746,"122":-0.027241282165050507,"123":-0.32702216506004333,"124":-0.17784437537193298,"125":0.08161942660808563,"126":0.06003573164343834,"127":0.36738261580467224,"128":0.5239982008934021,"129":0.04738159477710724,"130":0.20053642988204956,"131":0.03897740691900253,"132":0.147248312830925,"133":0.16292130947113037,"134":0.33311980962753296,"135":-0.07290393114089966,"136":-0.026288077235221863,"137":-0.004240889567881823,"138":-0.008551854640245438,"139":-0.2494276762008667,"140":0.0214587040245533,"141":-0.1269586831331253,"142":0.0990985631942749,"143":0.1089472845196724,"144":0.1726793795824051,"145":0.295407235622406,"146":0.47815313935279846,"147":0.28754279017448425,"148":0.09035813808441162,"149":0.15632982552051544,"150":0.16144709289073944,"151":-0.05238261818885803,"152":-0.10308346897363663,"153":0.15225471556186676,"154":0.060369256883859634,"155":-0.20438461005687714,"156":-0.009268645197153091,"157":-0.14878499507904053,"158":0.04589458927512169,"159":0.062350790947675705,"160":-0.21806827187538147,"161":0.23958607017993927,"162":0.1401558667421341,"163":0.09050275385379791,"164":0.04212110862135887,"165":0.1526000201702118,"166":-0.13008494675159454,"167":0.17192816734313965,"168":0.16724403202533722,"169":0.001730739837512374,"170":-0.06917119026184082,"171":-0.04893840476870537,"172":0.08663072437047958,"173":-0.3936222195625305,"174":-0.3775182068347931,"175":-0.7099347114562988,"176":0.029061758890748024,"177":-0.3125448226928711,"178":0.06608720868825912,"179":0.14114105701446533,"180":0.4214523732662201,"181":0.2736016809940338,"182":0.18493475019931793,"183":0.03420503810048103,"184":0.0223543718457222,"185":0.3016134202480316,"186":0.10894989222288132,"187":0.2668319046497345,"188":-0.11184416711330414,"189":-0.05450579896569252,"190":-0.4305555522441864,"191":0.011840841732919216,"192":-0.03620247170329094,"193":-0.13564269244670868,"194":-0.36235520243644714,"195":-0.20909751951694489,"196":0.002183979144319892,"197":-0.2151304930448532,"198":-0.27955162525177,"199":-0.19768084585666656,"200":0.2857462763786316,"201":-0.12586262822151184,"202":-0.017624521628022194,"203":-0.1916237324476242,"204":-0.325202077627182,"205":-0.30885031819343567,"206":-0.5155730843544006,"207":-0.22275535762310028,"208":0.14777809381484985,"209":-0.31909242272377014,"210":-0.3755412995815277,"211":-0.2366865873336792,"212":-0.05374420806765556,"213":-0.2571250796318054,"214":-0.05282088369131088,"215":0.17224088311195374,"216":-0.020871661603450775,"217":-0.6462821364402771,"218":-0.3525848388671875,"219":-0.2132023572921753,"220":-0.6736373901367188,"221":-0.7160776853561401,"222":-0.27688249945640564,"223":-0.22129108011722565,"224":0.028761187568306923,"225":-0.060799531638622284,"226":0.05255589261651039,"227":-0.11796677112579346,"228":0.027205603197216988,"229":-0.27401942014694214,"230":-0.2333206683397293,"231":-0.09384692460298538,"232":-0.1736476868391037,"233":-0.1385200470685959,"234":-0.41919824481010437,"235":-0.4183993935585022,"236":-0.4542465806007385,"237":-0.09648829698562622,"238":-0.16258355975151062,"239":-0.2046232670545578,"240":0.06220082566142082,"241":-0.04034425690770149,"242":-0.02866312302649021,"243":0.16648262739181519,"244":-0.21245937049388885,"245":-0.2011851817369461,"246":-0.47388598322868347,"247":-0.07259665429592133,"248":0.05904059857130051,"249":0.0492093600332737,"250":-0.45746496319770813,"251":-0.4384321868419647,"252":-0.0937834233045578,"253":-0.05283805727958679,"254":0.274199903011322,"255":0.4273700714111328}},"14":{"bias":-0.19243770837783813,"weights":{"0":0.11907497048377991,"1":0.4001231789588928,"2":0.48165908455848694,"3":0.15593044459819794,"4":-0.03172392398118973,"5":0.012289497070014477,"6":0.014776216819882393,"7":-0.12102700024843216,"8":-0.06889811903238297,"9":-0.2661971151828766,"10":-0.17345981299877167,"11":-0.1690237820148468,"12":0.0059840320609509945,"13":0.057876575738191605,"14":-0.17506089806556702,"15":-0.008461739867925644,"16":0.45995664596557617,"17":0.05416445806622505,"18":0.16983568668365479,"19":0.3187536895275116,"20":0.23759056627750397,"21":-0.0035840205382555723,"22":0.21604666113853455,"23":-0.07254833728075027,"24":-0.10762342065572739,"25":0.06436517089605331,"26":0.16581563651561737,"27":-0.19662468135356903,"28":0.06315887719392776,"29":-0.0773806944489479,"30":-0.19261497259140015,"31":-0.11935294419527054,"32":-0.04964732378721237,"33":0.33609676361083984,"34":0.32006725668907166,"35":0.10320484638214111,"36":0.2809901237487793,"37":0.374767929315567,"38":-0.029732756316661835,"39":0.08758726716041565,"40":0.11699093878269196,"41":0.0714293047785759,"42":0.014908183366060257,"43":0.10711657255887985,"44":0.009352165274322033,"45":0.22619356215000153,"46":0.0063575254753232,"47":0.01713252067565918,"48":0.34136778116226196,"49":0.2711237967014313,"50":0.1625438928604126,"51":0.11558172851800919,"52":0.0381992906332016,"53":-0.01724456250667572,"54":-0.14852316677570343,"55":-0.22244775295257568,"56":0.03131285682320595,"57":-0.20662274956703186,"58":0.06913866847753525,"59":-0.1836383193731308,"60":0.003407766344025731,"61":0.03032439947128296,"62":0.04491352289915085,"63":0.029837017878890038,"64":0.32810789346694946,"65":0.06976931542158127,"66":0.5034158825874329,"67":0.24096491932868958,"68":0.03446458652615547,"69":0.06359434127807617,"70":-0.17441561818122864,"71":0.03853245824575424,"72":-0.10554486513137817,"73":0.32560083270072937,"74":-0.09499450027942657,"75":-0.23296111822128296,"76":-0.08741843700408936,"77":0.21578462421894073,"78":-0.026194846257567406,"79":0.24934445321559906,"80":0.30348336696624756,"81":0.3054463267326355,"82":0.09446799755096436,"83":0.1912866085767746,"84":-0.09727541357278824,"85":0.09222938120365143,"86":-0.13472169637680054,"87":-0.04471846669912338,"88":0.1886005699634552,"89":-0.3784394860267639,"90":-0.14898312091827393,"91":-0.01682674139738083,"92":0.045512471348047256,"93":0.16085678339004517,"94":0.05331245809793472,"95":0.2577472925186157,"96":0.6422923803329468,"97":0.2109626978635788,"98":0.007153124548494816,"99":-0.12263163924217224,"100":-0.11015887558460236,"101":0.19356819987297058,"102":0.07973920553922653,"103":0.20435641705989838,"104":-0.1582924872636795,"105":-0.07795117050409317,"106":0.01732075773179531,"107":-0.032989270985126495,"108":-0.19472797214984894,"109":-0.12470097094774246,"110":-0.10896811634302139,"111":0.20987704396247864,"112":0.6665503978729248,"113":0.1741144359111786,"114":0.00571928545832634,"115":0.013181091286242008,"116":0.18136830627918243,"117":0.2801683843135834,"118":-0.20577920973300934,"119":0.19878970086574554,"120":0.06868474930524826,"121":-0.19897998869419098,"122":0.021935611963272095,"123":0.10436897724866867,"124":0.2223609834909439,"125":0.1867358386516571,"126":-0.20036554336547852,"127":0.3075358271598816,"128":-0.1630435585975647,"129":-0.14928850531578064,"130":0.14808166027069092,"131":0.026514848694205284,"132":-0.0022386517375707626,"133":0.4527836740016937,"134":0.07227466255426407,"135":-0.003346805926412344,"136":-0.09631624817848206,"137":-0.2585861086845398,"138":0.04910314083099365,"139":-0.24839699268341064,"140":0.08624159544706345,"141":0.2796589732170105,"142":-0.0021738240029662848,"143":-0.06181691959500313,"144":-0.09885676205158234,"145":-0.2330489307641983,"146":-0.004797418601810932,"147":-0.13250461220741272,"148":-0.11231822520494461,"149":0.13259531557559967,"150":-0.40634241700172424,"151":-0.12291134148836136,"152":0.10590944439172745,"153":-0.2276953160762787,"154":0.032152656465768814,"155":-0.19098986685276031,"156":0.07126017659902573,"157":0.02885381318628788,"158":0.08641427010297775,"159":-0.15092138946056366,"160":-0.23284249007701874,"161":-0.08263520151376724,"162":-0.4580463469028473,"163":-0.02680676244199276,